org.apache.catalina.manager.HTMLManagerServlet$1 0.09182111 0.449195 -0.9417705 0.30147836 -0.30203673 0.71132255 0.64206785 -0.107946694 -0.22934553 -0.34233725 0.47768104 0.06358308 -0.06541126 0.23700708 -0.29255265 0.18321311 0.49696156 0.12204371 0.50175655 -0.545838 0.053510614 0.10878282 -0.25473836 0.079497546 -0.05801277 0.13134122 -0.22072889 -0.55071926 -0.1042591 0.2982858 -0.116631515 -0.29183677 0.0042535774 -0.2786726 0.14907826 0.22348185 -0.54073626 -0.099329054 -0.40472528 -0.32118404 -0.09744045 -0.37403065 -0.1017103 1.0496428 0.7426044 0.20746809 -0.33492014 0.12675811 0.17047693 0.44749773 0.32961068 0.056297906 0.3366723 -0.18040265 -0.6059267 0.1512375 -0.3059722 0.37650108 -0.3783248 0.5400758 0.09964989 -0.5302829 -0.2963111 -0.011370707 -0.066472575 0.3365126 0.9930928 0.36443898 0.4711744 0.38695893 0.4435621 0.18060206 -0.11029256 0.049665764 0.4579644 0.19886753 0.91830117 -0.7465257 -0.1403448 -0.13434723 0.71871537 0.0119132465 -0.19847713 -0.119223356 0.1492158 0.20519444 0.051005572 -0.67273754 -0.26839906 0.23639405 0.17276889 -0.7328912 -0.10330191 -0.1067213 0.24863905 0.3094172 -0.123387724 0.3239776 0.7275615 0.52341217 -0.08950224 0.5887361 -0.12773497 -0.39020866 0.5183633 -0.26125777 0.26299384 -0.1410691 -0.23718326 0.0833275 0.13473947 -0.24016152 -0.7681473 -0.5378291 -0.5704798 0.19428924 0.9588631 0.09107259 -0.14738098 -0.4707111 0.53374726 0.08435048 0.67691875 -0.10567067 0.017350018 0.46095276 -0.30056295 -0.023244701
org.apache.catalina.manager.HTMLManagerServlet$3 -0.0047659143 0.41226637 -0.9570506 0.19655271 -0.33639687 0.6668581 0.6397266 -0.17226513 -0.18854171 -0.24864803 0.53453225 0.028523123 -0.040137343 0.11897791 -0.27997795 0.17963178 0.6183906 0.14529023 0.43810785 -0.7049564 0.17447737 0.15188894 -0.29691198 -0.040915325 0.04069934 0.20220393 -0.2077408 -0.56673455 -0.1942895 0.33359215 -0.06514789 -0.24985647 -0.039409354 -0.3870082 0.15907158 0.25036046 -0.49176314 -0.11394855 -0.40691805 -0.3379217 -0.13414331 -0.4289541 -0.099485226 1.0500734 0.78744394 0.27362233 -0.35545796 0.115946606 0.12871948 0.37104726 0.40805155 0.059219003 0.21556713 -0.23339021 -0.60511166 0.06536726 -0.2915803 0.6286377 -0.33308718 0.64425313 0.055600036 -0.5165373 -0.2612333 -0.06935054 -0.046511356 0.40422714 1.0177385 0.36978388 0.36939934 0.45706466 0.38375622 0.27007914 -0.21087201 0.001806317 0.5610166 0.19782092 0.8111072 -0.56784284 -0.10095943 -0.16788639 0.65129507 -0.04839056 -0.12484201 -0.012147342 0.14352609 0.18806578 0.12079191 -0.82631296 -0.24977493 0.17688583 0.13769786 -0.740457 -0.07716744 -0.062143866 0.272696 0.2565001 -0.17716324 0.44905475 0.7142938 0.58720386 -0.17798519 0.538475 -0.003060684 -0.33459914 0.41179812 -0.1701416 0.24720165 -0.06951917 -0.14771791 0.06397531 0.09143651 -0.2756334 -0.6789802 -0.6149704 -0.5607742 0.08846372 0.9561673 0.12008715 -0.09966785 -0.49705425 0.44480678 0.13794707 0.5879262 -0.1628865 -0.0077327974 0.37885892 -0.29410455 0.024177004
org.apache.catalina.manager.HTMLManagerServlet$4 0.07672951 0.40567523 -0.9660953 0.20132475 -0.2612496 0.66358626 0.6580969 -0.17589866 -0.22308165 -0.36712322 0.62634796 0.16139124 -0.17051014 0.15494163 -0.2751728 0.12830767 0.6442201 0.16328077 0.47687027 -0.54101 0.10432899 0.097333774 -0.29587287 -0.07852526 0.012633649 0.17428793 -0.2811989 -0.48675293 -0.17035478 0.33519548 -0.057022225 -0.34023422 0.011771041 -0.30812845 0.23165102 0.3532495 -0.4515408 -0.102751195 -0.5117807 -0.47293895 -0.13256942 -0.40325785 -0.06942795 1.0357615 0.68280154 0.37864113 -0.3245788 0.12930527 0.14840582 0.32521275 0.44225255 0.05226077 0.2675662 -0.121698156 -0.60706323 0.14437893 -0.2919861 0.54890144 -0.37448305 0.5474742 0.14059542 -0.4595976 -0.27022272 -0.0691778 -0.17654727 0.29799318 1.0545189 0.4221796 0.46476507 0.47916856 0.39521405 0.3599619 -0.0943201 0.014577562 0.48673606 0.35054246 0.8601092 -0.629302 -0.037240595 -0.13215226 0.59533596 0.07914653 -0.14704527 -0.06029797 0.14711013 0.17363803 0.05667987 -0.6692025 -0.21305293 0.17164403 0.13250525 -0.5672993 -0.06595445 -0.05836266 0.23433644 0.29197314 -0.107926786 0.4214171 0.717904 0.5615238 -0.15059906 0.5657713 -0.024485491 -0.42324087 0.49927542 -0.14143446 0.2678503 -0.14855073 -0.13679083 0.11167163 0.11720624 -0.23096955 -0.6743533 -0.55418575 -0.5945709 0.091402374 1.0042925 0.020123897 -0.2016001 -0.4074223 0.49414137 0.058835663 0.59930116 -0.11410962 0.061323248 0.42879164 -0.24093142 -0.0074080494
org.apache.catalina.manager.HTMLManagerServlet$2 -0.018110374 0.4061052 -0.9360642 0.22873595 -0.3069682 0.6388384 0.62104553 -0.10582502 -0.13837032 -0.31316948 0.54487073 0.10695523 -0.098536454 0.16019215 -0.3526123 0.1185004 0.5074608 0.12160204 0.47601464 -0.516938 0.097956195 0.10499424 -0.35460046 0.01595985 -0.04031287 0.21208501 -0.26581007 -0.48813102 -0.1726543 0.3498627 -0.12536657 -0.3137322 0.027863462 -0.3462101 0.22133167 0.29321122 -0.42074937 -0.153125 -0.4337153 -0.424353 -0.1183544 -0.4544789 -0.016231894 1.129182 0.7669682 0.25012642 -0.3626335 0.1031993 0.10294358 0.3458139 0.3863542 0.03578701 0.27271003 -0.188456 -0.55660444 0.07398054 -0.35476005 0.5454263 -0.4309595 0.5900691 0.043653123 -0.5277862 -0.3324654 -0.15374032 -0.15489857 0.31960285 0.99633706 0.29515406 0.44582573 0.37076625 0.3765866 0.31714103 -0.047446072 0.014030542 0.49549773 0.15632041 0.8477176 -0.629101 -0.11498415 -0.14037575 0.7277436 0.103225544 -0.15735523 -0.0886928 0.19319573 0.26577693 0.07530075 -0.65575296 -0.29388446 0.26775652 0.1658165 -0.7032395 -0.01855456 -0.05927989 0.29262778 0.3079777 -0.1858406 0.51665324 0.76685363 0.5533502 -0.13722107 0.627524 -0.13652919 -0.4770108 0.5025782 -0.14975154 0.18870153 -0.20857306 -0.16100584 0.12027722 0.11606791 -0.29201585 -0.79053324 -0.5713222 -0.5630333 0.14785825 1.0233122 0.034545448 -0.13246039 -0.4187976 0.4519393 0.0827915 0.5757276 -0.07685553 0.13325039 0.31559607 -0.3488685 -0.014429689
org.apache.naming.EjbRef 0.2880483 0.30022913 -0.21156913 -0.24258445 -0.21626468 0.50240016 0.5133493 -0.10129989 0.047499467 0.09569188 0.28226045 -0.36701858 0.351222 0.52598625 -0.30350494 0.3449897 0.717238 -0.40514085 0.29988268 -0.06658964 -0.18663725 0.41054866 -0.35275045 -0.07722372 0.29499325 -0.20312011 0.21032546 -0.05008674 -0.373866 0.09633824 0.1336854 0.35420775 0.32352537 -0.32567668 0.21969938 -0.07648056 -0.62110394 0.044375885 -0.3047693 0.3475761 0.7173108 -0.46373177 -0.19341043 0.26460898 0.40320912 -0.08211024 0.18568395 0.23640494 0.2870427 0.07839261 0.46790168 -0.076713376 0.49202606 -0.14185873 -0.060715646 0.4757625 -0.11349814 0.371283 0.17125493 0.016774792 0.21575959 0.25180256 0.3421559 0.517054 0.65885556 -0.10302503 0.02712378 0.040918384 0.24759968 0.44024333 0.09693119 -0.07009135 0.5669407 -0.066176996 -0.1586243 -0.036542855 0.24912354 0.33349556 0.7633356 -0.25024283 0.34838519 0.08784306 0.40771753 0.087348685 -0.021627024 0.14166719 0.015368348 0.1905829 0.012796384 0.10212958 0.19277929 0.22366098 -0.15440391 -0.07475523 0.22971216 -0.08953455 0.10189543 0.040520225 -0.3017968 -0.055755768 -0.4666946 0.56188154 -0.70540273 -0.25303987 -0.09720402 -0.41340855 -0.5859224 0.49425462 -0.5182839 0.05950503 -0.4067236 0.40043393 0.2779765 0.71337485 -0.12814382 0.5094127 0.001137146 0.22732161 0.8138929 1.0553943 -0.51735926 -0.14575799 0.18056037 -0.2613474 -0.19751152 -0.5436884 0.11583165 -0.029157529
org.apache.tomcat.util.digester.SetPropertyRule 0.06369446 -0.41404197 -0.34873655 -0.252233 -0.027836872 0.42357236 -0.080431536 0.010144036 -0.10859819 0.03416426 0.16357899 -0.06283982 0.51895607 0.097803086 0.64183295 0.8957906 0.38655826 -0.25625572 -0.040672507 -0.49412486 0.24681415 0.5884579 -0.6237694 0.47592372 0.043982588 0.5698737 -0.37853363 -0.24619476 -0.21147507 -0.091931075 -0.44303986 0.29973763 0.42201334 0.23589014 0.3589607 0.014373444 -0.07918917 -0.30839422 0.1411848 0.23779164 0.22359464 0.38377786 -0.58306247 0.6776988 0.5647945 -0.16598885 0.37820584 0.010274647 0.29654855 0.023726536 0.04340916 0.28170252 0.005499973 0.55985487 -0.5950032 -0.0429287 0.07501603 -0.3998798 -0.18884413 -0.5705922 -0.5099796 0.17330565 -0.08015184 0.25995106 -0.40265024 0.33081034 0.5547466 -0.21217209 0.43481898 -0.04049035 -0.52080286 -0.46746293 0.15182386 -0.12126045 -0.7712136 0.40353507 0.29149583 -0.24402077 1.1945201 0.42834643 -0.21624827 1.0874963 0.103775196 0.2538275 -0.32026735 0.0068728556 -0.61431235 0.44644928 0.27540237 0.25756365 0.3687892 -0.058280993 0.5342388 0.55571 0.1290711 -0.3505311 0.51675856 0.39902428 0.50812054 -0.06481117 0.8004131 0.26592198 -0.21361892 0.7198266 0.6794882 0.37833768 -0.3933853 0.0516255 -0.21446837 -0.13507415 -0.04644626 -0.34650692 0.13659 0.60799825 -0.7866632 -0.19160543 -0.12038377 0.40281606 0.037566368 0.12681523 0.27935934 -0.39580658 -0.537047 0.24244213 0.7325827 -0.6223178 0.017074788 0.27722263
org.apache.naming.ResourceLinkRef 0.22673473 0.27219737 -0.075385794 -0.265956 -0.18190677 0.3817805 0.66064614 0.024004873 -0.08975431 0.05519343 0.33907953 -0.4100085 0.37616432 0.46424508 -0.30950445 0.34524736 0.74839485 -0.34456322 0.34974498 -0.013128712 -0.22858706 0.42345136 -0.268295 -0.08362587 0.2446849 -0.12460739 0.10544449 -0.13030484 -0.3302601 0.06517573 0.08151325 0.39106673 0.27309784 -0.40578946 0.21742246 -0.058923893 -0.63405883 0.08475262 -0.32134527 0.34262955 0.67540914 -0.4637638 -0.12253284 0.3002657 0.4379419 -0.1802096 0.1638374 0.2652749 0.23019351 0.07434826 0.46156862 -0.07851189 0.61637217 -0.029854985 0.013565365 0.48640326 0.03841464 0.31261215 0.061809037 0.070468724 0.19305716 0.2237599 0.1731453 0.6041443 0.7525317 -0.026003895 0.01075681 0.008828907 0.17306428 0.4692515 0.1462898 -0.05779786 0.5479759 -0.02278018 -0.08829931 0.0012291471 0.29167762 0.29340133 0.77055824 -0.2714569 0.19444664 0.17772326 0.3993998 0.108849585 -0.04454712 0.13149208 0.02174895 0.105969 -0.0336638 -0.012628656 0.093472615 0.3261081 -0.13801515 -0.04192262 0.05363555 -0.115127385 0.16073363 -0.0653838 -0.29740754 -0.10922482 -0.6057812 0.45098078 -0.73951906 -0.3581489 -0.13306367 -0.24276789 -0.6008267 0.5044734 -0.46766186 -0.061755322 -0.34600013 0.41667134 0.26860854 0.83042336 -0.21192844 0.46828964 -0.12940988 0.19071491 0.8848716 1.0503124 -0.5529667 -0.14020137 0.17330565 -0.27177334 -0.19242907 -0.3743396 0.083291166 -0.013101377
org.apache.tomcat.util.digester.SetPropertiesRule 0.09233301 -0.42574963 -0.44032505 -0.25874388 -0.10401764 0.3661132 -0.011700694 -0.04582758 -0.08499589 0.016498925 0.3166153 -0.021271039 0.5305365 0.10703957 0.6915073 0.83224416 0.39911008 -0.27162817 -0.049607698 -0.47054708 0.26004153 0.5861521 -0.57057 0.46324706 0.123489395 0.54981995 -0.3555187 -0.20992336 -0.16635315 -0.067529514 -0.38622385 0.3182756 0.5202073 0.20151268 0.41904154 -0.011935862 -0.08972491 -0.28069916 0.24012625 0.23249891 0.1717794 0.4591516 -0.5339925 0.68784505 0.5999043 -0.12477022 0.40565664 0.07048006 0.31620598 -0.023073325 0.06917247 0.2696639 0.043741226 0.5283002 -0.58628345 -0.086729296 0.17058882 -0.42982766 -0.14479962 -0.51394147 -0.42572996 0.26081306 -0.0013320155 0.3118347 -0.41477394 0.45914236 0.59989935 -0.20615286 0.40854996 0.016097283 -0.5225266 -0.4491719 0.09835536 -0.10228987 -0.6919625 0.4158455 0.25288713 -0.19972105 1.1054208 0.44131097 -0.25512147 1.0800563 0.066284604 0.26120776 -0.27862462 -0.0006449889 -0.4945064 0.37044722 0.39300194 0.23728557 0.47540155 -0.16326253 0.539762 0.52054715 -0.036751978 -0.3760444 0.4242083 0.43333456 0.5400648 -0.21658152 0.8688763 0.17039078 -0.23031278 0.74002564 0.6142856 0.2739068 -0.30918095 0.015493722 -0.2154989 -0.25344372 0.034413394 -0.39097032 0.16897103 0.5871815 -0.75305533 -0.25330842 -0.16831328 0.37113535 0.039905183 0.2027886 0.3599207 -0.3438972 -0.5309689 0.22765505 0.6986643 -0.5699763 -0.011280278 0.30383086
org.apache.naming.TransactionRef 0.22479413 0.30063355 -0.19979072 -0.24514058 -0.19593945 0.3429207 0.44846413 -0.06180995 -0.0361347 0.04947508 0.28802332 -0.51648384 0.36236706 0.5296611 -0.26553163 0.40391275 0.81831515 -0.49396548 0.2974337 -0.058855653 -0.2134017 0.45546624 -0.2980476 -0.05180895 0.10921215 -0.17564514 0.0074368897 -0.1532941 -0.35603255 0.08611995 0.12504229 0.39694816 0.31597748 -0.29265743 0.2044626 -0.12815629 -0.62044835 0.11952692 -0.26174316 0.5191753 0.7436929 -0.5057787 -0.09519133 0.30168343 0.28986654 -0.043403767 0.24083763 0.36482242 0.28787854 0.07782136 0.41261333 -0.16950294 0.5729341 -0.18682152 -0.083443955 0.535864 -0.08606675 0.38696855 0.1230428 -0.0034477706 0.2566867 0.24468528 0.31137022 0.5673758 0.71415323 0.009661999 -0.02611284 0.11510562 0.31656218 0.32299116 -0.010790421 -0.12752901 0.59396434 -0.06574734 -0.11477167 -0.03659268 0.26078933 0.27752644 0.7380346 -0.21477349 0.24708241 0.04757905 0.38670957 0.10108882 -0.15411226 0.13324445 0.024430184 0.14839508 0.06037549 0.008133238 0.097357795 0.2266794 -0.19080405 -0.075755045 0.19742951 -0.121856146 0.087051004 -0.03229223 -0.32242218 -0.21133122 -0.52578586 0.4968952 -0.62720066 -0.2892422 -0.069320805 -0.4772942 -0.47248805 0.55103153 -0.47296894 0.0119745135 -0.32898757 0.34080318 0.26177308 0.6112597 -0.14360197 0.4892831 -0.06081788 0.2341199 0.8062585 0.996827 -0.5056955 -0.09087101 0.18066007 -0.13849115 -0.20251895 -0.5335587 0.19245915 0.15975855
org.apache.tomcat.util.digester.SetTopRule 0.052928023 -0.44222713 -0.3936056 -0.23172799 -0.053351328 0.37767074 -0.0023176046 -0.08884129 -0.13947792 0.08861002 0.29843545 -0.076892614 0.56409675 0.14555718 0.6105201 0.8570128 0.45316008 -0.26904485 -0.051135074 -0.49190044 0.2634335 0.57131344 -0.6034244 0.46470162 0.058392376 0.5281387 -0.47307438 -0.17098905 -0.23743114 -0.11565463 -0.4683637 0.41015875 0.43696335 0.2168354 0.4076494 -0.025750127 -0.11678405 -0.33895642 0.13097794 0.14948566 0.21131814 0.41856718 -0.5369838 0.68669 0.6504685 -0.18276429 0.3783889 -0.026103664 0.30591035 -0.00872097 0.019375352 0.24569534 0.011415378 0.59137094 -0.55642456 -0.07569865 0.15998921 -0.3903292 -0.24516077 -0.56208605 -0.46500498 0.25034282 -0.016174637 0.3026389 -0.35489064 0.4253448 0.57146055 -0.20863177 0.47107956 0.026411606 -0.5209919 -0.49629536 0.048857246 -0.15874171 -0.796661 0.36907005 0.3232501 -0.21997629 1.1672021 0.46048206 -0.2904263 1.0430808 0.1207919 0.25009993 -0.33028653 0.06005734 -0.5334319 0.30424225 0.34320313 0.2400539 0.34139976 -0.059148543 0.55227906 0.54747635 -0.014811835 -0.23771934 0.48095036 0.4811738 0.5761095 -0.18195768 0.8838852 0.16201255 -0.2204636 0.7376189 0.5752053 0.33070713 -0.33693147 0.014638715 -0.17712077 -0.16051038 0.006735213 -0.40946746 0.1353354 0.47872716 -0.75904524 -0.1768055 -0.1445731 0.39432034 0.040683754 0.16855127 0.33296764 -0.345873 -0.52668583 0.24126093 0.7646213 -0.61516047 -0.00881935 0.22347596
org.apache.naming.HandlerRef 0.22358583 0.32627955 -0.16586146 -0.14450644 -0.25640643 0.43155298 0.53503495 -0.03385733 -0.017111758 0.016731132 0.30915436 -0.40862137 0.33941725 0.5084055 -0.24191323 0.31121594 0.7729846 -0.38309363 0.39378622 0.010169258 -0.12620752 0.46527335 -0.4123894 -0.11945571 0.28274298 -0.18239103 0.12235728 -0.07439632 -0.3903289 0.10919183 0.07105349 0.42839023 0.37372074 -0.326607 0.19982885 -0.06460061 -0.6656771 0.1336563 -0.31624752 0.3721548 0.73198724 -0.59393424 -0.027228551 0.2840099 0.30290252 -0.08837499 0.061300345 0.23558508 0.3281818 0.071995206 0.4591355 -0.113767296 0.6158879 -0.14327057 -0.013723264 0.5226576 0.032607507 0.34080997 0.041876502 0.07366642 0.25817358 0.3235966 0.25561053 0.5379731 0.64408445 -0.048817437 -0.064885594 0.15385446 0.22075967 0.35008925 0.15849862 0.022976326 0.6157034 -0.009281541 -0.10918661 -0.06705835 0.31259733 0.2992982 0.7560414 -0.23087235 0.23511106 0.11517918 0.47160673 0.1724356 -0.023512058 0.10311073 -0.023251945 0.16928074 -0.035880633 -0.028377946 0.11780823 0.23360224 -0.11898177 -0.045131903 0.059853736 -0.11508844 0.14075077 0.052188482 -0.3037291 -0.07797867 -0.47967216 0.51619846 -0.6993462 -0.2943804 0.00945169 -0.3519023 -0.5749931 0.45602456 -0.5368158 -0.07689274 -0.4320885 0.36955252 0.28252625 0.7578211 -0.14778063 0.4109647 -0.023317987 0.25387603 0.90509564 0.99232876 -0.42914194 -0.19051515 0.18330994 -0.36809227 -0.067278154 -0.46723205 0.17605539 0.043486446
org.apache.naming.ResourceRef 0.3339574 0.28305387 -0.16176626 -0.25933 -0.20607124 0.36254632 0.5284759 -0.056469295 0.020258097 0.052678667 0.36062953 -0.4217829 0.30938336 0.5811034 -0.39531875 0.25511178 0.6581019 -0.40553376 0.30631837 -0.043390855 -0.18730088 0.35277545 -0.38082913 -0.04099234 0.3015551 -0.18063375 0.12213352 -0.1388343 -0.25244322 0.12570006 0.1777566 0.37652463 0.25132847 -0.3003609 0.21777704 -0.08472483 -0.62975717 0.07169506 -0.22401397 0.38759008 0.62351465 -0.5913509 -0.15473749 0.32734165 0.37146798 -0.07505778 0.16173618 0.2573622 0.31056428 0.057662543 0.39373878 -0.09798345 0.6404815 -0.11543147 -0.072221555 0.43824667 -0.10143095 0.31874603 0.0951553 0.024017775 0.3497039 0.28463155 0.34347486 0.656881 0.743762 0.04847334 0.060203347 0.009732203 0.28672612 0.4828809 0.14779168 -0.08973589 0.55667144 0.01410789 -0.099570386 -0.059147295 0.23780559 0.26735872 0.86458683 -0.32660058 0.23315348 0.18382096 0.29385388 0.091219686 -0.13439739 0.18160838 -0.08627375 0.23981807 0.02541778 0.03087458 0.127514 0.31045336 -0.095554195 -0.19595239 0.16642731 -0.059079338 0.07929801 -0.023901632 -0.25175434 -0.18948503 -0.48154706 0.5443836 -0.6899289 -0.34238282 -0.05905377 -0.3439827 -0.48360848 0.3981753 -0.42594224 -0.018811999 -0.308308 0.38576066 0.3151546 0.6730959 -0.17755678 0.53588796 -0.028177418 0.30343655 0.8322344 1.0455844 -0.49766764 -0.09349861 0.21619593 -0.20887887 -0.30690113 -0.49343684 0.08525993 -0.024158508
org.apache.tomcat.util.digester.SetRootRule 0.06094199 -0.36390826 -0.35202464 -0.23175924 -0.048797134 0.35204902 -0.037048955 -0.044284794 -0.079323016 0.08498653 0.2616837 -0.037167475 0.49761108 0.1683216 0.6408435 0.8428378 0.4495253 -0.31953564 -0.061230436 -0.51387006 0.2202309 0.5986279 -0.5702472 0.4408003 0.06963503 0.4755968 -0.38991368 -0.18053627 -0.15584238 -0.08988178 -0.40074486 0.35682392 0.40719998 0.1936628 0.3576298 0.06852812 -0.06300467 -0.23062532 0.27529576 0.11038977 0.2350234 0.41784635 -0.5745718 0.6771586 0.67748255 -0.12992716 0.35787335 -0.0068412013 0.43011245 -0.07157145 0.0726437 0.22937725 0.030505275 0.5800932 -0.6888228 -0.020157237 0.18772815 -0.41377637 -0.1540349 -0.54988784 -0.4185363 0.16020006 -0.071877696 0.1993884 -0.47700492 0.40612087 0.5574403 -0.12906058 0.4371617 -0.07422371 -0.65722835 -0.43114066 0.0850819 -0.08233483 -0.70742834 0.4511995 0.38038543 -0.16924505 1.1959482 0.40665942 -0.3079052 1.0936146 0.1326368 0.28321427 -0.30571622 0.009514436 -0.56729084 0.43502834 0.32424423 0.3249845 0.44890934 -0.080695465 0.5570651 0.61772984 0.083211295 -0.35615152 0.41571745 0.42016745 0.5024289 -0.16266406 0.86775756 0.17819938 -0.32090095 0.76611847 0.67824703 0.33280122 -0.32623872 -0.0069246995 -0.15953541 -0.14525141 0.016034337 -0.39178318 0.16926436 0.58054256 -0.7984445 -0.20204878 -0.16559622 0.33413875 0.045630127 0.13859509 0.39909458 -0.36465803 -0.45939666 0.23097517 0.66730994 -0.54025406 -0.020116825 0.2214686
org.apache.coyote.ajp.AjpNioProtocol 0.6411823 0.29898566 0.24818379 -0.3057257 -0.28035074 0.36293584 0.20250648 -0.021238424 0.09360678 -0.025501296 0.05564072 -0.2168459 0.33754703 0.16749918 -0.26320845 0.37301075 0.16185471 0.24727698 -0.097420305 0.18592763 -0.18655497 0.051819064 0.18910794 -0.20978355 -0.22426492 -0.34121186 0.1626802 0.20956723 0.39004502 0.4354798 0.022270665 0.010188945 0.07692404 -0.19763741 0.10376831 -0.3279029 -0.04940521 -0.035206553 -0.09643475 0.0753708 0.04755179 -0.18133156 -0.10024433 -0.18369053 0.029810885 -0.08932153 -0.06663204 -0.29194787 -0.15662715 0.031139266 0.2196916 -0.23702455 0.29898837 0.04528462 -0.17198552 0.06559997 0.049073014 -0.35279408 0.18669939 -0.07231263 -0.50955933 0.3853496 -0.07024311 -0.24455309 0.16108109 0.6334344 0.25873467 0.43251327 0.4029637 0.07308582 -0.20370068 0.22937836 0.18847513 0.21487194 -0.48754668 -0.13286328 -0.0010334689 -0.6251538 0.049755815 0.35328296 -0.34616247 0.12957697 -0.21285047 -0.16442674 -0.16249375 -0.31877673 0.38561985 -0.12746593 -0.05875296 0.091942914 -0.063226484 0.10369968 -0.09562872 0.56212574 -0.18176399 -0.018095 -0.2329817 0.34454507 0.15983559 -0.031044265 0.64681107 0.20420088 -0.29602408 -0.08095362 -0.01696191 0.2650909 0.4368853 -0.05574793 0.008428053 0.2199215 -0.20095178 0.049411 0.056787457 0.038314953 -0.2335008 -0.105473444 0.021793395 0.016952476 0.06260454 -0.08513711 0.037158497 0.04763852 0.06347104 -0.042885073 -0.0090443 -0.33826 -0.00013198493 0.24833459
org.apache.catalina.users.AbstractGroup 0.74492985 0.36021024 -0.5844902 -0.20227996 -0.9163665 -0.31587538 0.36437085 0.42806724 0.9399387 0.42072147 0.36715683 -0.69836783 -0.0109155 0.011849274 -0.2780085 0.97169083 0.013688429 0.6142463 -0.09302508 0.58943576 0.34146246 0.29723185 -0.8125657 0.65843236 -0.023072612 0.6019421 -0.878203 -0.0744906 -0.018455952 -0.45379537 -0.34273267 -0.089169055 1.2953478 0.098396145 -0.09008753 0.14584318 -1.1615171 -0.21090358 0.7103466 0.42149055 -1.3499316 0.05968714 0.08521284 0.30436543 -0.0713154 -0.56675714 0.4282493 0.71429574 0.08804274 0.023784757 -0.3536555 0.061216693 -0.68995595 -1.2412668 -0.34864083 0.3589525 -1.291082 -0.42291546 0.32991195 -0.82064116 -0.21479397 -0.04015698 -0.16177155 -0.6286873 0.26858318 0.51269007 0.7747859 -0.2073512 0.22488551 -0.8745834 -0.23889473 -0.3547204 0.22341236 0.17616938 -1.1978135 -0.8609182 0.84026027 0.4419176 0.6461016 -0.98101974 0.021250641 0.73463416 -0.23080644 -0.4700351 -0.48760122 0.99504757 0.010258766 0.31318462 -0.1349097 0.7745937 0.9232391 0.34629816 0.10768794 0.44992942 0.85445327 -0.7448501 0.50592774 0.6008218 -0.26653257 0.85404 -0.034642518 0.033267982 -0.15495594 -0.38157785 -0.3784976 -0.03248488 0.48455432 -0.83598137 -0.5753268 0.5444419 -0.97147113 0.4906764 0.6772067 0.36153945 -1.0306122 -0.06001006 0.07803307 -0.7390856 0.24176706 0.8415746 0.26809868 -0.71388185 0.2943448 -0.5487881 -0.004868203 0.8282875 -0.26322374 1.0324883
org.apache.tomcat.util.codec.EncoderException -0.5250833 -0.64591634 -0.48374268 -0.41472766 -0.86764586 -0.02382887 -0.70422673 0.58590484 0.38179544 -0.13410135 0.4656502 -1.1667118 -0.35352764 -0.34933648 -0.0015050598 0.6528562 -0.48993054 0.3443792 -0.5730413 0.4955108 -0.14749232 0.48105115 -0.8871958 -0.7089732 0.07122093 0.73255074 0.40702608 0.34342185 -0.13853243 0.48731315 -0.21291381 -0.46272126 1.1126319 -0.283411 0.18557031 0.20929107 -0.7050823 0.88458514 1.2620482 0.6831698 -0.6181725 0.2585527 -0.023962872 0.13217519 -0.28834277 0.041136675 0.13341117 0.55176884 -0.3345592 -0.23620878 -0.17358668 -0.40251616 0.22316536 -0.3544081 -0.7578401 0.9642157 0.11510819 -0.6720356 -0.22384194 0.14269093 0.34282416 0.35109475 -0.17142324 -1.0003343 0.62666905 -0.39089066 0.8774514 -0.013468652 0.81938493 -0.5170028 -1.1335427 -0.8150942 0.29967567 1.0374594 0.36990786 -0.17288814 0.19292274 -0.0043508653 0.8369495 -0.2615685 0.8850984 0.75259364 -0.09221867 -0.27725643 -0.39287895 0.08194802 0.08387827 0.3749957 0.17012826 1.052331 0.4539204 0.4857041 0.7765362 0.9109687 0.16051632 0.26962188 0.07879217 -0.09388372 0.35460085 1.2987509 -0.3302416 0.0483588 -0.5716315 -0.49978667 -0.24696788 -0.3043391 0.7147892 -0.16138324 -1.0741798 0.05895674 -0.109966 0.8595776 1.437572 0.2580568 -1.25105 0.18227743 0.22209233 -0.10943052 -0.045836005 0.4352537 -0.34334928 -0.19007845 0.042953696 0.49978164 0.5410746 0.9886571 -0.44618642 0.9993796
org.apache.tomcat.util.codec.DecoderException -0.56025046 -0.6370262 -0.49935472 -0.3665967 -0.8955548 0.072247714 -0.6930735 0.5742018 0.48451695 -0.0689713 0.43712145 -1.21937 -0.42281246 -0.33279932 -0.023090076 0.63448745 -0.4590031 0.32287806 -0.6291958 0.57008356 -0.16744398 0.43974635 -0.9290987 -0.74681544 0.030703524 0.7274469 0.42113262 0.33178616 -0.1743119 0.50998664 -0.176871 -0.50002307 1.1425383 -0.19928332 0.0497978 0.21909736 -0.73621076 0.9345868 1.3767743 0.6627723 -0.68267226 0.26330152 0.100847274 0.2098314 -0.30024174 0.040553022 0.04228886 0.49973497 -0.29659328 -0.25731915 -0.14899893 -0.45095447 0.17054395 -0.2237348 -0.7670831 0.97638077 0.16727152 -0.7311996 -0.099212594 0.18309732 0.38576376 0.29463267 -0.15165195 -0.96962756 0.6880335 -0.41615546 0.87247735 0.02998302 0.8158728 -0.58438545 -1.1508576 -0.8201447 0.3801207 1.012617 0.3721848 -0.11349734 0.15101114 -0.010150049 0.6974482 -0.3617633 0.92223287 0.7711596 -0.017083045 -0.39118588 -0.41137007 0.09872337 0.070634715 0.35428092 0.20089284 0.90164757 0.45257598 0.43340057 0.6878602 0.99161637 0.13399367 0.24367575 0.17176297 -0.047554843 0.41421473 1.32296 -0.36653903 -0.03645122 -0.5545766 -0.49494338 -0.34184954 -0.27750188 0.6704409 -0.13612257 -1.1014818 -0.02298066 -0.2884315 0.7935968 1.4190121 0.3115541 -1.3436283 0.1794957 0.22406943 -0.16058709 -0.01749167 0.46764442 -0.2680626 -0.27853996 0.1409435 0.5491797 0.51490635 0.9528438 -0.43967813 1.0503355
org.apache.tomcat.util.digester.AbstractObjectCreationFactory 0.733938 0.5107889 -0.57485265 -0.273712 -0.9493148 -0.5414891 0.4071278 0.38870922 0.99042964 0.30588177 0.4150726 -0.8411246 0.010875851 -0.1482113 -0.21267983 0.9400595 0.00096421846 0.6137134 -0.05189386 0.6686816 0.463022 0.21803086 -0.8212604 0.7592045 0.05052669 0.64360505 -0.90125173 -0.047462948 -0.09687506 -0.4327887 -0.22520885 -0.11780271 1.1734161 0.0077329054 -0.016923089 0.19187778 -1.3278288 -0.27684823 0.71203756 0.5142708 -1.4304067 0.038481224 0.068674 0.26041928 0.041174985 -0.58149594 0.4758837 0.7056231 0.1748362 -0.0011900391 -0.20498563 0.22597845 -0.7000817 -1.1520963 -0.43094358 0.31894454 -1.1840469 -0.31739166 0.4225259 -0.89836484 -0.22942756 0.07451007 -0.24585587 -0.6658432 0.29263085 0.3536969 0.82315826 -0.22313821 0.20119268 -0.7875534 -0.27552956 -0.31029803 0.20150554 0.16254956 -1.1772358 -0.95571333 0.9111567 0.48746356 0.7603835 -0.96450454 0.07839212 0.6702526 -0.37575382 -0.5203792 -0.55139226 0.8866782 -0.01276465 0.22961706 -0.11486492 0.7524314 0.9564813 0.24345033 0.10023594 0.41461563 0.91036904 -0.754606 0.5704499 0.5966661 -0.18063156 0.8361476 -0.027764423 0.013506569 -0.12718812 -0.32311603 -0.48190293 -0.021866966 0.6016015 -0.7297124 -0.5670977 0.54305774 -0.93229026 0.38170585 0.5935962 0.258486 -1.0991521 -0.09176414 0.1010028 -0.7250267 0.14807841 0.93544936 0.24182747 -0.61906356 0.26486287 -0.5302723 -0.065362185 0.7629308 -0.2821996 1.0705036
java.nio.channels.ReadableByteChannel -0.105675936 0.14582874 -0.12332037 0.6132245 -0.2920186 1.3182056 -0.29830185 0.87067264 -0.21894027 -0.114350334 0.8098045 -0.7786118 -0.023099825 0.7596371 -0.98966223 0.09829358 0.7833035 -0.5025575 0.3043519 0.32365292 0.38643733 -0.013061816 -0.1209222 -0.6134249 1.0247136 0.60251564 -0.1658568 0.4393 -0.021209447 -0.46100467 -0.26094082 -0.10694349 0.5092692 -0.7406973 0.44678855 0.60145944 -0.11018147 -0.173665 0.2009904 0.5383989 -0.49161634 0.48755342 -0.73541874 -0.2696845 0.46581957 0.124112315 0.24412715 0.6918911 0.30720443 -0.15572423 0.28307116 -0.23213986 -0.86945117 0.4200944 -0.5490433 0.88339883 -0.9109895 -0.101809405 -0.72569096 -0.42858532 0.34311798 0.032457713 -0.08392225 -0.9451923 0.54295903 1.2274832 -0.25931224 -0.16691212 0.13733119 0.18133888 -0.40418357 0.024198044 0.14979023 0.2588973 -0.041532867 -0.4628278 0.19830322 -0.38426068 0.9335451 0.51286995 -0.0052189687 0.25233006 -0.101406015 -0.9686119 -0.06845625 0.7701868 -0.51877975 -0.046433993 0.14057116 0.49050182 -0.02701336 0.4974807 0.047818 -0.09719507 -0.5324535 0.2682026 0.30474854 0.23126937 -0.32412815 0.0034537218 -0.69770694 0.14481151 0.08656179 -0.14803891 0.7577701 0.43650866 -0.03929145 -0.7956487 0.23628826 0.13600309 0.18478705 -0.19842854 0.2872947 0.13737994 0.1990269 -0.6933713 -0.79980195 -0.98365045 -0.50801915 0.43246076 0.42747876 -0.24585219 -0.20122503 0.048403602 0.13261876 0.00435284 -0.64239216 -0.0094880825
javax.annotation.security.DeclareRoles 0.35321483 -0.65963954 0.2517541 0.004308448 -0.4285392 0.50095016 -0.85484135 -0.11381698 0.11964245 0.4978613 0.4362032 -0.47582456 0.023373254 -0.43875256 -1.1280533 -0.43930647 0.5989704 -0.8548974 -0.07034207 -0.4893191 0.28203747 -0.1268552 0.047282554 -0.7020273 0.15079308 -0.23795505 -0.002319532 0.21762954 -0.34533215 0.6283885 -0.8578555 -0.15287703 0.6101437 -0.44901934 0.2929139 0.68066293 0.09941669 -0.16815731 0.34713253 0.4575091 -0.6058162 -0.5695265 0.203453 0.35009384 -0.39695066 0.054172695 1.4048903 0.63571644 -0.5525501 0.10436724 -0.09837461 -0.14754695 -0.2313101 -0.060103536 -0.39016405 0.3503402 -0.8826666 0.22594471 -0.1225189 0.035044678 0.060930196 0.1232757 -0.34545532 -0.30486098 0.31156397 0.40329617 -0.18416055 0.17173052 0.026262566 0.23735394 0.029258998 -0.5321696 -0.5256626 0.07695353 0.8338761 0.123304054 0.09637708 0.0148491375 0.8003899 -0.10550507 0.7371547 -0.016201546 0.03150958 -0.6786708 -0.6703015 -0.25080258 0.35938445 0.33590463 -0.06343993 1.126144 0.044708483 0.78080475 0.41278088 -0.24037372 0.54312015 -0.1339789 0.42045784 0.63188744 0.14989902 0.13357659 0.44694367 0.14426577 -0.050153878 0.7869538 0.03272893 0.20271413 0.22414297 -0.4519069 -0.34985095 -0.17682281 0.06125236 0.46817723 0.6668151 0.45547974 -0.97443664 -0.08725214 -0.051834337 -0.11149639 -0.35545388 0.1773475 0.2721637 -0.032184508 -0.45093474 -0.050840326 0.17992434 -0.116401345 -0.85368246 -0.12566864
java.nio.channels.WritableByteChannel -0.0011719684 0.14754942 -0.1554581 0.60389525 -0.2540749 1.291799 -0.31576705 0.8931033 -0.2049087 -0.10074624 0.8060504 -0.7823883 -0.09435325 0.7656838 -1.0634315 0.17484513 0.7176077 -0.44415936 0.23228543 0.3447808 0.4574155 -0.06504387 -0.17285487 -0.7203054 1.0380931 0.65210795 -0.1769976 0.52510804 0.046203915 -0.47385696 -0.22018637 -0.14220512 0.5405483 -0.7331847 0.4990089 0.6058438 -0.13785185 -0.22429208 0.22136357 0.58366066 -0.51154876 0.44635767 -0.7305011 -0.17861144 0.47127658 0.12665243 0.21092255 0.7256454 0.28669634 -0.1810766 0.38752943 -0.2717947 -0.87120837 0.37042904 -0.6144357 0.85457987 -0.83310175 -0.12551937 -0.7395756 -0.38874623 0.4049992 -0.035677332 -0.09570702 -0.9639507 0.5552613 1.3227808 -0.23205312 -0.18391104 0.20440167 0.20724745 -0.43533662 0.028931295 0.14621921 0.2606209 0.023372013 -0.52954066 0.23247361 -0.32782403 0.9612708 0.5343845 -0.081811145 0.2628053 0.0062290817 -1.0424333 -0.118245535 0.73878044 -0.6408949 -0.10966434 0.17968449 0.441259 -0.022695653 0.4322256 -0.0002528146 -0.13226062 -0.5656364 0.25716665 0.35256174 0.15312651 -0.39096668 0.055132877 -0.7105266 0.2106634 0.10491684 -0.1262386 0.75783116 0.47801173 -0.019910837 -0.80343324 0.24410012 0.059222586 0.17898212 -0.16792198 0.34910414 0.08605502 0.19547857 -0.6977495 -0.83607876 -0.88973576 -0.45647904 0.41276413 0.41677532 -0.21275347 -0.2965605 -0.020013712 0.12877756 -0.06268327 -0.67957616 0.030356633
javax.annotation.security.RunAs 0.24020232 -0.48868117 0.21916327 -0.1326406 -0.33920565 0.54000586 -0.8930974 -0.15248089 0.046679273 0.5069348 0.45191395 -0.6108028 0.07917393 -0.52096987 -1.1172653 -0.3523329 0.63717043 -0.8780329 0.07401549 -0.652394 0.2148895 -0.20451723 0.06635107 -0.6993292 0.12291657 -0.0991936 -0.049377196 0.20936148 -0.29150915 0.68536043 -0.8859651 -0.019813016 0.57869613 -0.47780576 0.3081814 0.7126397 0.19696505 -0.13865305 0.35271657 0.3011842 -0.5762496 -0.55549955 0.15890682 0.39082044 -0.22570983 0.17466748 1.42116 0.6449552 -0.49294746 0.10198054 -0.19985028 -0.091443725 -0.32221127 -0.08787672 -0.35900253 0.33253175 -0.898807 0.28507254 -0.17596059 0.045174144 0.106153294 0.09066786 -0.4521988 -0.24056561 0.3491917 0.30600718 -0.20401481 0.24583675 -0.0058690123 0.09704092 0.05982949 -0.49740562 -0.43331227 0.018376773 0.832077 0.09611523 0.18454674 0.047453996 0.89683354 -0.14370674 0.64906126 -0.088912606 0.07803238 -0.5859136 -0.6441318 -0.18367305 0.33015028 0.29362628 -0.014701843 1.1455324 0.043270145 0.75901145 0.43921196 -0.23996602 0.52146494 -0.08903915 0.37872443 0.59722626 0.17812158 0.10145432 0.5227768 0.076685764 -0.24691093 0.872383 -0.036491472 0.30577582 0.12825638 -0.49532425 -0.4007595 -0.17690553 0.13435481 0.48043075 0.6176311 0.496164 -1.0401623 -0.04235265 -0.01646031 -0.07144937 -0.31992787 0.27392858 0.21184537 -0.07080822 -0.4314105 0.024667308 0.14228408 -0.06103326 -0.86182904 -0.08774514
org.apache.catalina.connector.Response$3 0.2743315 0.5349306 0.34808022 -0.08259387 -0.652947 0.48225898 0.53033423 -0.4279213 -0.074446246 -0.5497945 0.15461566 -0.71774864 -0.09109513 0.020420851 0.10048454 -0.06969233 1.2349383 0.2205318 -0.29283237 0.6109363 0.2847913 -0.26293725 -0.21710145 0.4515526 -1.105379 0.21270452 -0.04833199 -0.79137045 0.4948854 -0.6936047 -0.35839403 -0.94112426 1.335795 -0.41717672 -0.4321004 0.4976917 0.4549514 0.036704805 0.033136576 0.81925505 -0.38927007 0.25336 -0.108194284 0.258836 0.20332362 0.25898665 1.6362962 0.30890414 -0.13218571 -0.1998654 -0.28825882 -0.7442648 0.17973772 0.21603239 -0.076959185 0.30696002 -0.9056449 0.5609233 -0.7543045 -0.87908787 0.2178006 0.18220463 -0.3513028 -0.7188955 0.7332971 0.4463358 0.74087465 -0.22867866 -0.06565042 -0.8567583 -0.08329298 -0.25459462 -0.63837385 0.26128095 0.06121448 -0.0716096 0.6701331 -0.10315532 0.6161689 0.3500678 -0.16663632 -0.33667988 -0.6726047 -0.33632517 -0.20842928 0.7334211 0.71387637 0.26477346 -0.14821482 0.5506371 0.44193956 0.4541615 0.9452384 0.430177 0.8734128 -1.1459882 0.06593612 -0.28601414 -0.12859346 0.84110636 0.33549327 0.1833741 0.014236777 0.5630633 0.37160188 0.5172502 -0.526645 -0.83165413 -0.47422507 -0.60201037 -0.56860244 0.1682595 0.9550839 0.20562905 -0.2574411 0.6421752 -1.1296831 -0.47590232 0.26857078 0.26094443 0.2440603 -0.41592413 -0.22231899 -0.262964 -0.16228025 0.38930583 -0.49083567 0.25535426
javax.annotation.Resources 0.2129647 -0.54772264 0.19465087 0.07488122 -0.41950023 0.5752359 -0.87213755 -0.22043449 0.09813482 0.6330106 0.39598045 -0.52055544 0.107632264 -0.39839995 -1.0582684 -0.54016525 0.56777316 -0.8733902 -0.025222743 -0.61569506 0.29214618 -0.13068466 -0.070538074 -0.7180397 0.10985898 -0.20298515 0.014218685 0.31511214 -0.33444616 0.70564765 -0.90417236 -0.16624066 0.5600478 -0.50296575 0.29842588 0.7345636 0.10501679 -0.05076849 0.3238921 0.4112811 -0.61623 -0.6698818 0.15285331 0.38274008 -0.30200082 0.062039144 1.3573109 0.5816646 -0.54393864 0.1525018 -0.25197944 -0.22986512 -0.3570564 -0.004755479 -0.46899697 0.3727677 -0.8457514 0.25626406 -0.23334551 0.0129138585 0.08595938 0.13166906 -0.32108393 -0.27283457 0.25538817 0.39401862 -0.22254442 0.23889528 -0.01847056 0.15168685 0.025052764 -0.5761714 -0.5116045 0.14688408 0.8212448 0.12731786 0.08493838 0.079114825 0.7547898 -0.17364585 0.6314431 -0.029622203 0.09690001 -0.5683219 -0.7215688 -0.13164738 0.21794385 0.28711826 -0.079129465 1.1301951 0.0024281316 0.73694277 0.3941847 -0.19566345 0.52262175 -0.13341811 0.3304862 0.7801884 0.06263728 0.12976865 0.49091122 0.17580588 -0.10791301 0.83715916 -0.03463705 0.28799978 0.12882821 -0.3701923 -0.37232924 -0.17601725 0.068827264 0.45675722 0.55309826 0.4044255 -0.9729151 -0.1482815 -0.1351828 -0.005691501 -0.348915 0.18983637 0.27077937 -0.058279775 -0.34319726 -0.007887213 0.24880637 -0.026190981 -0.8254395 -0.09639656
org.apache.tomcat.util.buf.UEncoder$SafeCharsSet 0.31404772 0.51731974 0.44313982 -0.18173435 -0.6484912 0.50973475 0.45895302 -0.37427846 -0.21524282 -0.6278862 0.13793914 -0.68962425 -0.02367606 -0.058294125 0.068046905 -0.058216564 1.2177694 0.244646 -0.24233992 0.5884835 0.20069511 -0.2468356 -0.13634682 0.4577161 -1.0312879 0.20668863 -0.063392505 -0.7927319 0.39452326 -0.66789687 -0.46275106 -0.9038301 1.3548156 -0.39958337 -0.37834537 0.5068717 0.37593874 0.055080116 -0.065900676 0.83308345 -0.3883361 0.199336 -0.27847958 0.32513684 0.24092053 0.28003395 1.6383009 0.31158915 -0.17322981 -0.1742363 -0.3581691 -0.72895795 0.20238213 0.21191752 -0.02699574 0.30550334 -0.9769926 0.5616468 -0.87664145 -0.9321006 0.23253104 0.1553025 -0.3819969 -0.7428111 0.70808274 0.45754254 0.6553032 -0.29591087 -0.059265517 -0.7149124 -0.18316731 -0.2872432 -0.6924139 0.26610985 0.056458823 -0.074551284 0.73104036 -0.052305903 0.6076255 0.30363798 -0.120287925 -0.376673 -0.7685116 -0.43407965 -0.125548 0.6783012 0.6994062 0.1740994 -0.191129 0.53958863 0.35738495 0.41860616 0.99805295 0.39812848 0.9039253 -1.2088629 0.04234295 -0.238208 -0.07155114 0.83343846 0.35543162 0.12886979 0.10819538 0.63812643 0.3985877 0.44371602 -0.56617904 -0.89091134 -0.45586058 -0.5971952 -0.6870269 0.2486464 1.001434 0.22040564 -0.23082995 0.7580061 -1.0015527 -0.46217737 0.23020935 0.23242715 0.15355761 -0.43359858 -0.21353449 -0.315549 -0.21635361 0.29576978 -0.4902215 0.3127509
org.apache.catalina.startup.LifecycleCallbackRule 0.5314963 0.41606098 0.11389849 -0.46087116 -0.10651589 0.63373756 -0.04787446 0.13441278 -0.1508109 0.15322708 -0.014433223 -0.544445 0.12707031 -0.17621711 -0.2716647 -0.0014622122 -0.089966364 0.28637046 -0.3060307 -0.18584532 -0.17579293 0.08551082 -0.24426663 -0.17852093 -0.49364308 -0.36358935 0.054360446 0.1860968 -0.04568734 0.27015632 -0.018364513 0.19769484 0.16256164 -0.2523033 0.28583026 0.12785247 -0.09538328 -0.24976532 -0.74726564 -0.2831425 -0.15606844 -0.011066574 -0.117843874 -0.27740157 0.41678014 -0.16977899 0.12595285 -0.3148834 0.22707675 -0.21621424 0.27918005 -0.0247441 0.07395165 0.2271294 -0.19627853 -0.13344641 0.043005362 -0.41610608 -0.11337321 0.10246159 -0.244012 0.52244824 0.34461567 -0.20876554 0.21379703 0.5645696 0.17656983 0.49197513 0.4928438 -0.15094963 -0.2271061 0.016661478 -0.20209798 -0.010255019 -0.07196762 -0.033736035 -0.45146823 -0.66919756 0.091999464 0.17485692 -0.19277576 0.5108144 -0.17727917 0.13887548 0.30673054 0.03892504 -0.071612224 0.10499141 0.27636188 -0.2076124 0.24229176 -0.29034483 -0.39282018 0.29089433 0.26528534 -0.1114569 -0.0075329198 0.65141964 -0.23398983 0.007821002 0.5308825 -0.019941637 0.050860226 0.29443038 -0.15603837 0.05663044 0.3403125 0.25165007 -0.026410442 0.16226679 -0.7402378 -0.22664908 -0.14984907 -0.083533764 -0.48361975 0.15536925 -0.2855357 -0.27045518 0.001962558 0.34084207 -0.19878028 -0.011578063 0.14437698 -0.102551766 0.16402836 -0.2635819 0.28964263 0.18091442
org.apache.tomcat.util.bcel.classfile.AnnotationEntry -0.3150489 -0.31038046 -0.118526444 0.58873045 -0.21454807 0.38840094 0.48932517 0.29876542 0.10507234 -0.43486336 0.33041498 -0.75422853 -0.6965261 0.27890536 -0.55743134 0.5274118 -0.31489998 -0.028422246 -0.13208921 -0.18187216 0.020313267 0.33729398 0.36382204 -0.30204067 -0.43036848 -0.20714077 0.6942034 -0.004875592 -0.2399748 0.16660865 0.31688672 0.3654957 -0.341974 -0.3679471 -0.4224902 0.072898544 -0.036650818 -0.5696623 -0.34292966 -0.43706763 0.1988548 -0.34386683 -0.43029132 1.084594 0.48017716 -0.4421893 -0.42232025 -0.24834444 0.0036050861 0.7679434 0.42329416 -0.19417562 -0.16226521 -0.042236917 0.10334117 0.024284 0.2699573 0.84693533 0.19832921 -0.45715395 0.13771553 -1.0207375 0.46080557 -0.11525614 0.09643632 0.02697404 0.29424787 -0.39968178 0.3168562 0.27003267 0.2648363 -0.07462012 -0.5158463 -0.40325052 0.20039707 -0.21664287 0.108226605 -0.35687372 0.0395643 -0.22018906 -0.35250816 -0.6658567 0.051494762 0.7567861 -0.45357475 0.17255057 0.40267718 0.0017070133 -0.7872971 0.062337372 0.12456798 -0.28569666 -0.4041514 0.3998642 -0.41630912 0.09482721 -0.5317793 0.202993 -0.28881305 0.42567557 0.26338193 0.19375451 -0.19569291 0.13558222 0.619943 -0.10961045 0.071541935 -0.6618597 -0.6489234 0.5180692 0.3994917 -0.5165044 0.06679742 0.82420653 -0.9244441 0.039822087 -0.360293 -0.21623729 0.33366722 1.3695861 0.8566058 0.10846238 -0.19610542 -0.042764243 0.2972114 -0.62577236 0.30709195 0.8503603
websocket.tc7.snake.SnakeWebSocketServlet$1 1.1367607 0.015391124 0.58391714 0.040291674 0.15380697 0.068697564 0.26093632 -0.07861136 -0.071409084 -0.22001736 0.2974882 -0.11662939 0.03925928 0.1501682 -0.27470693 0.082932025 0.24437912 0.17393461 0.4173229 0.3029895 0.3106577 -0.01746137 0.010067193 -0.3121069 0.27227607 0.09333405 -0.113340825 -0.07113297 -0.037054934 0.4608802 0.27021194 0.23659585 -0.24656723 -0.23093753 0.03353038 -0.72445244 -0.09341453 0.017411085 -0.07136854 0.0021857617 0.12110366 -0.5432228 0.3991652 0.39479804 0.37761047 -0.040822532 0.39983958 0.26932204 0.31724668 -0.033910833 0.09597237 -0.563098 0.28475678 0.2293098 0.07128919 -0.12179089 0.32641277 -0.2966907 -0.03162806 -0.36416015 -0.54651994 -0.054651383 0.5667918 -0.16385612 0.84928495 0.29798105 0.0755611 -0.0245723 -0.2932217 -0.10427588 -0.016277127 -0.2611739 -0.0016468863 0.37574437 -0.33130965 -0.18561365 -0.38909814 -0.532497 0.47940987 0.6291135 0.22103363 0.012144441 -0.7574211 0.00557126 0.24118264 -0.02610205 0.5490412 0.05520315 -0.12737927 -0.14181231 -0.073179685 0.39769962 -0.35188836 0.44988304 0.133677 0.12629434 -0.15633376 0.032505967 0.33879653 0.20560329 0.37492332 0.11524416 0.013214183 -0.2904371 0.3236889 0.5718571 -0.5434363 -0.13913915 0.021182667 0.20269917 0.18728675 0.19901915 0.3971978 -0.054020252 -0.9654999 -0.19937272 0.5707423 -0.31225762 -0.04680841 0.2672682 0.27928746 -0.114163764 0.63838696 -0.09877384 0.52578235 -0.050458554 0.4593642 0.16726944
org.apache.tomcat.util.DomUtil$NullResolver 1.1078786 -0.000121637306 0.5700915 -0.008007529 0.15598993 -0.01888717 0.24489017 -0.045593467 -0.06578885 -0.19336382 0.31153563 -0.098453835 -0.009430004 0.20755816 -0.24065182 0.059728023 0.19590342 0.17843886 0.41447285 0.20636481 0.2168881 -0.016160022 0.0030204246 -0.23960611 0.21298307 -0.011996209 -0.13736603 -0.12028193 -0.030565165 0.4685273 0.29752678 0.2490965 -0.31090733 -0.25201944 0.06345532 -0.7518111 -0.08077586 -0.019721916 -0.12416735 0.007879001 0.12455827 -0.33041862 0.29378062 0.37600186 0.40979564 -0.057549965 0.48222196 0.34689227 0.37825423 -0.07086525 0.12150464 -0.6055128 0.3088403 0.16243362 0.13328749 -0.14856064 0.28611776 -0.22340553 0.09448284 -0.38476026 -0.5553456 0.019378211 0.59017086 -0.11749282 0.8761174 0.25673258 0.09790302 0.035088915 -0.30114323 -0.1587906 -0.055565573 -0.30787927 0.043210965 0.4488536 -0.31502676 -0.13172482 -0.38763896 -0.5189606 0.4582553 0.590127 0.26371434 0.028239712 -0.7198944 -0.035481725 0.3020691 0.08153102 0.56598574 0.09211014 -0.22532174 -0.24847159 -0.032629687 0.32886413 -0.19530882 0.55105174 0.15039428 0.016308706 -0.11937251 -0.056086987 0.37422952 0.19387552 0.3162072 0.2511921 -0.040203046 -0.36162975 0.28902158 0.4605375 -0.48525995 -0.15558116 0.032030184 0.17087144 0.25304478 0.21040294 0.33790317 -0.061441343 -1.0725181 -0.3164127 0.5191189 -0.29534826 -0.03217161 0.27040857 0.31555745 -0.13506013 0.6947366 -0.096675985 0.4778577 -0.0001814805 0.46473882 0.21124773
org.apache.tomcat.util.net.NioEndpoint$3 0.71429807 -0.5447744 0.52159995 0.8622431 0.4808265 0.21548404 0.61375505 -0.28575343 0.06771068 -0.8540861 0.51111627 -0.27772066 0.9170705 0.04170418 0.09246078 0.57574636 -0.43694457 0.6524937 0.0795184 -0.21411525 0.2651028 0.017348407 0.07830207 -0.45152625 -0.5074786 -0.108876 -0.3019377 -0.5124759 0.72044796 0.2315479 -0.6461265 -0.38655135 0.47728008 0.13684776 -0.42084458 0.3131972 -1.0976368 -0.023219505 -0.2027066 0.2676002 -0.6377329 -0.24115907 0.3591365 0.46345004 0.028628184 -0.12723793 0.34536666 -0.5888808 -0.21068373 -0.6537237 -0.3612262 -0.64207286 0.20643926 -0.3650538 0.29109323 0.41725782 -0.41214275 1.1954637 -0.11876364 -0.48596165 0.515331 -1.0039839 0.28591287 -0.22273025 0.7039724 0.84872586 0.54656065 0.35513714 0.47528705 -0.051673662 -0.36837116 0.5282735 0.10508618 -1.4218554 -0.78308904 0.55088097 -0.25221008 -0.49423823 -0.07917562 0.0883472 -0.358907 0.30434957 -0.019809831 -0.7424415 0.44391507 -0.1610965 0.67013913 0.15549116 -0.8142833 1.1389576 0.10218746 -0.2039812 0.7416604 1.1864738 0.45345232 -0.34976283 0.3785681 0.38763744 0.11575983 0.144477 -0.48925796 -0.4736816 0.11952096 -0.6714119 0.07832411 0.14933252 -0.092219315 -0.8103265 -1.2539934 0.8904272 -0.10954847 -0.8243365 0.063524105 0.6160518 0.92196333 0.38890865 -0.5341715 -0.66235775 -0.057164147 0.86641926 0.13640584 -0.17525971 -0.39874598 -0.027602661 -0.21836455 -0.48128346 -0.085406266 0.5515573
org.apache.coyote.http11.Http11NioProtocol 0.62917274 0.32968965 0.25966382 -0.2520017 -0.24265659 0.285108 0.17118831 0.015646901 0.10637805 -0.009818274 0.04724013 -0.31702325 0.3629138 0.15633821 -0.17427333 0.328314 0.1723253 0.27086127 -0.21576874 0.14215997 -0.24428992 0.056167096 0.17392905 -0.17449944 -0.2690287 -0.40660003 0.13912174 0.32415265 0.38504833 0.40066436 -0.006933788 0.082341835 0.08148475 -0.23373604 0.09054862 -0.38354418 -0.07547751 -0.0695873 -0.008690213 0.101958305 0.01505267 -0.20738253 -0.07715809 -0.16675782 -0.003721226 -0.08887685 -0.013737238 -0.29273117 -0.12224459 0.008812733 0.30043688 -0.15842547 0.27638605 0.07039792 -0.20858404 0.021643957 0.10962542 -0.34600073 0.24844868 -0.15624094 -0.60872895 0.45731014 0.012713066 -0.36146432 0.19740379 0.5535584 0.25261673 0.3398677 0.41865066 0.024390029 -0.16169414 0.21736623 0.09499081 0.1273963 -0.53802425 0.0059842076 0.01096022 -0.67044234 0.04328003 0.32747802 -0.30631214 0.07737889 -0.26077121 -0.14395258 -0.109087646 -0.34657097 0.36997858 -0.10012146 -0.053752307 0.08067455 -0.0805493 0.10475064 -0.15776338 0.5973674 -0.075076036 0.044699352 -0.22079155 0.36338684 0.11184787 0.12890609 0.6195137 0.24344237 -0.28063613 -0.07996278 0.025666703 0.212943 0.39737794 0.00014483067 -0.029138215 0.084338844 -0.21518351 0.056288112 0.047593024 0.044494096 -0.25955042 -0.09283153 -0.020388534 0.035348363 0.05188482 -0.034047123 0.03805799 -4.442025e-05 0.050027594 -0.021366023 0.030318057 -0.31951547 0.0016424896 0.23855028
org.apache.tomcat.util.net.NioEndpoint$1 0.65696174 -0.6594389 0.50191915 0.76863664 0.4236931 0.20072696 0.6863108 -0.27164924 0.121050656 -0.9481139 0.5309619 -0.1998919 0.896724 -0.040632624 0.1651504 0.5884344 -0.4736766 0.77719903 0.030716883 -0.2746599 0.2604708 -0.04732039 0.02499903 -0.4962717 -0.46709138 0.0031561663 -0.21084514 -0.7027312 0.64388424 0.23702446 -0.67633253 -0.33860016 0.48850778 0.110400096 -0.523258 0.3243496 -1.083279 -0.007308069 -0.39039376 0.26368764 -0.62068653 -0.22243567 0.3327579 0.5302671 0.018621609 -0.07527599 0.307871 -0.58110064 -0.22723539 -0.6220897 -0.33998272 -0.62351644 0.29133907 -0.43267566 0.30503607 0.45373726 -0.37041876 1.2152228 -0.1310794 -0.45427832 0.50798404 -0.9806508 0.28628352 -0.23534665 0.65009767 0.8588165 0.48259595 0.33683854 0.4678703 -0.06916254 -0.3554336 0.5490609 0.12346413 -1.4403938 -0.7340721 0.5028981 -0.30809882 -0.60540867 -0.08910521 0.00424324 -0.380927 0.30943748 -0.08837944 -0.73259294 0.47410956 -0.22531758 0.662217 0.22159883 -0.8482917 1.1761905 -0.0007336436 -0.18613216 0.7291893 1.1133579 0.5315572 -0.41893074 0.33400655 0.43616852 0.048276305 0.15476528 -0.40379435 -0.53915447 0.20129976 -0.63456005 0.08961627 0.075779885 -0.008916982 -0.8520877 -1.2787577 0.9629299 0.015699837 -0.67662567 0.1146061 0.6334424 0.8951364 0.45795932 -0.41544884 -0.6567488 -0.012807265 0.95308703 0.18360262 -0.19227669 -0.313863 0.074373186 -0.081296414 -0.49134833 -0.19750568 0.5313293
org.apache.coyote.http11.Http11Protocol 0.660075 0.33099064 0.28058094 -0.1306843 -0.21479642 0.26674536 0.13510096 -0.009684674 0.14014572 -0.04492225 0.07421209 -0.24624698 0.34290335 0.18386725 -0.18764581 0.35485634 0.043383323 0.27570242 -0.08008363 0.31698892 -0.2057431 0.068566 0.11250316 -0.3342078 -0.21407022 -0.34841502 0.18708932 0.3906562 0.3820671 0.44044617 0.1019991 0.12970719 0.07098744 -0.14985281 0.059024867 -0.36799416 0.03103602 -0.03431461 0.029801417 0.14583325 -0.027166246 -0.17817533 -0.07111536 -0.09689423 0.09502638 -0.04840982 -0.015445815 -0.29033393 -0.11753135 -0.0034159508 0.31998122 -0.16316898 0.27165788 -0.024488535 -0.22358526 0.108679205 0.102333516 -0.40726945 0.092707515 -0.009948661 -0.5926206 0.37141615 -0.05376274 -0.27824178 0.15699331 0.5808353 0.2606652 0.2886775 0.36756545 0.09388595 -0.11579105 0.20054166 0.06731328 0.18674739 -0.46713766 -0.13598238 0.05007388 -0.6046656 0.032272514 0.30661798 -0.32379425 0.20213164 -0.14634404 -0.14914346 -0.17625481 -0.368074 0.34866643 -0.023778073 0.016949626 0.08745641 -0.18663442 -0.007768344 -0.0787855 0.45631805 -0.13890085 0.0033813321 -0.32365462 0.35115838 0.22009039 0.19866507 0.60820496 0.20183094 -0.32516557 -0.042523865 -0.017349364 0.31422895 0.26776534 -0.02585884 0.022414424 0.13605954 -0.122362934 0.27108216 0.061489012 0.022912338 -0.24016154 -0.079579264 0.07339225 0.074183755 0.16298488 -0.06267338 -0.028110137 0.07275076 0.08732968 -0.13184838 0.10019733 -0.30516216 0.01009162 0.29179567
websocket.snake.SnakeTimer$1 1.1277939 0.04362779 0.5325176 -0.0029108452 0.052603193 -0.067528 0.26334482 0.031777386 -0.15272303 -0.25354838 0.26942074 -0.10167904 0.056169778 0.19322118 -0.28791103 0.088944 0.23631778 0.19489963 0.38008434 0.21881893 0.2313498 0.059168227 -0.0110013615 -0.27772787 0.30312428 -0.027491516 -0.08523394 -0.15654755 -0.040795576 0.5454321 0.28430983 0.17826976 -0.27595612 -0.25675023 0.0034347316 -0.7366373 -0.045193627 0.035280343 -0.120411314 -0.019526672 0.12678124 -0.4577706 0.40426186 0.37863898 0.3859627 0.06120545 0.45464998 0.4458212 0.29541308 0.04685433 0.12265508 -0.5416891 0.25006926 0.27806884 0.120089546 -0.10001244 0.33539796 -0.23875166 0.09817784 -0.2942432 -0.5700264 -0.036554236 0.622018 -0.2609125 0.7690229 0.37641424 0.09290588 0.0009531677 -0.34119585 -0.13576055 -0.05997805 -0.25007126 -0.008397124 0.44174108 -0.32986894 -0.15821289 -0.442671 -0.50014204 0.44144666 0.5945423 0.17863081 -0.012324793 -0.74352425 0.015761318 0.36829135 0.053649176 0.5559202 0.13559026 -0.22773397 -0.11008948 -0.028431607 0.38874844 -0.1579631 0.460123 0.19735289 -0.054523475 -0.14005516 0.045360204 0.45460978 0.25158784 0.36553085 0.16250484 0.067266285 -0.42501023 0.32350248 0.4311139 -0.52101463 -0.15581018 -0.011574056 0.17335318 0.20057528 0.21223354 0.35619622 -0.06429645 -1.0087925 -0.23685962 0.46712476 -0.32908723 -0.08076888 0.29326862 0.34099883 -0.17317632 0.71154565 -0.12952866 0.46501568 -0.066662975 0.45597774 0.2175233
javax.servlet.http.HttpSessionListener 0.023275696 0.12714429 -0.20589931 -0.0636842 -0.32688937 -0.033079647 -0.16216183 -0.20632896 0.55024904 0.11512869 0.622217 0.07716771 -0.25573486 -0.050860133 -0.7991399 -0.2208037 0.025872456 0.55895483 -0.1275216 -0.324937 0.15532734 0.7997303 -0.15876104 -0.21779935 0.6391431 0.634832 -0.5711074 0.018852098 -0.030989122 0.12753989 0.034146104 -0.18701012 0.07967365 -0.631995 -0.15501703 0.47361735 -0.61562204 0.033845525 0.12438055 0.45900035 -0.93927234 -0.109897524 -0.62546164 -0.06449321 0.5984833 0.38625616 0.7591031 -0.60271525 -0.88331246 0.1934916 -0.17360307 -0.11285037 -0.5719906 -0.48010793 -0.27857983 0.28848895 -0.27303785 0.43634033 0.15550542 -0.12626429 0.13633813 -0.10334787 -0.27069914 0.18337534 0.81500053 0.45237133 0.19197236 0.35553873 0.0966195 0.29037565 -0.08902815 -0.08114445 -0.5633521 -0.5630516 -0.022312509 -0.15028924 0.111813925 -0.70442516 0.6208149 0.30121 0.50819415 -0.5500207 0.32682756 0.114282124 -0.22320497 0.6712757 0.120436884 0.057981312 -0.41278252 0.60544854 -0.36585042 -0.33014408 0.14742054 0.70062095 -0.53642 -0.020144207 0.20884463 0.06755894 -0.0036347522 -0.22799927 0.016456125 0.6918719 -0.12245828 0.09985725 0.50698394 -0.23377652 -0.11004165 0.4558068 0.015382536 0.41191766 -0.15701647 0.7907155 -0.76380867 0.71362406 -0.36622965 -0.2805253 0.57688975 -0.89235455 -0.49872205 0.2417057 0.20038807 0.050368913 0.5206798 0.55497205 0.41902897 -0.5196977 -0.33342794 -0.015800186
javax.servlet.http.HttpSessionBindingListener -0.07663006 0.028745819 -0.22354996 -0.14753643 -0.40429044 -0.056072824 -0.30276746 -0.23688543 0.6455216 0.0746747 0.6523605 0.1131264 -0.071150586 -0.049200587 -0.9375005 -0.23016483 0.06455784 0.42643335 -0.10088684 -0.19443434 0.17398739 0.75290763 -0.055502895 -0.009751487 0.6773821 0.61911726 -0.50972337 0.18680458 0.015825866 0.20316865 0.16892874 -0.16723171 0.05450268 -0.68379015 -0.09535293 0.5377114 -0.65335643 0.10061814 0.17187549 0.46563804 -0.8909363 -0.19301796 -0.64490145 -0.13152857 0.44088066 0.31827685 0.6758514 -0.7004948 -0.8278178 0.05794756 -0.30144683 -0.1952809 -0.6635441 -0.5341527 -0.36262637 0.26063246 -0.3300345 0.45795384 0.057177633 -0.05272817 0.2245365 -0.074141644 -0.24020572 0.29888806 0.74552476 0.5007493 0.2666592 0.33316797 0.24050945 0.16507897 -0.12502389 -0.0042713233 -0.75154096 -0.59447265 -0.07488979 -0.07716168 0.22634959 -0.7573898 0.6279995 0.24192362 0.5028033 -0.64646524 0.23214035 0.10228321 -0.09166588 0.640212 0.16170436 0.1839311 -0.42066184 0.49181226 -0.36920413 -0.3109558 0.08316518 0.7263978 -0.6202986 0.08696514 0.18733123 -0.106915474 0.038033854 -0.19116639 0.1849112 0.8409236 -0.17140503 -0.059062093 0.35234308 -0.30901074 -0.1742532 0.37927258 -0.12004309 0.541653 -0.23825772 0.77319956 -0.62877786 0.63761044 -0.4077537 -0.22606826 0.7179612 -0.8726664 -0.46778694 0.25108245 0.19601691 0.029753486 0.4192299 0.5864468 0.49364856 -0.5614408 -0.32773882 -0.06959848
javax.servlet.http.HttpSessionActivationListener -0.012407165 0.018830026 -0.12443758 -0.17813756 -0.41559184 0.023206484 -0.25499448 -0.1622882 0.6424975 0.13237932 0.5976095 -0.0067063468 -0.19103047 -0.053327456 -0.71309227 -0.25454086 -0.015298562 0.530775 -0.21345726 -0.31786194 0.23454376 0.76741546 -0.2652796 -0.17334588 0.7544804 0.6177907 -0.5822287 0.15814649 0.080131836 0.22354053 0.06327601 -0.19150214 0.06804164 -0.6510201 -0.09670771 0.52761054 -0.6394379 -0.13261726 0.09336288 0.46135905 -0.98278457 -0.11486111 -0.62370455 -0.03088727 0.65335923 0.3716952 0.66575503 -0.6719623 -0.83850795 0.19726713 -0.29131466 -0.18331929 -0.69939977 -0.41623518 -0.35513744 0.25680923 -0.23548542 0.51115614 0.09298906 0.0064301044 0.122211084 -0.047816604 -0.22025308 0.12627634 0.7886325 0.42885184 0.3475691 0.2575211 0.17801526 0.2223183 -0.18431367 0.012768307 -0.5153678 -0.62684005 0.057483483 -0.113535084 0.05029138 -0.66754884 0.674315 0.32334748 0.4844342 -0.57472825 0.31252605 0.14728972 -0.17349713 0.64238495 0.16075344 0.14249705 -0.39801598 0.6371566 -0.48932034 -0.22502433 0.22907151 0.6481546 -0.5718057 0.01977806 0.21178205 -0.006669377 0.054602064 -0.2779578 0.102851704 0.72606814 -0.1490144 0.07169292 0.36043894 -0.11662443 -0.17326571 0.43319708 -0.072910324 0.47931123 -0.20701075 0.819854 -0.64248145 0.7024521 -0.24294098 -0.21773362 0.69900274 -0.89033884 -0.3882874 0.21430768 0.17849624 -0.027706161 0.5651857 0.5208152 0.44541362 -0.4544744 -0.34014186 -0.077222005
javax.servlet.http.HttpSessionAttributeListener 0.010018288 0.010709472 -0.2296597 -0.19312903 -0.40090084 0.039837655 -0.25204512 -0.2401984 0.582325 0.05178402 0.6101877 0.01864023 -0.14257006 -0.16777231 -0.6579082 -0.121508054 -0.053283736 0.4927375 -0.09632864 -0.26349705 0.26452765 0.77053005 -0.17092772 -0.2383499 0.72331905 0.57865787 -0.5027826 0.073722675 0.023223007 0.15573564 0.05125362 -0.2476793 0.11172735 -0.5898229 -0.07230692 0.46755397 -0.5977101 -0.0014194068 0.12187869 0.38975692 -0.97540677 -0.18267204 -0.64845324 -0.06654507 0.49463862 0.47754595 0.6922941 -0.65330523 -0.89258623 0.14095134 -0.332364 -0.14729273 -0.7583958 -0.52087605 -0.37845832 0.40086123 -0.27530262 0.44957227 0.074515656 -0.13285913 0.23358938 -0.020238953 -0.20279716 0.14804547 0.77821916 0.45194986 0.23992619 0.35870856 0.16320786 0.2642292 -0.09980882 0.0055055306 -0.5488246 -0.5963696 -0.14469302 -0.18835455 0.17331348 -0.69456166 0.6638512 0.40473175 0.49881688 -0.57127756 0.20791082 0.16212805 -0.1134369 0.6740783 0.016119348 0.20723279 -0.3112958 0.5228714 -0.29679683 -0.27547458 0.14767775 0.64287764 -0.6101436 0.071528204 0.13150376 0.1328476 -0.047484204 -0.26324967 0.083866395 0.67793924 -0.15854344 -0.049326323 0.35846552 -0.16626653 -0.22508934 0.45688707 -0.060470622 0.43827632 -0.19243658 0.8024698 -0.6680167 0.7461066 -0.25602207 -0.28474942 0.65235275 -0.93969834 -0.4642909 0.124344125 0.22337307 0.07489206 0.5038599 0.56147325 0.49706343 -0.6047522 -0.40382913 0.013858865
org.apache.naming.NamingContextEnumeration 0.08281345 -0.8041662 -0.38272387 -0.42985722 0.15213215 0.68938017 0.09542907 -0.5633179 -0.018943286 -0.10170975 0.8162633 -0.61477673 0.24094261 0.22312048 -0.029312728 0.7429177 -0.8067458 -0.5114225 0.5952627 -0.17058179 -0.47554347 0.33307585 0.22565202 -0.07309176 0.03709588 0.3047179 -0.5896386 -0.9096584 -0.0070129274 0.10367193 0.16004391 0.2190774 0.1631121 -0.25243062 0.41925776 0.7257824 0.074865825 -0.44785964 0.09587119 0.6167503 -0.23232485 -0.30444536 0.62464935 0.23968755 -0.30392787 -0.20726119 0.18784179 0.03472941 -0.30992424 0.01017185 0.25977322 -0.111325696 -0.32354805 -0.3817178 -0.47422495 0.4517264 -0.0092766965 0.06510058 0.3513797 0.20746672 -0.5742077 0.17674688 -0.16479097 0.47145644 0.27270636 0.13506871 0.13285287 0.25637594 -0.24355471 0.05802976 0.053663608 0.15077448 0.2537606 0.1415306 0.1065327 0.37024614 -0.23556504 -0.2879114 0.9603866 -0.11145471 0.14374809 -0.46479377 -0.46702138 0.13872668 -0.6126349 -0.09378145 1.098121 0.3585741 -0.6302557 -0.3172529 -0.18204041 0.4350405 0.12813373 0.0076642465 0.27657902 -0.17020641 0.20494153 1.031566 0.6128307 -0.031357814 -0.21805932 0.075371645 0.48505998 0.4422618 0.88888353 0.2833248 -0.27019185 0.10033624 -0.4894598 0.19132374 -0.23369192 0.42729658 -0.637088 0.3502788 0.0023056779 -0.24289462 -0.1875018 -1.0758427 -0.10363401 -0.07051813 -0.42013937 0.57910776 0.23195578 -0.0049144058 0.0783228 -0.73878163 -0.73122215 -0.10515894
org.apache.catalina.manager.HTMLManagerServlet$9 0.088899165 -0.23049209 -0.46743694 -0.05549771 -0.9891723 0.2172643 1.0438744 -0.246889 0.9340972 0.059824757 0.90549904 -0.23388386 -0.07719327 0.14523527 -0.90010685 0.0628905 0.12965766 -0.41534722 -0.1973301 -1.0908369 -0.36512908 0.60846585 0.3605437 0.17927821 0.24641255 -0.0065201004 -0.4462706 -0.39541823 -0.30763277 0.93525845 -0.23257789 0.6321305 0.75382423 -0.9462223 0.19046302 0.28614008 0.12045419 0.35762155 -0.31175807 -0.0312575 -0.25175685 -0.33176965 0.015983509 0.93694276 0.37097526 -0.1441822 -0.25308418 -0.24904975 -0.18808962 0.20367864 -0.45548564 0.30116892 0.102553144 -1.0741192 0.2994192 -0.19495831 1.1185452 0.26638654 0.26399568 -0.27766672 0.8349563 0.7125961 -0.08644674 -0.5801663 0.67438257 0.18919456 0.89113927 0.12184576 0.3772499 -0.16425538 0.018785782 -0.53298706 -0.15358122 0.5410245 -0.25478756 0.38096675 1.1885295 -0.83974767 0.28414616 -0.46141297 -0.0758994 -0.25446162 -0.34506878 -0.70862454 -0.64544797 -0.29748112 -0.17449717 0.13840514 -0.009253646 -0.37188056 -0.12757467 -0.6341327 -0.15370919 0.5318115 -0.8245134 -0.5050612 0.3139599 0.61236966 0.54543656 0.72922724 -0.6653844 0.23880315 -0.23705244 -0.25350302 0.2121841 0.40460443 -0.75848806 -0.2425613 0.0060434164 -0.27936333 -0.12080464 0.009186853 -0.02111572 0.18053843 0.39766455 0.14035259 0.37134844 -0.33244336 -0.2384501 -0.014799571 -0.36384943 -0.07962206 0.8390956 -0.062424224 -0.265955 -0.30319145 -0.07996475 0.0070712483
org.apache.catalina.manager.HTMLManagerServlet$10 0.027849985 -0.30609816 -0.52299684 -0.09265036 -1.0056999 0.038786266 0.9668609 -0.22936071 0.91415495 -0.061569385 0.9346076 -0.16270879 -0.100960664 0.12709466 -0.81496096 0.04266197 0.06769298 -0.31589192 -0.23569088 -0.9176012 -0.4327554 0.580504 0.31479138 0.14713931 0.22775519 -0.022245724 -0.5053295 -0.3515705 -0.33972546 0.94957507 -0.15154251 0.78127706 0.7483471 -1.1241331 0.30499735 0.23471256 0.27551067 0.3905581 -0.2924437 0.016013931 -0.2629167 -0.4763622 0.0376812 0.86927664 0.2881902 -0.11348669 -0.26490077 -0.27931523 -0.18675101 0.36247534 -0.46300104 0.34866336 0.028093599 -0.9973458 0.32161075 -0.16237818 0.97328764 0.22246055 0.26645592 -0.33573228 0.8087649 0.6102472 -0.22698377 -0.71019065 0.68147624 0.2578782 0.8945264 0.16651845 0.4101369 -0.25684705 0.12330894 -0.54335976 -0.06048541 0.50125384 -0.17439565 0.4020982 1.1650205 -0.95686466 0.2581286 -0.5185888 0.0030938864 -0.17665476 -0.26871297 -0.7019067 -0.53850317 -0.2534574 0.07604055 0.27929467 -0.022267105 -0.23050778 -0.17580438 -0.5695407 -0.09808693 0.5361485 -0.8358928 -0.43070042 0.43657926 0.44856948 0.5979916 0.6848594 -0.6437639 0.18133402 -0.32091823 -0.22852741 0.34843075 0.2948885 -0.76796263 -0.160025 0.15204863 -0.11480272 -0.02462949 0.08013009 -0.16261311 0.1909044 0.33877388 0.047032636 0.3698218 -0.29856986 -0.22985612 0.018569328 -0.24569838 0.00596201 0.9487757 -0.06946113 -0.30640614 -0.33926627 -0.011425582 0.17471711
org.apache.catalina.mbeans.JmxRemoteLifecycleListener$SslRmiServerBindSocketFactory 0.9295422 -0.028989455 0.66794306 -0.092975415 -0.027252605 0.21927217 0.34169635 -0.28622735 0.05800512 0.33711424 -0.23381938 -0.11421619 0.096968375 0.1310107 -0.35252008 0.20395696 -0.059554562 0.29771966 0.3255755 -0.11190355 -0.020912254 0.16603792 -0.081341214 -0.1951214 -0.15431026 -0.06411887 -0.30300707 -0.17402829 0.15012945 0.185629 0.40960994 0.24996884 0.17523359 -0.41221893 0.24704905 -0.4979562 -0.17620786 -0.32717788 0.032852262 0.0055865883 -0.030871855 -0.3024362 -0.2291244 0.24627407 0.33688903 0.2678133 0.53270316 -0.33551157 0.06246403 0.31715512 0.78737485 0.12209879 -0.05455314 0.05978938 0.22697894 0.020633115 0.22299188 -0.38010475 -0.1912665 0.4250262 -0.48928225 0.409122 -0.13861723 0.0379747 0.3263516 0.74955285 0.2624371 0.5131942 0.42237586 -0.49895915 -0.14241737 -0.26982605 -0.16693895 0.21324758 -0.21820687 -0.3342871 -0.10298442 -0.68443716 0.02666643 0.5705494 -0.26425368 0.022037344 -0.0025900917 0.109926194 0.00059523556 0.08037519 0.19373696 -0.30492422 -0.14511569 -0.35903105 -0.038428094 0.39146325 0.066592775 0.38182005 0.2902644 0.11362019 -0.5771154 0.15132768 0.18905352 0.16614345 0.03421356 0.03295795 -0.43568355 -0.00036885968 0.097230695 0.29311836 -0.025594946 -0.4272096 -0.05597806 0.15831813 0.2602565 0.3533639 0.062062856 0.0410771 -0.14205101 0.13432565 0.09105701 -0.2397063 0.30039993 0.42152202 0.29082388 0.16012488 0.2806902 -0.005218702 0.13775437 0.11282003 0.121540554 0.39391455
org.apache.naming.NamingContextBindingsEnumeration 0.08208684 -0.82103306 -0.49254918 -0.37943855 0.15985996 0.7190278 0.091228776 -0.5466324 0.004707022 -0.094527066 0.90779275 -0.588025 0.19458954 0.21504521 -0.06938574 0.7579762 -0.8348865 -0.4800657 0.52787936 -0.15566844 -0.48619825 0.32562363 0.17737408 -0.0947974 0.03227148 0.3352048 -0.45483166 -0.86771584 0.042452868 0.07964888 0.17254482 0.27626252 0.08044856 -0.20997098 0.49046883 0.80362624 0.04426135 -0.51411813 0.035602216 0.6170154 -0.22784567 -0.29695016 0.53426325 0.27295756 -0.25264052 -0.28462556 0.2617398 0.006190114 -0.34933054 -0.049224023 0.26117936 -0.054765288 -0.24710493 -0.456544 -0.35195416 0.44663206 -0.032419395 0.019129185 0.32932013 0.15624803 -0.55877435 0.098635346 -0.20298214 0.4711289 0.26381955 0.17338784 0.16823745 0.27103543 -0.30443454 0.06400349 0.017557442 0.11085222 0.18935327 0.09326012 0.09226547 0.35930055 -0.230297 -0.34104607 0.9908845 -0.109114215 0.177952 -0.42856318 -0.45288658 0.025812378 -0.5344902 -0.08869491 1.1266818 0.4211947 -0.602637 -0.2521639 -0.1768478 0.4376288 0.13953593 -0.039238483 0.296277 -0.10069803 0.2310182 0.9351296 0.6407515 -0.033528246 -0.24495263 0.16171087 0.4629525 0.5221061 0.84089065 0.35085276 -0.32866657 0.12229811 -0.49096692 0.11404437 -0.22965811 0.5335069 -0.6639142 0.39639956 0.024130631 -0.23259012 -0.19274105 -1.1779878 -0.013071027 -0.11988436 -0.39936137 0.640012 0.23349415 -0.0198437 0.022553569 -0.7518045 -0.65839577 -0.16249518
org.apache.catalina.mbeans.JmxRemoteLifecycleListener$RmiServerBindSocketFactory 0.9025706 0.04158661 0.64610034 -0.0469361 -0.04813738 0.22257791 0.378722 -0.23130482 0.07479178 0.26849928 -0.23031278 -0.08421622 0.24240433 0.1373578 -0.38722977 0.2327636 -0.10179828 0.2520126 0.2286143 -0.016174084 -0.060416635 0.12402765 -0.11069753 -0.17300855 -0.20032792 -0.10573505 -0.30431315 -0.1340865 0.19980094 0.17023475 0.43833336 0.28013232 0.20027567 -0.3876022 0.22985497 -0.38630176 -0.18182668 -0.24191311 0.020928003 -0.013731507 -0.010627157 -0.2808103 -0.16298145 0.2673359 0.30201188 0.21901499 0.55738676 -0.25222164 0.08978609 0.33055064 0.75847626 0.11872226 -0.027018504 -0.012597458 0.26603737 0.052627794 0.16522324 -0.45119318 -0.23207775 0.4655223 -0.6084418 0.32165235 -0.19068155 -0.07047096 0.25394577 0.82832825 0.28448108 0.40685946 0.4408458 -0.4392675 -0.16361928 -0.23898987 -0.11262511 0.17404301 -0.20566551 -0.24415362 -0.01908782 -0.76857644 -0.008781772 0.5899514 -0.21024607 0.018394759 -0.025267372 0.15000273 -0.09242163 0.085434645 0.18991691 -0.32132575 -0.1483661 -0.33883166 0.010388572 0.35704604 0.015588726 0.3573016 0.30565318 0.076656125 -0.6071144 0.07562744 0.25421324 0.18016183 0.021620663 0.0678376 -0.39683887 -0.062942594 0.11467884 0.2689858 -0.023706768 -0.3864616 -0.028480135 0.17827025 0.32018518 0.37497428 0.08290872 0.035788048 -0.16105838 0.09083671 0.09125935 -0.26075077 0.33797437 0.41629612 0.27276537 0.12775669 0.27476054 0.00038424676 0.12061459 0.14462301 0.072895095 0.34278744
org.apache.catalina.SessionListener -0.030161155 0.1107303 -0.22910915 -0.17080931 -0.31701702 -0.059782565 -0.26122648 -0.10114219 0.6383923 0.068365596 0.60901743 0.059567433 -0.07616389 -0.008639187 -0.7366919 -0.16917737 -0.0928854 0.4628298 -0.20479603 -0.3114947 0.2784082 0.75258535 -0.1914301 -0.15635106 0.7227434 0.6957547 -0.5262344 0.19140474 0.05093965 0.24548572 0.022674669 -0.092151515 0.016973088 -0.5665219 -0.05233064 0.5179876 -0.68666494 0.0048973085 0.017113782 0.40716362 -0.9083156 -0.027716195 -0.55969495 -0.021414267 0.646543 0.33503792 0.664275 -0.6141399 -0.8600595 0.0678592 -0.31345016 -0.15563719 -0.6048862 -0.524235 -0.473806 0.30337012 -0.21710499 0.607844 0.06507544 -0.010481813 0.14256245 -0.127078 -0.2206703 0.1834757 0.91819763 0.41362765 0.33513474 0.2334109 0.17426382 0.18100932 -0.1413416 0.052026313 -0.6540189 -0.6317837 0.05348212 -0.09020067 0.089724384 -0.61906993 0.68900454 0.37133917 0.4261034 -0.47887632 0.32650214 0.1558864 -0.09871153 0.547355 0.19200157 0.09614802 -0.4594723 0.65414584 -0.4146686 -0.28301302 0.16802388 0.6774143 -0.5498385 0.15496251 0.21218666 0.03463675 -0.018392656 -0.23937017 0.057326667 0.8447989 -0.21245886 0.10591904 0.4000948 -0.17945708 -0.15153843 0.49615887 0.028994242 0.44662422 -0.1541975 0.7792893 -0.66446733 0.7642167 -0.2657058 -0.3543949 0.66941136 -0.9017325 -0.49821034 0.30316073 0.20066835 0.19095261 0.51844394 0.579971 0.35488445 -0.43403015 -0.339006 0.07706592
org.apache.coyote.ajp.AjpAprProtocol 0.5381246 0.34001625 0.2876909 -0.20289129 -0.27717653 0.39483646 0.18179655 0.003275489 0.07954426 -0.11048171 0.07872247 -0.2927109 0.3624073 0.12664188 -0.21078081 0.2959903 0.23779278 0.25201887 -0.16740273 0.21465208 -0.1750888 0.035185345 0.17017436 -0.14744398 -0.2354784 -0.35502666 0.15309574 0.28645945 0.27909812 0.3231343 0.01959075 0.020774111 0.10022173 -0.19990776 0.1401069 -0.2726917 0.021594843 -0.11981149 -0.13399993 0.11439016 0.034631297 -0.1496435 -0.165562 -0.034819465 -0.048754122 -0.18968551 -0.05068898 -0.2907853 -0.04718494 0.014870438 0.14892735 -0.24394502 0.26598316 -0.0038476712 -0.16415712 0.02620966 0.09653846 -0.3318381 0.24097244 -0.15377963 -0.5439735 0.45325544 -0.0625729 -0.2548058 0.24702169 0.6045332 0.18117507 0.39725175 0.46161717 0.038325273 -0.14161435 0.13554852 0.17227116 0.09667971 -0.43685803 -0.07365667 0.096877 -0.5633367 0.01569618 0.35695666 -0.31455848 0.23709203 -0.18483189 -0.13733903 -0.19249395 -0.3973411 0.3481212 -0.024409698 0.014106809 0.061435506 -0.054874685 -0.010561828 -0.24384467 0.49805245 -0.2251046 0.0803801 -0.18961345 0.4742616 0.07800616 0.011578844 0.69838715 0.19968396 -0.29616806 -0.07267753 -0.077392906 0.22236063 0.44477943 -0.008837116 0.0039722887 0.27988797 -0.24443303 0.048512068 0.057606168 -0.09055787 -0.2936817 -0.079616204 0.07309633 0.045034353 0.16564777 -0.007323694 0.063890256 0.05067133 0.05216725 -0.05448882 0.0022212893 -0.36937323 0.006029315 0.22417018
org.apache.tomcat.websocket.AsyncChannelWrapperSecure$LongToIntegerFuture 1.056866 0.32218742 0.27423277 -0.1273129 -0.698595 0.2831059 0.51017857 -0.5625125 -0.48042405 -0.02972737 -0.06791402 0.3112488 0.3712238 -0.12874822 -0.34394833 0.38854754 -0.07790689 0.3817897 0.18520644 -0.14057702 -0.15009575 0.4452344 -0.13685109 -0.37933558 -0.38464835 -0.09100426 0.05004944 0.44520175 0.17868912 0.56793636 0.55192035 -0.025903594 0.50733596 -0.60097307 0.042212844 0.02691981 0.04356841 0.142799 0.0354089 -0.049456406 0.31485584 -0.1212635 -0.18655215 0.18699113 0.5988326 0.14526278 0.05348377 -0.8089268 0.031975836 0.2787826 0.07452249 0.09942459 -0.12087112 0.22925772 0.07247192 -0.3130813 0.17793612 -0.18580881 -0.18990237 0.8348662 -0.14914729 0.36913824 -0.113148354 0.082415126 0.0012099182 1.0604224 0.23625585 0.10589704 0.65508354 -0.7503605 -0.13819018 0.08438341 -0.5802014 0.19259112 -0.57794756 -0.24468848 -0.50457406 -0.6080044 0.15865658 0.64190435 -0.40590608 0.2773988 -0.09683078 -0.18318489 -0.14119616 0.1913753 0.56019586 0.14171714 0.19990401 -0.14683701 0.38639104 -0.28400356 -0.08485033 0.06974052 0.5918238 -0.20206057 -0.6552905 0.18026929 0.10853945 0.3952999 -0.14101726 -0.15205067 -0.31383184 0.004235185 0.11547587 0.22585031 -0.41275647 -0.28092772 -0.3601845 0.53345925 0.3127269 0.44350427 0.5980316 0.09071729 -0.0119153205 -0.07569286 0.05638859 -0.22866336 0.30916458 -0.019763567 0.350047 0.75621545 0.71836334 0.06478343 0.19592968 0.02574041 0.10626067 0.29282197
javax.servlet.jsp.el.ImplicitObjectELResolver$ScopeManager$8 -0.12487635 0.27118114 0.68081784 -0.08543869 -0.36731103 0.44452265 0.14961585 -0.0014390404 0.49290866 -0.5773744 0.70319104 0.03567349 -0.1328885 -0.054385 -0.28755623 0.45934403 0.68073523 -0.31167096 -0.2797345 -0.6687415 0.24764967 -0.8145381 0.347267 -0.3309544 0.46446884 -0.01123382 -0.7674522 -0.38858154 0.076445214 0.68891585 -0.28485683 0.12748782 0.27612752 -1.1302739 0.6809602 0.33791554 -0.9076284 0.20522387 -0.4410838 -0.20330445 -1.2816387 0.2670442 0.58640873 0.6302103 0.5388806 0.14218113 -0.22375925 -1.2315704 0.37577155 -0.17594022 0.84073246 -0.006670032 -0.046093326 1.0830791 0.4722248 0.30591065 -0.0397979 1.0676345 0.24336235 -0.024628324 0.018391216 -0.014049187 -0.46619013 0.04955383 0.9015247 0.45973894 -0.28884938 0.059844747 -0.19109914 -0.600732 0.08817509 -0.25343505 -0.9968387 0.47158286 0.53965443 -0.4789876 -0.15665859 -0.2979541 0.11915497 0.41116127 0.021948641 -0.27473822 -0.05594253 0.5422206 -0.45715076 -0.7270559 -0.51055115 0.43400812 0.19988696 0.44248858 0.023529112 -0.26830298 -1.2150954 -0.31434458 0.4636974 -0.63416284 0.24437936 0.22894737 0.19769166 0.2856249 0.10800056 0.16667067 -0.18176977 -0.006487394 0.6521938 -0.36998007 -0.024510685 0.30063358 -0.5128325 -0.15655337 0.5392882 -0.07615735 0.14015213 0.031525817 -0.51054144 0.263318 0.14374483 -0.044839434 0.46627674 0.22219466 0.10908975 -0.06359026 0.54647493 0.06086175 -0.21892758 0.18349507 0.044499528 0.053303342
org.apache.catalina.startup.VersionRule 0.4432879 0.3739146 -0.053834926 -0.3078601 -0.026487377 0.30300662 -0.18857251 0.17997862 -0.2030725 0.35843304 0.24081008 -0.5555061 -0.14592265 0.058848202 -0.39478314 0.283091 0.061685193 0.12527193 -0.2965982 -0.2446586 -0.120123394 0.17607473 -0.22928658 -0.08425448 -0.6489747 -0.62207353 -0.17776233 0.084955364 0.15087867 0.272592 -0.2822371 0.18768755 -0.19542673 -0.3621422 0.3186234 0.056011565 -0.1871242 0.024021465 -0.5435644 -0.30161458 -0.10808082 0.10592153 -0.07814876 -0.0027125105 0.54071754 -0.33017957 0.07001631 -0.23282021 0.35997117 -0.51701826 0.40009627 -0.03263171 0.117366396 0.1593184 -0.039123878 -0.44993028 0.0020597337 -0.44191006 -0.097898565 0.028818602 -0.123232 0.5456251 0.22364505 0.14048673 0.43637744 0.17321591 0.52440286 0.18051772 0.46705076 -0.250982 -0.3378167 0.0957881 -0.19418462 0.16450398 -0.2583015 -0.3245061 -0.46964043 -0.52590245 0.076588646 0.25801277 -0.18173164 0.6039652 -0.16819574 0.137765 -0.01625967 -0.038151715 -0.21814637 0.13126746 0.2212688 0.096466385 0.17824814 -0.09513029 -0.015918449 0.7487404 0.17007105 0.22198306 0.08677577 0.44781324 -0.08163265 -0.577494 0.24469925 -0.34139127 0.028327288 0.31630564 0.21943669 0.25003204 0.19401075 0.10678955 -0.14649357 -0.38041064 -0.55634916 -0.2770945 -0.46492052 -0.06841917 -0.5000981 -0.049698845 -0.3199278 -0.07421257 0.10841514 0.5155083 -0.01019979 0.09148828 0.23726168 0.15131406 -0.06542301 -0.3338515 0.19147831 -0.20806688
org.apache.catalina.manager.HTMLManagerServlet$8 0.078855015 -0.29853565 -0.4882198 -0.0483765 -1.0486447 -0.0033429728 0.9980226 -0.36939618 0.9493613 0.0390076 0.9934211 -0.2551764 -0.20749845 0.06340425 -0.76360375 0.123354875 -0.027610647 -0.36918682 -0.07244008 -0.96048826 -0.47333568 0.622783 0.23728956 0.2844665 0.2141401 0.0029538583 -0.4481658 -0.35967654 -0.40074515 0.8879936 -0.21598925 0.7060461 0.73440844 -1.0143028 0.24007572 0.27937382 0.19372235 0.27513272 -0.31129014 -0.0066215238 -0.25996268 -0.51796955 0.031559803 0.85755503 0.31319866 -0.25496253 -0.30744267 -0.2640594 -0.12011537 0.38890907 -0.46296096 0.46796772 0.052364025 -1.0951145 0.3134112 -0.10169649 1.0552522 0.39695132 0.22512409 -0.24686022 0.74928874 0.69624126 -0.101532534 -0.69973004 0.7336344 0.26698637 0.9377083 0.13215947 0.36080888 -0.18021329 0.08072508 -0.4637587 -0.070641994 0.50748503 -0.24718836 0.39147624 1.221007 -0.8267739 0.31611085 -0.4456193 -0.06329554 -0.19964124 -0.29154646 -0.7497842 -0.5849685 -0.27239212 -0.1442453 0.19794607 0.022986125 -0.32068974 -0.24809574 -0.64371085 -0.045997065 0.50663966 -0.80722845 -0.4622544 0.34487876 0.652422 0.73355615 0.7602365 -0.620887 0.21405764 -0.26163304 -0.13751024 0.24436647 0.30109045 -0.7547292 -0.31387004 -0.012976456 -0.28884745 -0.07529286 0.116035625 -0.16036125 0.13874009 0.444213 0.07791101 0.3464873 -0.3234445 -0.17437911 -0.0738844 -0.35135806 0.05499531 0.8437863 -0.10671408 -0.35985714 -0.35809234 0.07466026 0.08810566
org.apache.coyote.http11.Http11AprProtocol 0.59701633 0.33704424 0.24463506 -0.25804806 -0.24681361 0.4372161 0.16430913 -0.0017586772 0.04033425 -0.036206916 0.07699069 -0.21680398 0.29098794 0.13749945 -0.26206008 0.27005312 0.12502795 0.28445944 -0.26879022 0.14015327 -0.13772248 0.060095843 0.09586184 -0.1457357 -0.23766883 -0.33856505 0.08148465 0.224009 0.2501968 0.3206363 0.03387017 0.02116033 0.0651545 -0.25026256 0.18842094 -0.28956252 -0.033550747 -0.13895492 -0.05578221 0.077560864 0.049641233 -0.2360877 -0.22932385 -0.27791384 0.030044321 -0.1690267 -0.028011084 -0.16775379 -0.13298534 0.0564638 0.25563616 -0.22793786 0.2908054 0.06411505 -0.2653293 0.025918728 0.062075414 -0.34801367 0.18969196 -0.065454684 -0.5339206 0.45822272 0.06925578 -0.22203477 0.2429228 0.5958284 0.26484856 0.42138684 0.37976086 0.017776862 -0.25780034 0.187578 0.13950405 0.191318 -0.42824253 -0.123031914 0.026444826 -0.6137889 -0.0024622995 0.32215413 -0.3101759 0.16959779 -0.23150848 -0.117622025 -0.116464846 -0.26285666 0.37066647 -0.11870161 -0.023834698 0.04064118 -0.09681928 0.08087834 -0.047913816 0.6199494 -0.18925647 0.1316346 -0.18004149 0.35410216 0.16779771 0.022759363 0.6434712 0.14511722 -0.42590448 -0.0504619 -0.03299321 0.20761712 0.43017384 -0.07276865 0.015646057 0.27040005 -0.32572076 -0.033679303 0.015781611 0.0028638693 -0.2975157 -0.029621577 0.04373821 -0.045301132 0.13653623 -0.078873694 -0.007571922 0.053481963 -0.0050952216 -0.08264866 -0.05531667 -0.34689263 0.02597453 0.22434735
org.apache.tomcat.util.net.NioBlockingSelector$KeyReference 1.0984627 0.071292825 0.6185278 0.07987268 0.19204703 -0.10361396 0.26493847 -0.07722319 -0.105324805 -0.26608148 0.2778824 -0.13423185 0.021578176 0.097796306 -0.3045863 0.044497002 0.19779688 0.21913016 0.43791464 0.22064485 0.32815224 0.096530125 0.0025990906 -0.22805102 0.29734877 0.089593984 -0.12255898 -0.1655525 0.04013541 0.4826008 0.31213993 0.19599026 -0.28440136 -0.15817071 -0.058676988 -0.6723428 0.045455664 0.0044374852 -0.104224436 0.008501125 0.13580427 -0.5137041 0.44800773 0.3724035 0.44346887 -0.01038992 0.38708502 0.3685228 0.32310095 0.0325472 0.099293396 -0.5597019 0.21016277 0.18879439 0.09318182 -0.07307972 0.2808095 -0.19988446 -0.055903103 -0.34261873 -0.5980841 -0.0053074895 0.5882991 -0.27270636 0.8333038 0.35606667 0.07307279 -0.032725085 -0.34374255 -0.115219906 0.017244129 -0.32559687 -0.028077358 0.38886577 -0.26550168 -0.13452852 -0.43805513 -0.4695358 0.46564135 0.54094 0.17734261 0.06998961 -0.7421903 0.026113633 0.31179202 0.0433676 0.5055921 0.057851624 -0.17819704 -0.22294609 -0.045767546 0.38089603 -0.27086008 0.5251228 0.091322824 -0.010619681 -0.102857515 -0.026852047 0.43618268 0.22612338 0.30027387 0.15726547 0.05072273 -0.3587773 0.34998104 0.43667114 -0.56043464 -0.11967623 0.026066972 0.177152 0.06843533 0.24617152 0.37385014 -0.08369038 -1.086307 -0.16263385 0.5867457 -0.32442218 0.03776655 0.28974736 0.28769878 -0.11463177 0.66562235 -0.18709202 0.44062883 -0.015982669 0.5070558 0.19953515
javax.servlet.jsp.el.ImplicitObjectELResolver$ScopeManager$7 -0.10902367 0.19802289 0.647412 -0.12212738 -0.34319374 0.37500426 0.14375752 -0.014006853 0.5072894 -0.61282676 0.75398135 0.023966927 -0.15614367 -0.041995496 -0.27757505 0.3837842 0.6219704 -0.27782312 -0.19278911 -0.6572357 0.2472181 -0.76670974 0.22380315 -0.34124616 0.43928713 0.011632865 -0.78108174 -0.29021293 0.082540974 0.5552878 -0.22476882 0.104052946 0.24913467 -1.0896653 0.6574755 0.40004802 -0.9860367 0.26879582 -0.4670121 -0.34531632 -1.260616 0.27885538 0.5725957 0.7111593 0.6604513 0.15318455 -0.29558426 -1.1428419 0.30670112 -0.14978273 0.8104534 -0.07905144 -0.021862708 1.1155982 0.44348967 0.31029072 -0.117178656 1.0608698 0.28296134 0.023769297 0.082365505 0.050157063 -0.56749177 0.04604255 0.84834015 0.5098935 -0.19649805 -0.064336486 -0.22564566 -0.62980473 0.10576968 -0.18813817 -0.9650571 0.44279218 0.47029707 -0.45003557 -0.2029781 -0.2412796 0.13148159 0.36493573 -0.03624114 -0.24935889 0.08422235 0.62379867 -0.38132277 -0.80603194 -0.39733025 0.46571207 0.1840408 0.5074695 0.009963018 -0.32025242 -1.0845189 -0.41017714 0.41095394 -0.57006484 0.23491059 0.23063424 0.19910665 0.24027237 0.20119461 0.21694626 -0.22857077 -0.030024936 0.7278052 -0.35498732 -0.043778732 0.3549749 -0.48032716 -0.17714155 0.5798168 -0.07179448 0.26267606 -0.061432797 -0.51534224 0.3604417 0.18236694 -0.09394827 0.5044434 0.19350165 0.14265928 0.071211405 0.55061424 0.06476891 -0.19469929 0.14579399 0.049768515 -0.015422052
org.apache.catalina.deploy.ContextTransaction 0.2906047 0.3000881 -0.15771198 -0.2743243 -0.22152765 0.32481182 0.45697808 -0.10681098 -0.01641478 0.012114318 0.32359332 -0.44706336 0.3045314 0.53772247 -0.26192608 0.3900602 0.8112854 -0.42074287 0.48129904 -0.033221237 -0.20397294 0.37817675 -0.39175928 -0.0025965036 0.22157803 -0.15466955 0.11783161 -0.18102512 -0.37584093 0.15247822 0.13463612 0.38754535 0.2663253 -0.3764968 0.25733644 -0.13255388 -0.6676869 0.13111547 -0.24935523 0.41570073 0.56839275 -0.48703063 -0.08934488 0.29767329 0.36666384 0.0886008 0.21314052 0.22087915 0.2782184 0.05273475 0.4920507 0.037212018 0.6538084 0.031153433 -0.10970462 0.49115226 0.022784203 0.33927953 0.08021627 0.14557937 0.24638571 0.4212044 0.25941318 0.55920744 0.5966282 -0.06689347 -0.014095019 0.045718033 0.25419396 0.43264973 0.027155438 -0.07500972 0.4933987 -0.14267445 -0.0913407 -0.056590606 0.3303478 0.31210732 0.63647944 -0.26145414 0.31017557 0.09105339 0.4297652 0.037768908 -0.07822476 0.07533654 -0.022042386 0.11272831 0.07150492 -0.044623263 0.22507922 0.23637837 -0.12379647 -0.061811447 0.18056706 -0.095069245 0.15659186 0.043488033 -0.3040075 -0.13520688 -0.6530127 0.389141 -0.6520576 -0.2573749 -0.12357742 -0.38670167 -0.4728138 0.56574076 -0.44636557 -0.08895311 -0.49880394 0.4551646 0.27705508 0.7824156 -0.18692492 0.46488905 0.055222966 0.22332157 0.8676851 1.0548229 -0.40434176 -0.1114645 0.28744492 -0.20711848 -0.22199821 -0.45145792 0.032167654 0.03824575
org.apache.catalina.mbeans.UserMBean -0.77932626 -0.37158656 -0.4969686 -0.1386013 0.124797404 -0.517509 -0.03908527 -0.32374126 0.7105371 -0.09055035 0.09144641 -0.08902447 -0.56532687 0.8393729 -0.32462806 0.76422584 1.200006 -0.42391592 -0.09701056 -0.22824955 -0.36824995 -0.011056034 -0.029720904 0.26877508 0.05174937 -0.64790905 -0.47145396 0.07298494 0.026747933 0.4609813 0.6383968 0.41635746 -0.07180711 -0.47727647 0.46774936 0.29419518 -0.32368103 0.32751322 -0.36612076 0.34058967 0.35018256 -0.04525636 0.14692545 -0.46253353 0.2839204 -1.1715127 0.15793055 -0.6020082 0.26343834 0.96240854 0.7906594 -0.2394214 -0.15674414 -0.3808779 -0.18767288 -0.072102726 0.32749966 0.47867954 -0.67439806 -0.2961093 -0.37633023 0.11189692 0.046645567 -0.6184492 -0.0067908852 1.2144909 0.59863055 0.282558 0.4225724 0.4395768 0.5940359 -0.053202435 -0.16618386 0.16462101 -0.06949063 -0.27867377 -0.15565675 0.3151701 0.42248216 -0.6001836 0.2554766 0.058117654 0.16070037 -0.7546717 0.47891665 -0.068386555 0.61037344 0.4538524 0.41157046 -0.31244886 -0.16391182 -0.37321 0.7388875 0.2335821 0.5105237 0.707485 0.051140968 0.7304693 -0.12508726 0.05100159 -0.27306786 -0.3065352 0.7560363 0.20188166 0.8440868 -0.638636 -0.36070213 -0.07511767 -0.73539644 -0.23583941 0.23939285 0.023020968 -0.46688294 0.7014063 -0.382081 0.59442663 -0.5835435 0.042504918 0.5805799 1.004286 0.17873345 0.01600645 0.37122968 -0.29665253 -0.0768582 -0.07922847 0.16660765 0.555023
org.apache.naming.ResourceEnvRef 0.23212656 0.33031476 -0.1757621 -0.23257844 -0.31545904 0.33764833 0.4981785 -0.094606936 0.02934951 0.0074405777 0.34705076 -0.496136 0.3275306 0.61628515 -0.30849916 0.44701958 0.72787815 -0.45642978 0.44538534 -0.13826545 -0.20886429 0.35475728 -0.302881 0.004590494 0.19449538 -0.19173032 0.1880556 -0.2307923 -0.36045796 0.15422657 0.10234242 0.4559231 0.2993388 -0.30161446 0.25200722 -0.034008667 -0.6760699 0.04147357 -0.23961647 0.37801275 0.609421 -0.4785854 -0.1293143 0.25560367 0.2979085 -0.0046955296 0.15585324 0.34481424 0.26545453 0.002540558 0.43016827 -0.07441367 0.7522906 -0.140748 -0.092416495 0.56188434 -0.07012641 0.2691032 0.064950824 0.14456227 0.29720148 0.32552832 0.26507407 0.6061107 0.64059305 0.029867243 -0.053881843 0.08110233 0.30122578 0.4892633 0.12865204 0.007624741 0.5465201 -0.16827756 -0.20958818 -0.03540588 0.37826487 0.3133689 0.672433 -0.10090868 0.17788932 0.035661403 0.40680635 0.11272384 -0.05300638 0.1758901 -0.13102944 0.11094913 0.041113913 0.11613983 0.04682602 0.34399158 -0.09938721 -0.20167124 0.11806947 -0.007818517 0.13019274 -0.11775969 -0.30129102 -0.08986111 -0.478644 0.47996858 -0.7521799 -0.30339944 -0.039193425 -0.41467923 -0.58194363 0.5589585 -0.5789614 -0.0667056 -0.38237762 0.42240822 0.42532006 0.74844766 -0.17166865 0.4198822 0.054771878 0.2742123 0.8708708 1.0113016 -0.49124503 -0.09297531 0.25374806 -0.265312 -0.1534254 -0.4867014 0.096959226 0.005710271
org.apache.catalina.valves.StuckThreadDetectionValve$MonitoredThread 0.9458628 -0.078056395 0.62558836 -0.052077115 -0.038277157 0.14901042 0.4031405 -0.2847155 0.010371331 0.22622943 -0.19350421 -0.16220823 0.12672447 0.16663659 -0.4194873 0.25000912 -0.15346955 0.28284505 0.3119962 -0.029797338 -0.02275986 0.19290325 -0.07680495 -0.22219068 -0.20675933 0.020580739 -0.2068801 -0.14716534 0.17876913 0.14640908 0.42112595 0.25308797 0.18056764 -0.35419 0.2276873 -0.520926 -0.18611816 -0.28599074 0.012081974 0.041480534 0.009398143 -0.36944798 -0.07164045 0.21418871 0.36463088 0.30090517 0.5323655 -0.3477372 0.106730275 0.25175172 0.7144528 0.07473265 -0.059310872 0.09924367 0.23495327 0.022663118 0.19184063 -0.40583774 -0.19471918 0.3309489 -0.57420504 0.41319373 -0.112272516 0.04326829 0.32205248 0.78344816 0.2200799 0.37594467 0.43618158 -0.48349747 -0.16008402 -0.2654317 -0.14614232 0.24323198 -0.20175922 -0.38328838 -0.11895074 -0.73706454 0.035518255 0.55375683 -0.2920249 -0.08253366 -0.07968228 0.12804604 -0.058884796 0.09128977 0.19062744 -0.3077211 -0.13795248 -0.37433252 -0.0020684185 0.37449542 0.04748243 0.41323844 0.2710768 0.12743469 -0.6070995 0.13064341 0.12900114 0.19496612 0.01776335 0.1329868 -0.38871688 -0.02592607 0.115871124 0.31872293 -0.07696932 -0.47414812 0.06475912 0.23067065 0.22317746 0.4019016 0.021017324 0.023747887 -0.12074721 0.09693831 0.17840111 -0.26788068 0.32984567 0.4804324 0.25217277 0.15224618 0.27280685 0.009164134 0.1238797 0.11173986 0.03466274 0.33747214
org.apache.catalina.startup.IgnoreAnnotationsRule 0.5046836 0.43488383 -0.028011205 -0.27711362 -0.07775568 0.27420065 -0.1300122 0.25692716 -0.10327748 0.3752604 0.19900294 -0.48595056 -0.03951047 -0.057341717 -0.4523617 0.29879645 0.16454789 0.09663294 -0.27127492 -0.23366384 -0.052147284 0.11009194 -0.304462 -0.044753198 -0.5470515 -0.62542915 -0.17552137 0.06940175 0.09206034 0.22226763 -0.36116788 0.15182558 -0.15202723 -0.26087314 0.2871965 0.07145617 -0.20456234 0.05168183 -0.58171797 -0.36178124 0.005633413 0.010569117 -0.0063819834 -0.001932713 0.53132105 -0.24126461 0.075317524 -0.22386505 0.4655856 -0.4902804 0.36381432 -0.11815787 0.06831076 0.23126106 0.012839675 -0.37086067 0.0053379578 -0.38051474 -0.07296618 0.012802659 -0.14799932 0.576812 0.2319252 0.17714989 0.42538098 0.11633255 0.54251236 0.26315358 0.4252151 -0.33089846 -0.3218818 0.15214881 -0.26021215 0.13459028 -0.28597826 -0.38551486 -0.42758334 -0.45400387 0.10266872 0.2597029 -0.13393249 0.5432251 -0.2680987 0.25203797 0.03346269 -0.10700647 -0.26312384 0.13757622 0.21709864 0.106996834 0.19161588 -0.0907849 -0.068634406 0.70969903 0.17713913 0.31019977 0.06846491 0.41866222 -0.12562408 -0.5677832 0.30947167 -0.35178068 -0.010133005 0.38899317 0.2657248 0.19864063 0.18788463 0.0496039 -0.069675215 -0.35649773 -0.4050076 -0.316957 -0.45252484 -0.06940815 -0.45531443 -0.042844594 -0.33218282 -0.14039811 0.11982906 0.46095333 0.0869427 0.17508459 0.23095036 0.15571164 0.024494058 -0.36121944 0.15499915 -0.250132
javax.servlet.jsp.el.ImplicitObjectELResolver$ScopeManager$4 -0.23577866 0.17106655 0.16216134 -0.23745222 -0.31115788 0.2763591 -0.23397337 0.23690872 0.4661949 -0.32264715 0.5647164 -0.35573786 -0.696432 0.39959523 -0.15535963 0.54791313 0.038091667 -0.57864505 -0.57278746 -0.43036205 0.04117752 -0.33291095 -0.21284816 -0.28473353 0.59201854 0.28709975 -0.51115996 -0.5126397 0.6089553 0.31686327 -0.21201748 -0.054976676 -0.598881 -1.0057218 0.65413713 -0.043733284 -0.50565624 0.2618512 -0.056645226 0.040319264 -0.8805112 -0.3257592 0.80078745 0.23889247 0.6816013 -0.0052185464 0.118695535 -1.7355843 0.1505763 -0.47211206 0.729719 -0.5437767 0.19284864 0.9565307 0.44055694 1.0561876 -0.30461878 0.42233855 -0.32041454 -0.025331225 0.106924325 0.1879189 -0.55107784 -0.26013508 0.2301193 0.20265514 -0.57458365 0.3272984 -0.17276447 -0.40782887 0.45272255 -0.16370474 -0.5056252 0.2829592 -0.78745985 -0.45657504 -0.104094476 -0.64988506 0.005112452 -0.11659582 0.036595814 -0.3895083 0.24360883 0.24883725 -0.9526524 -0.11308983 -0.4092705 0.32156485 0.23457411 -0.28863388 -0.024475744 -0.5215661 -0.8623169 -0.34253308 0.30567765 -0.058203794 0.35195118 0.34008113 0.20453955 -0.14165567 0.3723757 0.3223673 0.3210571 -0.81772536 1.0499535 0.04313942 0.36271974 0.71436065 -0.8019021 -0.1986767 -0.2586738 0.119548164 -0.022096083 0.5116287 -0.27326772 0.1473039 -0.19035923 -0.22923045 0.49452576 -0.006978517 0.218795 -0.2567994 0.19164544 0.0048214947 -0.5339484 0.0206997 0.31946796 -0.09290286
org.apache.catalina.core.ApplicationJspPropertyGroupDescriptor 0.39187908 -0.9242552 -0.6861832 -0.57720083 0.08357265 -0.086797796 0.4271968 0.4764047 0.7045557 0.10553382 0.90990293 -0.027978841 0.27617213 0.30591652 -0.21679713 -0.24601541 0.15180913 -0.2638416 0.35755667 0.3218798 0.021603681 0.1524653 0.19810435 -0.40836316 0.24393283 0.14588504 -0.37919754 -0.30174243 0.18215258 1.160658 -0.32281667 -1.2392102 -0.09803522 -0.72985363 -0.009892939 -0.010714083 0.08406804 -0.26316783 0.06983072 0.37665716 -0.10147535 -0.621675 0.15459639 0.5226925 0.7817166 -0.30656052 -0.07269335 -0.27781576 -0.27297696 0.13794139 -0.38252848 -0.6528981 -0.3288119 -0.04319406 0.25298554 0.3805299 -0.43269688 -0.27775505 -0.41602418 0.5135213 0.6431298 -0.3724619 0.0030078664 -0.017015312 -0.39790666 0.1487468 0.14989144 0.7180561 0.29665184 0.16700304 0.040799547 0.6331788 -0.9398891 -0.058489356 -0.098154604 -0.42288226 -0.14207783 -0.92019814 0.23658845 -0.087706394 -0.15423983 0.15520693 -0.23944825 0.004422046 0.46241945 -0.3591363 0.2460594 -0.011028977 0.1546055 -0.055326503 -0.37248367 -0.14242798 0.049437586 -0.35121137 -0.17094089 -0.05414231 0.4870142 0.20781681 -0.54908895 -0.28900895 0.78936756 0.5380155 -0.23195933 0.057145804 0.030794332 0.015748618 -0.15014711 -0.069076985 0.055236604 -0.11513152 -0.21947101 0.3350655 0.24564748 1.0861536 0.5020472 0.065503776 0.08885883 0.27525964 0.40431514 0.8671843 -0.040637113 -0.32536247 0.106596425 -0.1627432 -0.1470978 -0.18603218 0.33814654 0.61761034
org.apache.catalina.ha.context.ReplicatedContext$ReplApplContext 0.54123014 0.46412653 0.20606184 -0.45393708 -0.22260769 0.6469072 -0.0648064 0.14248346 -0.04377546 0.16817272 -0.09804136 -0.58592117 0.18260697 -0.10768248 -0.19643052 -0.018585894 -0.052995965 0.27718437 -0.18318933 0.017151479 -0.19729948 0.026177315 -0.15154563 -0.17308126 -0.38880342 -0.31439063 0.21290486 0.126824 -0.06511933 0.26969814 -0.041358717 0.11729488 0.17427547 -0.26971 0.23973013 0.08985799 0.025704766 -0.24759959 -0.6639683 -0.21488896 -0.2100601 0.006481287 -0.18253176 -0.38511172 0.4043477 -0.23258573 0.016242204 -0.49377495 -0.00393642 0.0012341646 0.20341897 0.026727883 0.17922238 0.1019626 -0.16386415 -0.1372503 0.05558766 -0.41680253 -0.0055379933 0.11104836 -0.4108326 0.5464801 0.23874359 -0.26206097 0.23188636 0.5419346 0.17667751 0.5051086 0.5305991 -0.14072263 -0.16105361 -0.010393894 -0.11065894 -0.0166838 -0.051850438 -0.034311958 -0.26474914 -0.61911637 0.099518545 0.2742991 -0.19497168 0.42479602 -0.24355893 -0.026684694 0.2545129 0.033342477 -0.094909586 0.05257115 0.048734672 -0.17155638 0.23474658 -0.24483322 -0.40350395 0.23005399 0.32749787 -0.18416823 0.012994764 0.5793324 -0.20582007 0.018467084 0.48673362 0.057191536 -0.038041256 0.19785997 -0.19604634 0.128464 0.4182548 0.27285546 -0.14455676 0.20097446 -0.5959924 -0.21165393 -0.11595558 -0.07036831 -0.49969667 0.21410182 -0.22768188 -0.18042563 -0.038270593 0.2356068 -0.07350508 0.08241287 0.2342415 -0.031857345 0.19147848 -0.17936428 0.2219247 0.21490382
javax.servlet.jsp.el.ImplicitObjectELResolver$ScopeManager$3 -0.18951558 0.12578881 0.10093693 -0.21903361 -0.24560818 0.31235886 -0.2795484 0.19758424 0.45458522 -0.35110766 0.6419687 -0.38715655 -0.7689296 0.3427462 -0.0672106 0.6237104 0.105045535 -0.54596215 -0.6298006 -0.48354608 0.005840909 -0.34103787 -0.17868252 -0.43496385 0.5232933 0.3688469 -0.57980365 -0.48972365 0.64289266 0.41282678 -0.20453925 -0.040309463 -0.6504663 -1.074457 0.67158586 -0.12720601 -0.52256787 0.2609543 -0.042934522 0.060460933 -0.8370626 -0.28714103 0.8057158 0.19005801 0.7031047 0.046569955 0.20633118 -1.7244351 0.13278723 -0.47337836 0.7437203 -0.48587933 0.16689056 0.9590385 0.40660322 1.0690372 -0.27122837 0.4134441 -0.3688764 -0.02768674 0.15585217 0.22152252 -0.43620992 -0.25258166 0.24354893 0.2771504 -0.49600238 0.27766657 -0.10246858 -0.40206316 0.420839 -0.18867208 -0.50563264 0.18146472 -0.8750599 -0.5053341 -0.0629264 -0.5728241 0.03236002 -0.10565504 -0.008545003 -0.32527125 0.36370215 0.2403257 -1.0111539 -0.19019338 -0.5007626 0.26017123 0.28852543 -0.25466827 -0.052396256 -0.41700783 -0.92617494 -0.39958957 0.38965875 -0.14032538 0.2958348 0.36945745 0.30950508 -0.15191239 0.30448216 0.38177535 0.35102665 -0.802469 0.9211366 0.04845197 0.33776844 0.5994723 -0.8484946 -0.21999761 -0.22952256 0.055074237 0.06914321 0.44645205 -0.2998961 0.13956694 -0.08043312 -0.17001635 0.5835374 0.012835379 0.14061433 -0.32254443 0.17198002 -0.014442067 -0.59463656 0.0051165917 0.41901043 -0.07793067
org.apache.catalina.mbeans.GroupMBean -0.7350137 -0.40299338 -0.43307284 -0.07841106 0.18423419 -0.43540102 -0.093598284 -0.31813297 0.7135811 -0.06264991 0.12928873 0.07158173 -0.56680197 0.88411754 -0.2767901 0.7274283 1.3027439 -0.47067147 -0.15183048 -0.13330385 -0.28152883 -0.08104139 -0.020798616 0.22801809 0.02760859 -0.7347883 -0.504245 0.007898851 0.026679868 0.4553504 0.6854636 0.46602735 -0.111630365 -0.48262045 0.3319634 0.29534143 -0.36287922 0.2845452 -0.3845449 0.38921437 0.37590903 -0.019297961 0.19364448 -0.29611665 0.40566248 -1.1975244 0.17044614 -0.5333194 0.23518683 0.97617006 0.81996286 -0.33677003 -0.27534097 -0.45382044 -0.21219823 -0.054940592 0.38352522 0.4750166 -0.68743014 -0.23889874 -0.318912 0.12129972 0.12308601 -0.75261074 0.03844489 1.1947513 0.5675992 0.27733105 0.44385043 0.4572454 0.51275593 0.026462963 -0.17994231 0.1537335 -0.010045197 -0.2349461 -0.18061961 0.3658159 0.44454393 -0.57320434 0.20570363 -0.048156492 0.06585079 -0.70318514 0.39885426 -0.09747478 0.57933855 0.47805014 0.3845476 -0.41525683 -0.09328901 -0.3318651 0.7315591 0.27153638 0.4865004 0.65492076 -0.051156346 0.72199583 -0.16257721 0.019449798 -0.40188733 -0.33905917 0.62444043 0.23789486 0.8358011 -0.69232434 -0.35846826 -0.022325989 -0.7247819 -0.16358747 0.15586354 -0.020814067 -0.45741877 0.7736958 -0.3994434 0.5998848 -0.5927785 -0.01704507 0.657349 0.97871906 0.20721553 -0.007857263 0.29663438 -0.29753298 0.012846026 -0.066126734 0.06651309 0.5319129
jsp2.examples.BookBean 0.1713472 -0.25108033 -0.43690142 0.37119877 0.085074164 0.0485649 -0.7675748 -0.06835498 1.6540755 0.1841872 0.6660605 -0.26128387 1.0710297 -0.94454896 0.17387812 1.486876 -0.3618343 -0.45566383 0.7128484 0.4718235 0.8213508 -0.24808334 -0.5483592 -0.4594539 0.45362213 -0.3169305 0.105781086 -0.5195215 0.2152617 0.49405277 -0.07230606 -1.4776927 0.035432003 -0.37513065 0.8359295 -0.25423813 -0.9002555 0.45161602 0.051954966 0.01643275 0.13459718 -0.043415092 0.3826628 0.26583093 -0.54918575 -0.6246239 0.9667576 -0.3192543 -0.41769776 -0.9802412 1.0842344 -0.31131503 0.019479394 -0.113141105 -0.003567226 0.8709072 0.8892924 0.8626862 -0.8382493 0.27675265 0.34660554 0.33737755 -0.26770774 -0.34790218 0.531384 -0.037870213 0.42282808 0.13805658 0.86737573 0.1561054 -0.541076 0.6158445 -0.17604646 0.6111161 -0.06950084 -0.51367843 -0.08108966 -0.7969792 -0.20171379 -0.14964773 -1.2255661 -0.5825628 -0.4491436 0.47259247 0.09419488 0.1669443 0.69870543 0.6960862 -0.527596 0.46775642 0.6687905 -0.65852576 0.65008926 -0.059742283 0.32165617 -0.2706328 0.57535183 0.09236815 -0.48828304 0.6046506 0.24351 -0.38957533 0.3707256 -0.39945582 1.0941482 -0.32720253 0.4201534 -0.28883237 -0.7516818 -0.028339814 -1.2275863 0.8920583 0.40904546 0.20274773 -1.0481926 -1.2348132 0.2789091 -0.14328207 -0.29912657 1.736363 -0.03919402 -0.46366575 0.67786676 -0.34007868 -0.6587759 0.8483793 -0.042639162 -0.14810534
org.apache.catalina.startup.SetDistributableRule 0.5720097 0.46583703 0.01713163 -0.24660979 -0.075204834 0.32228333 -0.22459042 0.18454988 -0.1813105 0.36008704 0.21545553 -0.50620914 -0.0932869 0.009683931 -0.41827327 0.29101717 0.0991217 0.117191106 -0.27068835 -0.31382117 -0.061106734 0.08700505 -0.24844712 -0.056862105 -0.59254557 -0.63449395 -0.16025302 0.10069392 0.101320945 0.20974647 -0.3644854 0.20002988 -0.093306854 -0.36541188 0.32189697 0.047824707 -0.1845759 -0.023733133 -0.66682994 -0.35146293 -0.043527476 0.052377846 -0.044206977 0.025955409 0.5851327 -0.2781915 0.04476164 -0.24767391 0.36610943 -0.50610095 0.36150247 -0.05971136 0.074653044 0.18198767 0.011088217 -0.3758839 0.0044566775 -0.46583134 -0.061723467 0.0006909277 -0.08406629 0.5646409 0.23151915 0.047412083 0.4046614 0.15918727 0.58619374 0.25487208 0.44268733 -0.21426384 -0.33105925 0.19158022 -0.2316382 0.14950727 -0.32526636 -0.33938298 -0.41325265 -0.48170844 0.14674184 0.31320697 -0.10117369 0.58847404 -0.26612407 0.22510394 0.02738431 -0.057517365 -0.22271173 0.09081106 0.30023527 0.10064371 0.23911797 -0.073749095 -0.053318527 0.7842925 0.17366873 0.26281452 -0.032015514 0.39703947 0.011100989 -0.57290906 0.32573196 -0.3538077 -0.05356885 0.343922 0.24525328 0.09773301 0.21666948 0.04671862 -0.14561117 -0.38678044 -0.44914052 -0.37671232 -0.36764655 -0.036195315 -0.35474575 -0.018637761 -0.30344388 -0.11260355 0.13801073 0.461872 0.038334534 0.102835506 0.19289085 0.11938852 0.040226337 -0.38864443 0.22062883 -0.20843968
org.apache.catalina.startup.ServiceQnameRule -0.2417002 -0.4550128 0.007957945 -0.18697323 0.03750446 0.6290557 -0.020261204 0.1433109 0.54985845 0.24387541 0.43546337 -0.65507704 -0.44090384 -0.31774697 0.11554595 -0.089324 0.2050837 -0.18108612 0.18468295 0.38325247 -0.33595318 0.33818516 -0.21906158 0.33832207 0.20129617 0.07727106 -0.12898725 -0.17144321 0.009416632 0.74152136 -0.19996451 -0.6017801 -0.40907922 -0.31423938 -0.059115227 -0.15053825 0.17421204 0.090738505 -0.56754154 0.030656388 -0.02664855 -0.5776096 -0.0030794004 0.3702622 0.67387307 -0.3164001 -0.7231742 -0.24297568 0.24285096 0.3476842 0.1037764 -0.651449 0.33222836 -0.1487115 0.04676199 0.019593323 -1.0489787 0.5113154 0.17533535 0.13932133 -0.09434291 0.21266194 -0.22305435 0.21194895 -0.027787404 0.14858001 0.25698692 -0.26084462 0.45385528 0.53755426 -0.4620431 0.16323267 -0.37143654 -0.3072 0.24917157 0.12696475 -0.25314844 -0.66197306 0.32397234 0.11323187 -0.008596494 0.18983169 -0.10646639 -0.13172673 -0.05564451 -0.08610642 0.46806037 -0.048298437 -0.24528927 -0.04721324 -0.07572194 -0.56644064 -0.32033733 0.16935489 0.3022376 -0.18751079 -0.02944887 0.026706805 -0.5336026 0.13559489 0.027072415 -0.21595912 -0.24649674 -0.34291738 0.019137938 -0.44084904 -0.29511148 0.1729051 -0.005596201 -0.1935863 0.39081854 -0.13442972 0.080776416 0.057850488 -0.32452267 0.014874394 -0.52889174 -0.21683055 0.2111939 0.55422723 -0.077411644 -0.1766267 0.19025016 0.0019605928 0.17068134 0.15892339 -0.12102124 0.38990268
