org.apache.jasper.tagplugins.jstl.core 0.5399645 0.39558697 -0.090593033 0.11917751 -0.43515062 -0.0015990983 0.27370065 -0.11916959 -0.054252964 0.71066254 -0.71723753 0.27682245 0.30724579 -0.11426014 0.10554136 0.29621139 0.0094983838 0.1020964 0.21415718 -0.42770341 0.1326341 0.1677946 0.0603467 0.17268521 -0.20961632 -0.22199583 0.13404542 0.33618093 -0.44592202 -0.19486474 0.23657559 -0.20684069 0.1164565 -0.33739761 -0.38625538 0.038223404 0.23675483 0.12060232 0.36234048 -0.47982281 0.13060559 -0.35292232 -0.067670301 0.11648527 -0.26592195 -0.01893514 0.13447778 0.07538534 -0.2207278 0.41818202 0.15071902 -0.22707652 0.056555644 -0.022936611 -0.2118347 0.072657749 -0.15386675 0.31733698 -0.19157709 0.11044735 -0.060515799 -0.57114077 0.63997787 -0.41867045 0.072074108 -0.10916471 0.17152166 0.018052766 -0.33718723 -0.16021845 0.19261087 0.29879406 -0.1953187 0.42684534 0.02278934 -0.15415139 -0.32827416 -0.26304793 0.075560689 0.35028091 0.17715134 0.090729892 0.059754137 -0.19491154 -0.37612963 0.2992177 -0.012815663 0.10000949 0.049761374 -0.098078862 -0.093896776 0.0049739983 0.32543463 0.20276959 -0.051097304 0.12622593 0.41089064 -0.079133257 -0.053070161 0.18303221 0.16011794 -0.11965586 0.26651281 0.22588907 0.29834151 0.23607704 0.16845103 0.10856804 -0.12609522 0.228302 -0.044357304 0.39427826 -0.16851376 -0.023646062 0.15964516 -0.098002374 0.22913621 0.21764922 -0.21015969 0.02408075 -0.15134245 0.076165438 -0.50436831 -0.41631144 0.25022241 0.15613788 -0.084463254 0.20012085
jsp2.examples.simpletag 0.49027935 0.30327731 -0.042573936 0.11326807 -0.38958299 0.0015381553 0.27746496 -0.10995842 -0.026390174 0.74643779 -0.68502849 0.2961266 0.28376195 -0.10910179 0.2208467 0.34110644 -0.099627405 0.071843274 0.26978666 -0.50462484 0.033519849 0.098422505 0.075920418 0.27359203 -0.13303575 -0.22156222 0.08638861 0.41154215 -0.27696884 -0.22193804 0.27391419 -0.22709493 0.20538096 -0.24876243 -0.28105053 0.084894948 0.20937601 0.048343997 0.37811583 -0.4824262 0.18475176 -0.32110956 -0.077859871 0.10604949 -0.24663925 0.027388167 0.10913922 0.0083599323 -0.24473232 0.31457242 0.23815599 -0.18717267 0.046919968 -0.055266503 -0.18753316 0.052700877 -0.17685848 0.38565549 -0.16380496 0.18769258 -0.0094549591 -0.52254337 0.55410099 -0.3127993 -0.042152219 -0.081421174 0.21048272 0.039622728 -0.31476679 -0.17982571 0.11407933 0.24625523 -0.18028565 0.39738497 -0.015219076 -0.13660137 -0.24836063 -0.23267673 0.15924963 0.42885357 0.14643048 0.031151211 -0.037519466 -0.15524186 -0.3199991 0.35670775 -0.039189745 0.026964758 0.0071590031 -0.039415132 -0.10694004 0.071352385 0.33923897 0.31627691 -0.11221152 0.076830022 0.39538643 -0.18937197 -0.093606614 0.23246902 0.14645985 -0.092332207 0.29314041 0.19994649 0.26283467 0.11830868 0.056461748 0.081147499 -0.018015372 0.20272943 -0.049431819 0.41831192 -0.30338553 -0.11533131 0.18551984 -0.1563527 0.15037093 0.27611062 -0.19239302 -0.024451071 -0.26738837 0.16609199 -0.35064131 -0.48846424 0.28526646 0.15636894 -0.055862084 0.22119895
javax.mail.internet 0.67722362 -0.11704892 0.031600308 0.022848105 0.012117635 -0.26993665 0.28763595 -0.54643154 -0.29090247 -0.10093696 -0.62633842 0.1410888 -0.039757323 0.16099645 -0.04013725 -0.84160036 0.61409372 0.46463186 -0.56828684 0.016782328 -0.41597202 0.37030593 -0.046312395 0.22130565 0.092881948 0.31854543 0.43956959 -0.075980961 0.38549262 0.15372702 0.10254552 0.17538999 0.75397736 0.4537316 0.03718115 0.80496907 0.34497559 0.49559841 0.053510502 -0.82247317 -0.85482782 -0.43220472 -0.18663613 0.16160743 -0.64075458 -0.14449671 0.55474651 -0.042693377 -0.47854152 -0.020124629 -0.12529422 0.20412889 -0.39997655 0.09404736 -0.50832343 0.2199612 -0.10679832 -0.095995478 0.036630239 -0.32905421 -0.33564591 0.22048122 -0.56309009 -0.14934288 0.13198307 -0.67184377 -0.19854014 0.098787606 -0.26656944 -0.17310801 -0.36090067 -0.088465616 0.2643252 -0.73802173 -0.84933031 0.064706929 -0.24913976 -0.038863566 1.0506021 -0.015268835 -0.43711618 0.057696 -0.29118049 0.56853271 -0.21202686 0.27653962 -0.05667508 0.026565839 -0.39249152 -0.1017278 -0.18338136 0.093653679 0.46635628 -0.14489868 -0.38749918 -0.18676232 0.25654861 -0.40476072 -0.31048605 0.53808916 0.32198215 -0.13634136 0.14826983 0.076691277 0.50548774 0.1714904 0.29593045 -0.60833043 -0.29656351 0.70870101 0.2567398 0.69191098 -0.7737512 -0.32950121 0.069946468 -0.23802124 0.12179804 0.86622024 0.40403244 -0.34786218 -0.17972697 0.3677808 -0.45015371 -0.087412998 0.8340342 -1.0074823 -0.34218639 -0.17720102
javax.mail 0.66026282 -0.089900628 -0.10707851 0.024749612 -0.037380595 -0.22567168 0.37413061 -0.4589819 -0.26231772 0.087774284 -0.73242104 0.14292242 0.090023398 0.11789511 -0.091160409 -0.58569908 0.65995723 0.4925431 -0.60563082 -0.11320532 -0.36304703 0.36926278 -0.079759806 0.20954546 0.054617643 0.2821534 0.45122308 0.11329676 0.29705203 0.19777511 0.19671755 0.18788256 0.64920783 0.45934939 0.04232014 0.83011901 0.33571059 0.51810533 -0.087482862 -0.73164964 -0.82609481 -0.24852729 -0.22707039 0.099249363 -0.50038373 -0.14600317 0.50658208 -0.063989371 -0.41638002 -0.062556714 -0.21061036 0.27280295 -0.34103662 0.11303551 -0.5778001 0.12267768 -0.041582949 -0.18059166 -0.0067150681 -0.39536852 -0.42800891 0.21397832 -0.56322837 -0.15790072 0.14230318 -0.64922106 -0.30571154 0.081977114 -0.26000571 -0.0426604 -0.38203534 -0.11943446 0.34429526 -0.60734105 -0.85832322 0.12036503 -0.24073987 -0.036509212 1.0087174 0.057676781 -0.43843719 -0.015729517 -0.17435865 0.55730885 -0.16319558 0.33090603 -0.075545095 -0.013372572 -0.31598848 -0.20670363 -0.13737476 0.014324895 0.38075799 -0.062446985 -0.27864632 -0.25706029 0.14300762 -0.45129836 -0.26907566 0.4259724 0.2827858 -0.13562936 0.093262859 0.024787344 0.54357141 0.11867432 0.28894436 -0.68038219 -0.31467643 0.63676935 0.20336992 0.67296284 -0.60398829 -0.17274792 0.11707659 -0.18865153 0.080249742 0.85003996 0.56137359 -0.36664531 -0.098288566 0.30938852 -0.35460612 0.020430574 0.81749731 -1.0353513 -0.29555091 -0.21178541
org.apache.catalina.ha.deploy 0.15845376 -0.070564285 0.081603274 -0.13043933 -0.063956976 0.15791927 0.0077550621 0.025587169 -0.016570518 0.037438679 -0.37080377 -0.009392594 0.095452659 -0.23365982 -0.046995804 -0.055783235 -0.27228871 0.16512923 -0.029495213 -0.25960895 0.17143466 0.34683591 0.17949864 0.24540147 -0.19492516 -0.19176957 -0.0320131 0.00035132258 -0.057438444 -0.062527284 0.20069762 0.030619947 -0.20394266 -0.25935292 0.020300791 0.026798332 -0.20127577 0.015499235 -0.04780785 -0.20081167 0.057911739 0.044076942 -0.063065 -0.069144629 0.11701367 0.14036238 -0.166722 0.28147104 -0.085333645 -0.01151689 -0.17805845 0.14966424 -0.37126389 0.1347059 -0.028806267 -0.14054883 -0.016412659 0.14301866 -0.14342958 0.097599611 0.1459143 -0.026107563 0.18526156 0.10978995 -0.058714811 0.21835735 -0.13961199 0.069032565 -0.030006174 -0.19190854 0.018063305 -0.074590392 -0.1751861 -0.0813227 0.010311505 0.13967861 0.12641583 -0.013952265 -0.15370792 -0.10132158 0.072137758 -0.09899234 -0.10312251 0.008928162 0.022362622 0.053899251 0.10255168 0.11667857 0.0091985539 -0.17452882 0.016038004 0.12297895 0.035224855 -0.24787655 -0.11134685 0.24260131 -0.014569883 -0.16284947 0.12547758 0.24267386 -0.032644581 -0.083040565 -0.05627846 -0.21958569 0.25326592 0.22897516 0.015962118 -0.01463777 -0.081274368 0.20901066 0.044402421 -0.10155055 -0.077364109 -0.22020714 0.03191914 -0.098565049 0.17599414 0.074042007 -0.27533707 0.011895865 0.04934448 -0.21547978 0.25024191 -0.074327707 -0.22330309 -0.022787601 0.049463574 -0.030324018
org.apache.tomcat.websocket.pojo 0.026120646 -0.17815532 0.22391611 -0.020444229 0.017608969 0.0039195344 -0.017577723 0.073196441 0.032692157 -0.10810481 -0.22463122 -0.1215225 0.018872757 -0.09307123 0.048284445 0.035307761 -0.26506421 0.086711109 0.01871809 -0.27633336 0.11457542 0.12097176 0.078715637 0.15244718 -0.090013847 -0.23145527 -0.064813316 -0.012886171 -0.086852424 -0.073602647 0.20919724 0.087481961 -0.079177462 -0.2263577 0.012980933 0.011995587 -0.10726685 0.0059946352 0.005261987 -0.18113276 0.1405737 0.10289052 -0.040282015 -0.028947404 0.27836615 0.063833117 -0.088412255 0.082319774 -0.019964105 -0.11194897 -0.296974 0.078370005 -0.31534642 0.21042261 0.0098465998 -0.26406103 -0.030072393 0.16737092 -0.23469268 0.033281084 0.13260631 -0.021755427 0.28886044 0.14191853 0.0026875513 0.28441766 -0.07136707 -0.0061521917 -0.061853185 -0.16293262 -0.0041815178 -0.093365319 -0.16172726 0.019608701 0.0056064823 0.31358209 0.121711 -0.031514782 -0.064534023 -0.11574015 0.12802346 -0.040738147 -0.097509764 0.011775301 -0.087268233 0.11648243 0.028092893 0.010385858 0.070831917 -0.28857833 0.042602807 0.18984105 0.020558098 -0.27666083 -0.095578112 0.33361909 0.012776402 -0.12191167 0.045303173 0.10115071 0.099676214 -0.054391004 0.0391852 -0.107907 0.25015867 0.15018921 -0.0041379719 0.0087225307 -0.048968945 0.188768 0.018405687 -0.25874099 -0.22732411 -0.26642331 -0.031321369 -0.20492752 0.21469645 0.24966669 -0.22298405 0.016749809 -0.018269649 -0.15511397 -0.028900754 -0.15725809 -0.081974179 -0.024762848 0.0206686 0.035982221
validators -0.058615316 0.13920796 -0.00055445445 -0.092458755 -0.18877326 0.13988876 0.15551354 0.090181552 0.10741798 0.46784434 -0.57732689 0.28897685 0.25144491 -0.26367661 -0.050174028 0.0078894617 -0.18844807 0.094493233 -0.1236674 -0.44824407 0.10613845 0.1754555 -0.094469838 -0.035809655 0.051217571 -0.25157002 0.2831929 0.11642229 0.15035848 -0.22991736 0.31419992 -0.36616561 0.08297684 -0.010505347 -0.05052479 0.17403595 0.037556171 -0.048505515 0.1431047 -0.096650735 -0.038193606 -0.073497936 0.13290982 0.10838085 -0.3196744 -0.0084245037 0.22846664 -0.20405541 -0.34034771 0.22096615 -0.048696343 -0.15747342 -0.14740507 0.070770182 -0.13923313 0.1697844 -0.25822785 0.2909568 -0.061740745 0.048530877 0.13628387 -0.45180735 0.15245651 -0.032014161 -0.24855419 0.062944219 0.058114503 0.02847516 -0.39192277 -0.43366283 0.1927232 -0.10132473 0.029183077 0.19149826 0.14244081 -0.14593928 -0.19040938 -0.037562624 0.083797902 0.10820589 0.21063104 0.16785635 -0.00090422924 -0.12316149 -0.12947322 0.42742413 -0.0096856896 -0.040424783 -0.05199815 0.14882742 -0.11778619 0.098244153 -0.0063479142 0.20731558 -0.2269813 0.17414621 0.17838153 0.076933637 0.014054053 0.012126556 0.078967765 -0.059720524 0.18347114 -0.0066445759 0.039380841 0.06938152 0.046001278 0.19184676 0.091367431 -0.035552867 0.0066909757 -0.10954921 0.17877802 0.023427296 0.17344506 0.018468468 -0.090184473 0.051215924 0.28547755 -0.095179543 -0.12857889 0.039082028 -0.13045765 -0.2541714 0.25994101 -0.17643149 -0.13310672 -0.174183
org.apache.catalina.users 0.099444248 -0.073352829 0.068072803 -0.08601094 -0.025501579 0.064756587 -0.12411591 -0.070262991 -0.0087048896 -0.02932154 -0.30006549 0.089733258 0.1042829 -0.21562022 -0.029718583 -0.019404795 -0.35758027 0.071515754 -0.0042728591 -0.24924706 0.15214364 0.31428197 0.1142946 0.24558681 -0.13692719 -0.23448025 0.14098661 0.044321109 -0.017462073 -0.058067612 0.23129383 -0.013919635 -0.045192149 -0.39003643 -0.13782305 0.090633072 -0.20732406 -0.054760374 0.14580467 -0.098241225 0.13846706 0.056520011 -0.043975309 -0.10575718 0.12367497 0.2212031 -0.21183072 0.31721514 -0.001461597 -0.13781308 -0.28869653 0.049598228 -0.35770953 0.068675302 0.059602324 0.00059229258 -0.093511157 0.12832129 -0.10872575 0.15266798 0.1658067 -0.10781985 0.23347551 0.22950342 -0.048132524 0.1829562 -0.040368337 -0.025665414 -0.090086788 -0.069853917 0.15956712 -0.1528018 -0.14504968 0.023356397 -0.044353481 0.21828739 0.10436144 -0.031111827 -0.11936221 -0.11748673 -0.043230332 -0.06282419 -0.042376589 0.19189981 0.092076764 0.047388293 0.033789054 0.044931166 0.0049362532 -0.11725231 -0.06569685 0.10950304 0.067133196 -0.253903 -0.070705317 0.25144762 -0.020549208 -0.15538232 0.1107879 0.12590939 -0.0018172861 -0.18850759 0.10569626 -0.10318089 0.28118312 0.14793153 0.059726343 -0.068210647 -0.058013987 0.18676852 0.13333498 -0.15702926 -0.13152927 -0.090726234 -0.16255377 -0.20970985 0.059717812 0.15920377 -0.20043698 0.00042983374 0.006082973 -0.17695905 0.21299386 -0.074215829 -0.13537388 -0.17444533 0.089803502 -0.011312102
websocket.snake 0.21727523 0.17567064 -0.29183725 0.0019314461 -0.20626731 0.26680711 0.064334802 0.12174079 0.020554205 0.27561757 -0.59686118 0.057834383 0.34066829 -0.10819009 -0.0059555704 -0.010721351 -0.072953999 0.32678482 -0.18099792 -0.33424491 0.06163457 0.18021144 0.088952616 0.017941384 0.17021093 -0.025049053 0.26816949 0.048276503 0.056385458 -0.36896151 0.15338175 -0.39095098 0.12389009 -0.046965919 -0.10096526 0.22971888 -0.14440672 -0.25089929 0.16432145 -0.073925249 -0.087559275 0.072353333 0.17709365 0.37210143 -0.36122245 -0.052724428 0.07071846 -0.51985765 -0.22088416 0.22340341 -0.11921512 -0.084010437 0.058738034 -0.00076919334 -0.099469848 0.33611941 -0.26142406 0.37866718 0.053929321 -0.13329643 0.25740036 -0.26068088 0.029374622 0.23298699 -0.49671188 0.072105959 0.32033885 0.16352464 -0.32417786 -0.33771917 0.20395784 0.099250413 0.029996136 0.12411513 0.13627926 -0.19684985 -0.12053747 0.090314023 -0.0014236806 0.011645149 0.27058652 0.2365305 0.082004003 -0.23444481 -0.15943855 0.44121474 -0.077899955 0.01327476 -0.051825713 0.13887428 -0.056699652 0.057084404 0.0088046184 0.42357603 0.15078832 0.15466735 0.26606703 -0.19467111 -0.12113813 -0.066471569 0.1952035 -0.083278589 0.26912594 0.077521116 0.18616582 -0.0062354738 0.1674365 0.10887107 -0.084109381 0.11394338 0.067811653 -0.37763792 0.068851642 -0.052367583 0.28081223 0.02786633 0.12200783 0.099100128 0.20313077 0.12184977 0.12684584 -0.24326584 -0.35082355 -0.15668504 0.28034616 -0.15100475 -0.37554681 -0.19923344
examples 0.11601827 0.1124045 -0.14262252 -0.11246637 -0.070571601 0.2113533 0.14030902 0.018973911 -0.014348462 0.30610251 -0.45365635 0.315126 0.30674946 -0.094959475 -0.16312833 -0.02027341 -0.07982865 0.26323044 -0.17066903 -0.30631784 0.15947182 0.24299385 -0.0059240265 0.0048982059 -0.017659653 -0.12706229 0.33452913 0.035192769 0.003825671 -0.06998609 0.37602997 -0.28350437 0.042623878 -0.072272845 -0.19302373 -0.0028518424 0.24118002 -0.055461861 0.24360877 -0.046397951 0.10728111 -0.21656913 -0.0032709648 0.1098761 -0.26821432 -0.018402306 0.14705321 -0.033701777 -0.37207359 0.35226095 0.02488967 -0.11666439 -0.16118862 0.065850578 -0.23256668 0.22961164 -0.12979302 0.20477656 -0.11569446 -0.057994407 0.099522822 -0.32887122 0.15401272 0.015127076 -0.18459839 0.17098197 -0.012244361 0.031917091 -0.30208862 -0.39694592 0.15920158 0.092602283 -0.030210184 0.24483104 0.23877485 -0.15611118 -0.062971607 -0.079777278 0.020464547 0.081080072 0.11831012 -0.053467508 0.067278899 -0.1352765 -0.12872455 0.46158195 -0.093297809 -0.037245948 0.14731161 -0.12880334 -0.11821403 0.0028025184 -0.041979399 0.21280456 -0.125397 0.2135413 0.24680477 -0.103005 -0.13002689 -0.0047613336 0.11795177 -0.10187881 0.15160134 0.007165601 0.068545386 0.1101159 0.14168841 0.12991315 0.058230672 -0.037872497 0.042225573 -0.11793108 0.13986123 0.079813704 0.24339083 0.041117445 -0.012974081 -0.013670404 0.13015291 -0.050297566 -0.062967531 -0.0076375012 -0.12784225 -0.17016102 0.20474465 -0.18191652 -0.094013132 -0.11447091
org.apache.tomcat.util.http -0.087108783 -0.28258148 0.17144337 -0.1206867 -0.070152782 -0.0036944868 -0.17709018 0.022581952 0.023008652 -0.13908637 -0.3164233 -0.11010256 0.014585399 -0.21045974 0.0060341926 0.18229963 -0.15079404 0.17289336 0.042235013 -0.22276135 0.18016946 -0.11144076 -0.015233068 0.11479975 -0.0940561 -0.066301428 -0.023758469 -0.10398459 -0.097687222 -0.16048741 0.033259328 0.050422318 -0.1091535 -0.2583921 -0.060886569 0.22711034 -0.063594803 0.01733958 0.10874386 -0.15071191 -0.30380577 0.27397931 0.0013110522 -0.054553818 0.12008909 0.0042588506 -0.12413776 -0.14455628 0.024301304 -0.21024902 -0.25436679 0.16967721 -0.014753826 0.042631462 0.20388423 -0.31617749 0.0048218733 0.18890771 -0.41786495 -0.021482572 0.26891163 -0.031129239 0.48320296 0.18323883 0.050086323 0.23532288 -0.1291371 0.013586354 0.054672103 -0.15192452 0.099329866 -0.27050114 -0.17865945 -0.084115468 0.20714498 0.2586934 0.15516442 0.12769353 0.028453244 -0.15467647 0.10048829 -0.1811657 -0.14434738 -0.039343465 -0.21277964 0.12485864 -0.032281078 -0.055792928 0.033148672 -0.21850824 0.15434149 -0.12437341 -0.2659362 -0.087050058 -0.39519501 0.13429335 0.087200619 -0.13283312 0.044998426 0.27866015 0.182124 -0.096853204 -0.10248198 -0.24723822 0.030659964 0.32524633 0.22350793 0.043914262 -0.27693507 0.47172904 -0.12689136 -0.063326851 -0.19453573 -0.27544367 0.031514734 -0.3282451 0.32227552 0.25769883 -0.16864985 -0.087067433 0.052087419 -0.304133 -0.13258961 -0.12655671 -0.16490702 0.36962053 -0.061229352 -0.1010581
org.apache.tomcat.util.descriptor -0.04154994 -0.056907322 0.15026927 -0.045994747 -0.1153184 0.097422473 0.036841914 -0.014821006 -0.047295451 -0.063764773 -0.12277453 -0.065059088 -0.018827317 -0.23108691 0.042411514 -0.014194755 -0.32028371 0.18058124 0.044537842 -0.28212309 0.20694725 0.23244762 0.12455741 0.1347602 -0.2173477 -0.21059814 0.17408766 -0.045056079 -0.15868182 -0.11051946 0.25032127 -0.050581232 -0.1340507 -0.29581144 -0.072728023 0.16570303 -0.098648794 -0.11277833 -0.089629039 -0.24072084 0.078490466 0.13472089 -0.054943576 -0.1894556 0.096101813 0.085288025 -0.14458546 0.24550968 -0.035890091 -0.016802041 -0.27554223 0.22067708 -0.23124641 0.10456624 -0.08451356 -0.0043819593 -0.22309816 0.044323433 -0.17215772 0.030437004 0.26536751 -0.053320974 0.33038077 0.22267723 -0.009912583 0.23414497 -0.064332306 0.041710187 0.023266904 -0.13508338 0.060992561 -0.08061631 -0.13054009 -0.0080792429 -0.053928327 0.35008189 0.19086705 -0.063322589 -0.038374919 -0.010893403 0.18682502 -0.057471849 -0.085332409 -0.081627764 -0.010568148 0.03628381 -0.025038233 0.137817 -0.053717058 -0.24922606 0.0013142653 0.19943728 0.058553107 -0.29983199 -0.15598269 0.37621003 -0.03747151 -0.089388393 0.045225535 0.25051478 0.074172661 -0.14475487 -0.0054008164 -0.1955056 0.28176948 0.1505374 0.015631732 -0.10039464 -0.057070374 0.23441508 -0.011087456 -0.11790395 -0.16019045 -0.14764631 -0.062690727 -0.12124953 0.1714388 0.15952165 -0.31852353 0.11020189 -0.015007177 -0.19271748 0.017849004 -0.088970654 -0.060165439 -0.011808705 0.14964412 -0.16653754
org.apache.coyote -0.002605323 -0.2313752 0.16167799 -0.18456978 -0.0262469 0.033428505 -0.19067514 0.073238201 0.044234544 -0.18152672 -0.17524092 -0.059211947 -0.047724865 -0.29068568 0.15178283 0.034983218 -0.061306499 0.13564895 0.14819688 -0.20012185 0.24084927 0.014191287 0.077106304 0.007544159 -0.18252508 -0.043499358 -0.14771032 0.0046256115 -0.1434602 -0.27993929 0.087187245 0.076348819 -0.053387787 -0.34251195 0.03707264 0.17730117 -0.051900141 -0.14093097 0.13923697 -0.13252296 -0.30257496 0.16442229 -0.035040688 -0.078613237 0.00053040142 0.017219026 -0.048231345 -0.068329409 -0.050054442 -0.15333804 -0.38091266 0.27296916 -0.017598776 0.034991801 0.20191285 -0.38439897 0.026440702 0.10022085 -0.44813228 -0.037379101 0.037203532 -0.19945113 0.47325891 0.1043624 -0.037900884 0.15307538 -0.12643078 0.059801638 0.031653099 -0.074949786 0.11223327 -0.17930773 -0.20574947 -0.075595111 0.19191049 0.13709348 -0.003553065 0.027021298 -0.029597597 -0.15118581 0.019347502 -0.1347117 -0.12654282 -0.093176201 -0.12344789 0.17512672 -0.17308179 -0.079313591 0.074167937 -0.21500164 0.2688041 -0.13296364 -0.29416478 -0.053515397 -0.4627755 0.14514694 0.11603606 -0.050936826 0.083025329 0.20747516 0.078532182 -0.097507328 -0.13562357 -0.27644381 0.14230676 0.18980683 -0.044979468 0.04927006 -0.15954484 0.46991819 -0.26326489 -0.15806578 -0.23928328 -0.27790424 -0.094558738 -0.22389831 0.32184312 0.33527237 -0.20157729 -0.053567525 -0.042940278 -0.16510537 -0.078710318 -0.098972797 -0.15183854 0.25567544 0.11548935 -0.11071808
org.apache.catalina.ha.tcp 0.022344563 -0.20209211 0.1568438 -0.15143152 -0.12790418 0.036486771 -0.16801491 0.054608334 -0.045657575 -0.11389604 -0.28240296 0.023856515 -0.017465046 -0.2257881 0.085022889 -0.044620048 -0.10105538 0.17219876 0.1352205 -0.091968745 0.24184076 0.11597091 0.047959149 0.086584024 -0.19219056 -0.10969847 -0.0092666578 0.0077012745 -0.17783812 -0.22877914 0.090815775 -0.010791318 -0.13000989 -0.15868869 0.036633354 0.10654526 -0.059956856 -0.093345761 0.057802286 -0.13713866 -0.20402162 0.37461764 0.043255989 -0.041715808 0.069998987 0.032392513 -0.095469847 -0.080172502 -0.043263935 -0.13750325 -0.3367312 0.20877282 0.0017346792 0.022498641 0.2286519 -0.29894522 0.0091593973 0.21283124 -0.42190525 -0.0032109274 0.084768936 -0.080494873 0.3745428 0.12240554 0.0010594255 0.21343872 -0.15039316 0.093073487 0.089830227 -0.10842296 0.10348915 -0.12530006 -0.2037902 -0.10218864 0.19401143 0.44598731 0.2136784 -0.041456882 -0.048364948 -0.16207497 0.17452379 -0.18388017 -0.091778897 -0.011191267 -0.070112258 0.22897539 -0.042914629 -0.0037820735 0.12901011 -0.30083093 0.11678962 -0.025741776 -0.28429678 -0.090428948 -0.41362691 0.39597556 0.20366378 -0.076065093 0.0079777231 0.22083703 0.065910108 -0.089335032 -0.022572793 -0.14991318 0.19429079 0.19399248 0.037325703 0.0054724123 -0.18667535 0.39593416 -0.15468127 -0.24668247 -0.21295814 -0.21005028 0.011581108 -0.24561578 0.19736558 0.24436933 -0.2063774 0.027868839 -0.03344075 -0.20108913 -0.095127389 -0.065501392 -0.20943268 0.20386332 0.084411994 -0.04093805
javax.ejb 0.35332289 0.19880943 -0.11525902 0.022159863 0.2476871 -0.1790902 0.22778161 -0.28998253 -0.19117163 -0.097359955 -0.27945966 0.017390216 0.40500382 0.344675 0.15405284 -0.36865199 0.053415939 -0.034968901 -0.24708787 -0.11941411 -0.048947401 0.3650898 0.012801348 -0.041191567 -0.31856853 0.10062667 0.23262507 -0.15165848 0.066044115 0.15135182 -0.031362586 0.24602187 0.019712443 -0.21081023 0.14655487 0.14163098 -0.25308475 -0.13758899 0.30655307 -0.18239903 0.10139926 -0.030149959 0.081224628 0.12109998 -0.090774916 -0.42919302 0.38885489 -0.46757478 -0.32105929 -0.057265669 -0.51724386 0.31097123 -0.079718038 0.22690289 -0.03288069 -0.16279784 0.17655414 -0.13267259 -0.017185302 -0.095044903 -0.39247954 -0.1263044 0.097390883 -0.53408796 0.039160464 -0.088545904 -0.036100104 -0.25751659 -0.14159279 0.24261478 0.06130496 -0.46362475 -0.046029024 -0.41773489 0.23048371 0.3183237 -0.54956812 0.21724895 0.15460293 -0.63579041 0.38147148 0.21231166 -0.030464608 0.053962357 -0.41112003 0.31386128 0.046067029 0.12413022 0.17731471 0.040594462 -0.055004757 0.087280504 -0.40399906 0.093052223 -0.038792789 0.17686185 0.29787311 -0.30719015 -0.029570991 0.69956499 -0.15523396 0.061507061 0.2073855 0.066356756 -0.26246068 -0.43354845 0.20871173 0.07673458 -0.38795194 0.013863657 -0.27609587 0.86173594 -0.2465174 0.052178111 -0.37462324 -0.09350732 -0.20496605 -0.27106243 -0.17629795 0.2712186 0.17201245 -0.08462587 -0.20070378 -0.15878241 0.49175891 -0.26889977 -0.092655659 -0.55941617
javax.xml.ws 0.33641261 0.23782641 -0.13417527 -0.037507743 0.26012689 -0.10565833 0.23731579 -0.23728652 -0.14673011 -0.020521956 -0.34380865 0.035359759 0.31262267 0.28818867 0.043878507 -0.27606428 -0.025732258 -0.067755498 -0.34598234 -0.20581909 -0.050776616 0.2891303 0.11386523 -0.017164655 -0.24964546 0.045092411 0.25656328 -0.28312975 0.15567775 0.24246788 -0.013231544 0.28266415 0.070459515 -0.14310771 0.14681219 0.25402427 -0.2437771 -0.071088701 0.28873488 -0.17608227 -0.13007274 -0.10555245 0.13560504 0.2083291 -0.12403823 -0.35658067 0.36456442 -0.47984093 -0.28585994 -0.27328414 -0.46211931 0.33740267 -0.10913073 0.2176387 0.020617442 -0.16105871 0.19644341 -0.14104386 -0.0086326022 -0.098208472 -0.43121934 -0.096875355 0.13338087 -0.45783094 0.012151254 -0.16783494 0.014332894 -0.26695591 -0.27509657 0.16064446 0.096732877 -0.56088954 -0.059205499 -0.38519144 0.18755983 0.26717472 -0.60798818 0.10442253 0.1786821 -0.61215305 0.33247387 0.33265167 -0.019641714 0.0045401221 -0.42992246 0.16101682 0.10973836 0.14927852 0.12851921 0.13956809 -0.020173678 0.036811624 -0.30147013 0.22789402 -0.012631811 0.023237122 0.35768759 -0.26774052 0.085286595 0.73819238 -0.1155281 0.12593833 0.22099407 0.20600282 -0.28530282 -0.42908129 0.29141444 0.10457119 -0.37222686 0.16953553 -0.27768663 0.81645352 -0.26314417 -0.057893541 -0.36765072 -0.19019689 -0.15444562 -0.23984808 -0.092132919 0.13004455 0.20343813 -0.13654251 -0.11934717 -0.24862689 0.38724664 -0.16587719 -0.068173356 -0.54696596
org.apache.catalina.tribes.transport 0.091518529 0.00781067 -0.036633778 -0.071606323 -0.043715157 0.49582076 -0.32991347 -0.10432656 0.19999884 0.4896172 -0.030369755 0.11268709 0.15354216 -0.16736598 -0.055615883 -0.25874382 -0.42267337 -0.29223031 0.077042215 -0.35856649 -0.0079128472 0.089857765 -0.079119839 -0.051215943 0.14926857 0.11845122 -0.11050533 0.11013178 0.22785859 0.053301632 0.016234923 -0.032871589 0.069500566 -0.034341078 -0.00092845596 0.061697513 -0.07038527 -0.035122462 -0.096204579 -0.0036936137 0.036491852 -0.052010756 -0.044567812 0.25539923 -0.07581757 -0.11117472 0.089096755 -0.061788201 -0.16093113 0.27870741 -0.15854555 -0.13072771 -0.14511073 0.088772073 -0.31241575 0.10219467 -0.38004088 0.37902936 0.19850571 0.20245646 0.030874822 -0.086658262 -0.036226537 0.20725323 -0.10527618 0.065177046 0.022723638 0.065584518 -0.30153286 0.025494514 0.21572544 0.083711468 -0.06987565 -0.11304395 0.058170538 0.16362834 0.16260402 0.0012799865 -0.0078142937 -0.12723634 0.026569664 0.20582546 -0.17865616 0.012965532 -0.1247509 0.27685651 -0.047315035 -0.1170017 0.051155634 -0.25077188 -0.11638699 0.17223595 -0.017039521 -0.31193602 -0.10679111 0.18667799 -0.046955094 -0.15439846 0.11460947 0.0095924381 0.15206145 0.055252589 -0.0067638112 0.19477418 0.15870753 -0.18668179 -0.020613972 -0.3524853 -0.13809848 0.15419972 0.03147665 0.091249421 -0.1899263 -0.010902694 0.11268722 -0.17896669 0.32945576 0.029031141 -0.31910685 0.1264035 0.19482264 -0.3743712 -0.08902248 -0.1005645 -0.03285202 -0.027158841 -0.011799676 0.084940456
org.apache.catalina.tribes.transport.bio 0.037754484 -0.048652116 -0.062181037 -0.10233102 -0.018213149 0.52196085 -0.19307607 -0.057925791 0.186793 0.39212164 -0.10447633 0.039499022 0.090656497 -0.15324019 0.016619185 -0.15028057 -0.16802283 -0.089088589 0.099760458 -0.32465735 -0.05388131 0.14069955 -0.092554078 -0.034169033 0.26538613 0.05777261 -0.012654524 0.010309398 0.1529007 0.014072163 0.090523832 -0.091369614 -0.015307446 -0.13869755 0.09757489 0.10127609 -0.23614132 -0.15486801 -0.024860555 -0.032082453 0.047121026 -0.11501238 -0.097301528 0.030605815 -0.090749703 -0.10407398 0.073650993 0.052908726 -0.17183857 0.17290393 -0.24088119 -0.075159669 -0.1467282 0.095917463 -0.32396501 0.065752812 -0.42864379 0.15912223 -0.00454868 0.30639869 -0.096296966 -0.02270717 0.064869009 0.20209688 -0.09520483 0.25802043 -0.1221052 0.0068148188 0.050270155 -0.010920253 0.17430919 0.163518 -0.1660821 -0.0070996918 -0.12933625 0.31050509 0.28164616 -0.079040013 -0.081772238 -0.11909501 -0.0042477539 0.11256195 -0.19598866 -0.088309877 -0.21517147 0.13952422 -0.009425953 -0.073460564 -0.040308457 -0.20639367 -0.091019183 0.10713068 0.041046139 -0.2486598 -0.046357363 0.30278304 -0.089197889 -0.18090431 0.17938934 -0.012471925 0.023945462 0.013174307 -0.18893106 -0.038915046 0.29145768 -0.077329561 0.13474287 -0.32012409 -0.13565142 0.1381748 0.026466919 0.080435447 -0.10213514 0.059842329 0.14453359 -0.048410051 0.26725289 -0.13791195 -0.083755612 0.046938658 0.29666096 -0.34163335 -0.15711035 -0.088574283 0.002755553 -0.17713812 -0.09584666 -0.12397869
websocket.chat 0.18181562 0.24046765 -0.30878884 0.032710906 -0.22667137 0.037629839 0.058168001 0.12274269 -0.014212478 0.24529752 -0.75983208 0.0292667 0.50378913 -0.16239496 0.01255495 -0.067903623 0.033915769 0.24841104 -0.095238589 -0.24392535 -0.096349895 0.085627615 0.13788776 0.097582221 0.18278211 -0.014716131 0.32281888 0.078373015 -0.076109134 -0.31724149 0.10408153 -0.4453401 0.063459918 -0.015876107 -0.029682271 0.2444367 -0.2064386 -0.19804229 0.14907181 -0.065419465 -0.062432401 0.068844184 0.26336586 0.33506733 -0.32520205 0.019286297 -0.0016535018 -0.56255555 -0.25210094 0.21465662 -0.018191148 -0.19479431 0.02289168 0.057073124 -0.12428781 0.18707238 -0.10395753 0.3577854 0.052300628 -0.082824804 0.24117056 -0.23831132 0.12265076 0.1581911 -0.5679757 0.14397842 0.27636793 0.076684795 -0.26056817 -0.38701153 0.11532165 0.14450184 -0.018714037 0.15299007 0.19367389 -0.16312665 -0.078085855 0.10891455 -0.061689638 0.0092622656 0.22855814 0.25160411 -0.012279582 -0.14728945 -0.29033932 0.40867648 -0.086084962 -0.058687374 -0.10640769 0.15913153 -0.033149056 0.057857472 -0.054250352 0.35392255 0.18849787 0.19556057 0.24509744 -0.06832011 -0.031939052 -0.1087494 0.17829332 -0.18386821 0.30003628 0.081149057 0.15639669 0.053102069 0.19961412 0.23761053 -0.086456724 0.058876701 0.021872576 -0.344594 -0.093349993 -0.10033729 0.2828891 0.1084116 0.20479247 0.064795271 0.24426122 0.073239699 0.11391369 -0.16048826 -0.29779112 -0.22159944 0.18955481 -0.099908449 -0.38264763 -0.11529028
org.apache.catalina.tribes.group.interceptors -0.12242881 0.077780694 0.19732468 -0.18504275 -0.17572807 0.36692339 -0.086952031 -0.090809532 -0.10012035 -0.01599334 -0.075940341 -0.069080733 -0.064778484 -0.25936916 0.062022638 0.044548627 -0.42855576 0.10872435 0.10863349 -0.33825237 0.11557122 0.33855426 -0.11078773 0.39323646 -0.052351043 -0.086432576 0.10749288 0.047954097 0.007827918 0.10986974 0.19674163 0.013867501 -0.0070131649 -0.19312696 0.00018669812 -0.070024259 -0.1751318 -0.29504812 0.038846303 0.031970918 0.21049662 0.038104299 0.00055418821 -0.094705582 -0.011615912 2.0469524e-06 0.050603349 0.10755419 -0.32937366 0.14536583 -0.13366909 0.072873242 -0.12730704 0.29079509 -0.17038126 0.12801459 -0.39847827 0.090925112 0.05741166 0.084142044 0.067221686 -0.095931776 0.27148697 0.2579293 -0.15109931 0.28462565 -0.11173185 -0.13814296 0.30638832 -0.015061063 -0.085622929 -0.069981456 -0.34821919 -0.13848467 0.11603613 0.19900773 0.12775657 -0.10655534 -0.20656486 -0.11058181 -0.038962319 -0.0016340854 -0.16521414 0.0022225701 -0.015835706 0.13187094 -0.084991008 -0.014097661 -0.03065701 -0.14123583 0.048255175 -0.00064974191 -0.088409357 -0.30732879 -0.051687989 0.23464689 -0.048250824 0.009425628 -0.17502856 0.01432643 -0.035503969 -0.26117757 -0.10690638 -0.11081524 0.42316946 0.20477043 0.2947312 -0.15025297 -0.24624759 0.21877474 0.055958919 -0.12707457 -0.41967356 -0.11801268 0.11011226 -0.17270876 0.39188784 0.32022643 -0.09769877 0.12959027 0.083725162 -0.12111582 -0.22371398 -0.11240331 0.046703883 0.056070667 -0.050563172 -0.062747635
websocket 0.12388253 0.1731234 -0.19089748 -0.059056927 -0.13367197 0.20615256 0.1198782 0.1031943 0.13596182 0.3877756 -0.51812923 0.29647762 0.25571892 -0.30397171 -0.19391274 -0.020704009 -0.26094031 0.10463233 -0.10727334 -0.44548345 0.068624169 0.2460905 -0.16048998 0.00027644658 0.083068304 -0.19210349 0.38075137 0.033520386 0.15981978 -0.251147 0.45624381 -0.49820739 0.076023728 -0.029506914 -0.1572054 0.087620556 0.20922446 -0.034805369 0.1560207 -0.089236625 0.030132294 0.050638251 0.004335742 0.13775326 -0.4696146 -0.025353625 0.074218795 -0.11443196 -0.35164002 0.16564952 -0.011810928 -0.089019939 0.059750032 0.010508877 -0.17037264 0.28720278 -0.13881712 0.30505869 -0.14799343 -0.075155526 0.10441713 -0.37603718 0.10030725 -0.026218195 -0.29882607 0.00056807348 0.13317035 0.072525732 -0.40772957 -0.41151237 0.18458237 0.0019227565 -0.12328361 0.34658003 0.20868123 -0.21808279 -0.15486643 -0.0064839618 0.089811347 0.17467663 0.12420904 0.076491266 0.049563751 -0.20072594 -0.11956754 0.45021179 -0.12002216 -0.0080759116 -0.033298422 0.11961895 -0.14194483 0.0457047 0.050784856 0.2852442 -0.25262392 0.097930163 0.22273177 -0.031972364 -0.013274319 0.089982249 0.23789266 -0.065411314 0.28606698 -0.007308735 0.1038624 0.083473153 0.12013619 0.18707356 0.063138492 0.048569914 -0.045017716 -0.086497962 0.12713081 -0.047507443 0.19053869 -0.0022065497 -0.010435855 0.18082012 0.23615758 -0.12260266 -0.031470411 -0.056185089 -0.26170284 -0.3235293 0.27885073 0.039824851 -0.088880323 -0.27965802
javax.persistence 0.32487124 0.086074427 -0.13028523 -0.066296078 0.34229016 -0.081050508 0.26929516 -0.147039 -0.12323171 -0.071183406 -0.33432978 0.060443889 0.31734961 0.20364588 -0.012107659 -0.27124017 0.11269385 -0.041789409 -0.19926216 -0.11899673 -0.01379204 0.27329919 0.032400224 -0.12750591 -0.28822857 0.10015091 0.25181341 -0.18082522 0.039657142 0.16391777 -0.046928614 0.28618324 0.033302862 -0.20417891 0.17425178 0.25926718 -0.23005623 -0.11204381 0.35912934 -0.21515827 0.0091850227 -0.1283419 0.13179037 0.13175988 -0.20402475 -0.39425942 0.37305057 -0.47642067 -0.23971209 -0.22053567 -0.45288536 0.32798031 -0.068742819 0.13809094 -0.061790105 -0.11419693 0.24240521 -0.25940669 -0.0063303607 -0.096777879 -0.37527969 -0.078539692 0.0474228 -0.4470908 -0.040964466 -0.086979814 -0.11717699 -0.29540628 -0.21527074 0.21243732 0.13950893 -0.61974746 -0.092384763 -0.37611818 0.16465285 0.23277566 -0.61048841 -0.0033601366 0.037413821 -0.60081446 0.33583426 0.2092402 -0.046228934 -0.008658831 -0.4971503 0.22543794 0.03357954 0.13808879 0.21664029 0.062262379 0.02136573 0.04702127 -0.36097255 0.1514679 -0.06722708 0.15105361 0.30724978 -0.27498144 0.083857469 0.74658138 -0.18269651 0.057412583 0.15214315 0.066535413 -0.24918459 -0.39168292 0.19628149 -0.05801915 -0.3525306 0.11643478 -0.36591303 0.84304094 -0.21691728 0.10226798 -0.35694298 -0.069671027 -0.11000498 -0.2793884 -0.15316702 0.084263213 0.13424002 -0.20483276 -0.11753364 -0.20379686 0.29405817 -0.14847274 -0.10793421 -0.56057304
org.apache.tomcat.util.http.fileupload.util 0.14916222 0.016556494 0.0043785488 -0.12155569 -0.038582753 0.28108847 0.078372784 -0.14266811 0.098383851 0.31872928 -0.33188438 0.2686784 0.1521225 -0.11776337 -0.13701929 -0.0058840876 -0.19392215 0.23162544 -0.21572614 -0.18366387 0.10744399 0.22580707 0.040401001 0.042663772 0.0094164731 -0.16168012 0.18605025 0.090138353 0.12141953 0.013077161 0.26061821 -0.1704714 0.052486598 -0.0053691883 -0.1193625 0.11120545 0.15538074 -0.0039399033 0.18197817 -0.064262033 -0.048630752 -0.30794024 0.090944864 0.15097761 -0.46320805 -0.049780086 0.16528234 0.0011614261 -0.29326585 0.30629385 -0.070296146 -0.15066798 -0.28725034 0.14604218 -0.26715711 0.28258577 -0.16577321 0.23579356 -0.1232843 -0.067992933 0.14647648 -0.35084167 0.084641032 0.013875362 -0.13417143 0.2881183 0.035475332 0.02462573 -0.14127332 -0.4851594 0.1126168 0.055719193 -0.15120631 0.1176783 0.15514688 -0.006968528 0.010180422 -0.29631156 0.070992164 0.026092645 0.12688258 -0.027452761 -0.0029796271 -0.0030105074 -0.28100246 0.49033004 -0.09859331 -0.02435858 0.18308687 0.02586605 0.0085385144 -0.020766513 0.17188051 0.18674363 0.0075579323 0.26553622 0.2759963 0.026543304 -0.092830352 -0.061517674 0.19238448 -0.15252149 0.011913606 0.090191141 -0.1136438 -0.031867038 0.12867385 0.061140914 0.16655071 -0.017880654 0.0012706001 -0.11154173 0.27742192 0.11497828 0.37015045 0.078798622 0.08066766 0.015021842 0.10728619 -0.16600393 -0.022265365 -0.14019254 -0.31666023 -0.17151617 0.074703574 -0.0012459419 -0.22189036 -0.074640088
jsp2.examples 0.29830518 -0.50953388 -0.68445742 -0.37920886 0.44153678 -0.55659205 0.39796656 -0.23524816 0.65260649 -0.62799221 -0.52407074 0.2057579 0.46028173 0.22451514 0.20781659 0.29421023 -0.21193554 0.33245847 -0.44926992 -0.31589296 -0.14545096 0.490825 -0.10534247 -0.057237711 -0.66130412 0.44700429 -0.0015110926 -0.034887366 0.54442668 -0.2966212 0.093977511 0.063359655 0.92658615 0.58351737 0.28742841 0.51294243 -0.23615062 0.63846111 0.37060359 -0.3767443 -0.91789567 0.022044186 0.27003527 -0.23428153 -0.87363309 -0.47000283 0.86417896 0.088137537 -0.71715564 -0.40458152 -0.1053235 0.47922915 -0.31727305 0.59057575 -0.58540237 -0.39262125 0.22585304 -0.059944462 0.17539771 0.26580185 -0.14390543 0.25735113 -0.75568271 -0.027496906 0.061204709 -0.80304271 0.40405238 -0.073946044 -0.31380656 -0.21626599 -0.22607175 0.52712846 0.16544184 -0.48054859 -0.36088392 0.20368467 -0.16958192 0.1086095 0.28671941 -0.30557418 -0.095943034 0.17527196 0.016840477 0.32666451 -0.69879246 0.44538629 -0.26481688 0.020629454 -0.27133745 0.3667987 -0.0041312915 0.54597616 0.0094223805 0.043491505 -0.046598841 0.34605592 0.3884154 -0.76290774 -0.29416934 0.62689066 0.020883439 -0.57618231 0.25115719 0.23869072 0.65569443 0.011503442 0.49200773 0.032502938 0.0009272141 0.66630316 0.1115794 0.39568582 0.021241909 0.13019635 -0.15082443 0.21919143 -0.57405144 0.30483249 0.16843207 -0.10437728 -0.1694397 -0.1394424 -0.66478747 -0.68356818 0.70957774 -0.99995553 -0.39104316 -0.46839505
org.apache.jasper.compiler.tagplugin 0.18596828 -0.53986949 -0.82257968 -0.33727035 0.34700722 -0.52671885 0.42810756 -0.073122747 0.67983395 -0.68479925 -0.56670642 0.31453288 0.36054096 0.28989616 0.085608706 0.2495196 -0.11663113 0.42114821 -0.35018542 -0.32691535 -0.12582943 0.6690138 -0.10039137 0.10440627 -0.57401425 0.48959419 0.048029691 -0.11930536 0.58825994 -0.32351875 0.031326368 0.0028165046 0.8846758 0.6610986 0.20732054 0.41542864 -0.19786173 0.49819943 0.47090259 -0.34737009 -0.99630105 -0.12698539 0.27481547 -0.20016626 -0.80735797 -0.45897514 0.826617 0.0087087341 -0.72069621 -0.54606962 -0.12040335 0.42318615 -0.334207 0.59024829 -0.60455328 -0.33818793 0.19699243 -0.12343331 0.17749642 0.34621045 -0.2215903 0.1887065 -0.7521795 -0.031775091 0.048040338 -0.98087925 0.41803965 -0.10798597 -0.26636046 -0.11953887 -0.22349523 0.52984035 0.28297037 -0.44224516 -0.34150541 0.16677594 -0.17293227 0.097105578 0.2250105 -0.3215476 -0.16152775 0.060543634 0.01782351 0.28439131 -0.61203879 0.41893283 -0.14217578 0.041963018 -0.24063925 0.30337116 0.036464348 0.54819721 -0.032797124 -0.061563291 -0.040586226 0.36221972 0.42757085 -0.78039759 -0.33094981 0.57672006 -0.018909536 -0.54557073 0.28209332 0.30974704 0.63675994 -0.0078406874 0.69677252 0.17830595 -0.19388896 0.66230369 0.092753559 0.26046497 0.062565297 0.036787421 -0.160313 0.20406207 -0.52967602 0.20413132 0.16270749 -0.040592268 -0.046218619 -0.22168866 -0.58724272 -0.64243019 0.64236265 -0.98120022 -0.3929987 -0.47041735
java.nio.channels.spi 0.23986754 -0.17313805 0.21851708 -0.062389292 0.23874536 0.51353246 -0.21461479 -0.31827897 0.13831598 0.42266884 -0.22666432 0.36413392 0.24613847 0.2376239 0.02697747 -0.11705219 0.029317603 0.12553059 -0.053541519 -0.090960681 0.12862894 -0.083833218 -0.0068838103 -0.21378201 -0.029069845 0.16834152 0.24647821 -0.054500051 0.03250917 -0.010879887 0.08912494 0.22333145 -0.13810875 -0.29554838 0.025243482 -0.093426116 -0.16899164 -0.22987331 0.12350924 -0.011841274 0.0053216568 -0.012898663 -0.084072493 0.08060541 0.083365269 -0.088160008 0.11407541 0.12296598 0.21821381 -0.041531999 -0.039816894 0.019645829 -0.13877206 0.096477933 0.1167799 -0.1250778 0.25283089 -0.20596939 0.20496292 -0.15912932 -0.083807997 -0.04807844 -0.24831708 -0.15612608 -0.30782005 -0.03789936 -0.020973662 0.013104576 -0.36896378 -0.36828658 -0.042020936 -0.08144258 -0.073486887 -0.032067608 -0.11702675 0.21028151 -0.089665778 0.13402319 0.32179755 -0.36165804 0.16697836 -0.052022308 0.27212635 -0.035917632 -0.17634945 0.2516163 0.072180457 0.28511477 -0.23195441 0.053688347 0.11288771 -0.049130205 -0.30641517 -0.21754356 -0.20730217 0.1602354 0.24289528 -0.30908921 -0.11334594 0.16767469 0.07063958 -0.033658404 0.11451267 -0.18129711 -0.35034487 0.044355366 0.12744051 -0.01430974 -0.0058040968 0.15691054 0.077699356 0.23170704 -0.058145478 0.16684906 0.27104697 0.10593617 0.25567722 0.0027212629 -0.22855304 -0.014816771 -0.18329583 0.037461944 -0.16275474 -0.010405905 0.18648887 0.10006778 -0.34630102 -0.059493426
compressionFilters 0.17092626 -0.11298645 0.057380263 -0.029704981 -0.080769695 0.2693961 0.068649188 -0.010449198 0.078347176 0.17141895 -0.54853314 0.20285521 0.34521279 -0.065052725 -0.16499777 -0.21878572 -0.042731408 0.20167525 -0.087514266 -0.13273446 0.019209312 0.02290068 0.10057992 0.0043595186 0.017732328 0.033828918 0.14005099 -0.034782469 -0.10311281 0.029212462 0.279401 -0.13228354 -0.13335316 -0.11852264 -0.0051189018 0.036760982 0.21300903 -0.042162534 0.08477439 -0.016530607 0.09748178 -0.29386258 0.027938105 0.097288504 -0.17997806 0.055744313 0.20914942 -0.0082628764 -0.20836265 0.26551369 0.072838932 -0.043963905 -0.23270367 0.14163342 -0.25294435 0.029567126 -0.043240499 0.15774977 -0.2705918 -0.050051458 0.055139448 -0.070990175 0.19691819 0.14278235 -0.13279621 0.25188318 0.0081173545 0.022651272 -0.16798833 -0.33205962 0.11781976 0.098440506 -0.1463602 0.15245254 0.25372711 -0.046072565 0.015684837 -0.1646 -0.063681886 -0.03183439 0.082537264 -0.10138125 -0.049199764 -0.079440624 -0.29730386 0.46636409 -0.17996161 -0.080556177 0.17192675 -0.1186143 -0.018599411 -0.026906746 -0.0079619726 0.2108061 -0.0078292312 0.21068059 0.055787396 -0.053463519 -0.10630724 -0.066415302 0.19295283 -0.033775341 -0.075226858 -0.0051117321 0.021720506 0.16700627 0.011446429 0.12084979 0.10501228 -0.010306094 0.049641982 -0.059287451 0.12578084 0.085732087 0.29313812 0.16310261 -0.025390483 -0.019490913 0.012955735 -0.036589723 0.0090885162 -0.12329629 -0.050190598 -0.072381303 0.20945454 -0.090389602 -0.22134717 -0.10208104
org.apache.catalina.tribes.util -0.0125702 0.09152244 -0.085733891 -0.10801618 0.039225511 0.58259523 -0.3130303 0.10257614 0.22252195 0.39799052 0.010855707 0.02130226 0.24069056 -0.20762384 0.043620158 -0.20931493 -0.30051753 -0.14591525 0.097667582 -0.35500354 -0.050263472 0.072316147 -0.02494091 0.0095100384 0.23583603 -0.060824066 -0.054093018 0.0903183 0.20767076 0.0010771399 -0.028682983 0.10694598 0.10935419 -0.054030139 0.10064087 0.089502737 -0.056253593 -0.089811683 -0.021594919 0.084956586 -0.024015041 -0.041872267 -0.042062212 0.19614364 -0.10424404 -0.21773902 0.14083356 -0.10165229 -0.22861943 0.20285289 -0.21751891 -0.086244784 -0.088992387 0.019700987 -0.24858917 0.19532205 -0.4395026 0.2571514 0.14371103 0.11700108 0.0726915 -0.10155658 0.10524417 0.10851721 -0.051670786 0.13088925 -0.074138567 -0.042124331 -0.11048568 0.034592692 0.20696795 -0.041782662 -0.078269221 -0.14032838 -0.01607614 0.12312096 0.20761888 -0.12749816 -0.030527925 -0.16902934 0.14939193 0.13033226 -0.15174992 0.02629099 -0.13383251 0.25284767 -0.14004241 -0.11367735 0.034112263 -0.22366472 -0.10016806 0.050721258 0.01104906 -0.28721505 -0.021104934 0.16803072 -0.058855034 -0.17931412 -0.015644917 0.069430873 0.18333334 -0.0071581374 -0.14883928 0.019305348 0.10235099 -0.2063513 0.049641427 -0.42670619 -0.089056782 0.084002741 0.027383277 0.11681512 -0.19880517 0.06887386 0.19360867 -0.069192886 0.4084397 0.085229509 -0.19618507 -0.012847165 0.27758059 -0.37680113 -0.18104166 0.017163664 -0.11754733 -0.20510705 -0.015723595 0.025049476
org.apache.tomcat.util.net.jsse -0.079030499 0.036756933 0.22042717 -0.077957861 -0.091370836 0.091540202 -0.097741961 -0.056627646 -0.041594099 -0.035028528 -0.12583427 -0.046847075 0.11145838 -0.18640223 0.013525552 0.036079001 -0.33218166 0.14298087 0.010875826 -0.14979109 0.12712835 0.22949915 0.091745578 0.265046 -0.091760173 -0.10432699 0.12016609 0.053416017 0.037640188 0.041032542 0.1781413 -0.065754093 -0.11550302 -0.16894467 0.084774636 0.069298893 -0.21428187 -0.17952937 -0.07723292 0.044382337 0.28500348 0.10421002 0.0011264093 -0.21102856 0.26911768 0.066452049 -0.036446538 0.085470751 -0.063635014 0.11833338 -0.29342693 0.1830208 -0.38289949 0.23990357 0.01301079 0.20213012 -0.12941626 0.12852265 -0.17041917 0.043631952 0.23660725 -0.068775363 0.37541696 0.15763308 0.0029449745 0.2278221 0.037901264 -0.031445336 0.097019859 -0.075293556 -0.035557181 -0.23837368 -0.1969451 0.00010271238 -0.014487422 0.18573646 0.05593884 -0.12198767 -0.069335572 -0.011829064 0.0093611619 0.025248276 -0.16128722 -0.015336296 -0.033794541 0.15773508 -0.18612206 -0.0013602157 -0.098810285 -0.10807928 -0.065659314 0.076229528 -0.06684304 -0.30099317 -0.11592298 0.46239108 -0.11782316 -0.004375767 -0.0085623218 0.19342029 0.042854659 -0.26466396 -0.15422712 -0.19397722 0.32816306 0.21835531 0.1442256 -0.14756493 -0.090337329 0.30157083 0.077203698 -0.082206756 -0.092301406 -0.17904969 0.12589455 -0.14717771 0.19421391 0.20052366 -0.18647566 -0.016997408 -0.0068592369 -0.21685109 -0.053671218 -0.16689271 -0.10387385 0.029727275 0.061937176 -0.20667705
org.apache.tomcat.buildutil 0.50944448 0.27790156 -0.29406074 0.27768615 -0.39457029 -0.43171218 -0.18635032 -0.41831961 -0.026452584 0.11541385 -0.65512425 0.39671874 0.48131928 0.010427275 0.0044443407 -0.23311099 0.15143691 0.37857687 -0.06326098 -0.2388943 -0.17338553 0.30922198 0.23997869 0.54689288 -0.34378356 0.19303299 0.76486272 -0.55265719 -0.30926231 0.64341474 0.18014348 0.31633571 0.2381117 -0.072873153 0.32340407 -0.015268344 -0.17082602 -0.39480034 -0.083184145 -0.10264639 -0.1209195 -0.40627176 -0.075237043 -0.089697272 -0.35222462 -0.22133745 0.67193311 -0.25798687 -0.63030374 0.076381825 -0.31085613 0.62715948 0.017103735 0.47304857 -0.69819099 0.038791236 0.16211279 -0.19472392 -0.32981476 0.1755134 -1.099861 -0.11617241 0.13086446 -0.17016508 -0.16562471 -0.34461877 0.23091792 -0.45013505 -0.57204616 0.29003599 0.23586333 -0.39602372 0.26754227 0.38937649 0.063004248 0.2396114 -0.79637414 -0.37693331 0.19177499 -0.081601754 -0.067030132 0.50097424 0.21333842 -0.28195533 -0.29994297 -0.29183522 -0.26885587 0.085605472 -0.0614071 -0.60952049 -0.26564717 0.087861605 0.077730037 -0.13171852 0.22741359 0.058744248 -0.20532009 -0.35731471 0.45546702 0.57915133 -0.28976342 0.3138296 0.15068232 0.10096063 0.011497723 -0.65021998 0.31719291 -0.050554872 -0.18011791 0.14133522 -0.12407926 0.67272741 -0.59327352 -0.038948823 -0.092450507 -0.35203251 0.43620139 -0.39345524 -0.032860816 -0.14245738 0.532134 -0.10766614 0.33178812 -0.51058394 0.47338548 -0.30892625 0.17749414 -0.4347519
org.apache.catalina.tribes.membership -0.0043360339 -0.10660285 0.060896263 -0.079341173 -0.1460238 0.43514904 -0.089306816 -0.064174712 0.1250663 0.37032205 -0.13016045 -0.16706787 0.026217211 -0.11044937 -0.033165582 -0.084619381 -0.34677014 -0.20734279 0.08054357 -0.35833558 -0.11612594 0.03845311 -0.067088358 0.13566455 0.15961817 -0.018403651 -0.041928601 -0.067489706 0.35158676 0.0010942281 0.10125523 -0.07256829 -0.060876425 -0.017594447 0.044912618 0.11564883 -0.18442103 -0.21249436 -0.086725183 0.0016202433 0.16087015 -0.073019058 -0.16412559 0.0078684902 0.023038954 -0.21908966 0.0079961019 0.063675009 -0.10344727 0.11699462 -0.31572428 0.11152862 -0.18830292 0.11073002 -0.33429885 0.18312633 -0.46438146 0.30054408 0.07137686 0.2613554 0.14337806 -0.086547457 0.027828857 0.3055971 -0.10100292 0.11140584 -0.09077765 0.069368549 -0.12097192 0.064141087 0.24497963 -0.013583581 -0.15049358 -0.21747528 -0.10536794 0.3220641 0.2654402 -0.024260804 -0.02895752 -0.13281289 0.043349095 0.042353831 -0.056783102 -0.17361915 -0.15128468 0.17481428 -0.095850006 0.0032796117 0.029121738 -0.18030997 0.10841505 0.15768726 -0.0046992092 -0.31552801 -0.095659755 0.22726671 -0.021318952 -0.18851827 0.056012485 0.059812754 -0.0050700158 0.030485455 -0.12710014 -0.025572598 0.17468156 -0.12021134 0.0973389 -0.33441761 -0.16991609 0.091930687 0.12340447 -0.077515826 -0.15546291 -0.085830986 0.066396356 -0.097855166 0.30632502 0.01924626 -0.21119945 0.082966857 0.21473451 -0.33193806 -0.17294686 0.0051980051 0.0089350194 -0.20544951 -0.12032383 -0.1094006
javax.annotation 0.3700186 0.15620695 -0.18457109 0.041363936 0.26918611 -0.024393944 0.30105653 -0.12266122 -0.10265613 -0.075227045 -0.34819528 0.010964679 0.25197524 0.32297242 0.060229003 -0.22709654 0.062305555 -0.044013988 -0.18976806 -0.20654723 -0.054293029 0.22630511 -0.039172105 -0.067270949 -0.26154679 -0.083962031 0.15840741 -0.22948882 0.060723007 0.19799405 -0.0099747377 0.26018894 0.092515767 -0.11138687 0.14196064 0.1782431 -0.23733199 -0.16485545 0.32420415 -0.10811036 -0.01865077 -0.17554586 -0.0088538118 0.083660744 0.026251912 -0.32616207 0.30840629 -0.35892567 -0.32372814 -0.25673106 -0.46168178 0.35154366 -0.17886652 0.13027914 -0.02813874 -0.08218649 0.089145221 -0.19352116 0.096266769 -0.076970033 -0.32703605 0.016740421 0.11983472 -0.37807563 -0.036203135 -0.16913199 -0.13948308 -0.22711731 -0.32834017 0.18544877 0.11650316 -0.60507989 -0.022460673 -0.31547686 0.15426363 0.23617625 -0.62515014 0.20904134 0.1322429 -0.70471734 0.31829423 0.18060568 0.11846593 0.034709726 -0.39226332 0.30659679 0.020466737 0.1277065 0.175017 0.070581019 -0.018209253 0.032517236 -0.4515799 0.030029465 -0.086821295 0.12044682 0.41599253 -0.30405104 0.071377687 0.63918871 -0.18712778 0.023682769 0.22366773 0.12383736 -0.41569591 -0.44580022 0.18548609 0.12218924 -0.30554876 -0.052386288 -0.36462083 0.76920646 -0.20457806 -0.0090602729 -0.22907723 -0.10184029 -0.038563564 -0.11729931 -0.24322821 0.18187627 0.21832006 -0.041059829 -0.074942708 -0.044779453 0.42807406 -0.19739251 -0.04033491 -0.61302137
num 0.49678606 0.2712549 -0.21035473 0.35156894 -0.30842847 -0.44150716 -0.0018503477 -0.40564215 -0.037333522 0.12879092 -0.59742773 0.43805707 0.412413 -0.046252936 -0.053921707 -0.26195401 0.14887623 0.36198571 -0.093841292 -0.18732987 -0.19272415 0.27652442 0.22968358 0.52916861 -0.35683852 0.065714225 0.69132882 -0.58546644 -0.33637497 0.56935692 0.13029835 0.32308206 0.19650334 -0.13947327 0.35699403 -0.076215439 -0.052685931 -0.46173248 -0.086055778 -0.046911083 0.045842469 -0.45343363 -0.044337749 -0.072983786 -0.47415364 -0.19400679 0.74688816 -0.1863908 -0.57049209 0.0087869512 -0.17139168 0.57243162 0.15345609 0.509561 -0.75495076 0.03546536 0.2521472 -0.19340265 -0.35186002 0.22014289 -1.1662868 -0.12794363 0.020409405 -0.28212953 -0.12294094 -0.34906524 0.19376285 -0.42973804 -0.62093055 0.2635681 0.2527968 -0.39393118 0.23085415 0.40401596 0.044814691 0.28118294 -0.65665913 -0.34406069 0.17571734 -0.061929841 0.014975703 0.34687987 0.26967293 -0.32349026 -0.21740776 -0.34544739 -0.19874804 0.13668908 -0.15196006 -0.55064893 -0.13115595 0.038972437 0.13238662 -0.14528644 0.17949621 0.012104314 -0.13767374 -0.4062781 0.41604733 0.68664521 -0.28384417 0.26460823 0.17638046 0.017833797 -0.00800821 -0.54261184 0.36397126 -0.026478004 -0.14484252 0.18844543 -0.10546109 0.76484239 -0.63274574 -0.13891675 -0.042231832 -0.37988764 0.47927833 -0.31916502 -0.14831069 -0.16849867 0.44012931 -0.06044459 0.25130805 -0.55402213 0.50105572 -0.31232572 0.1802281 -0.37634918
org.apache.el 0.1427319 0.062210869 -0.083144672 -0.049556158 -0.09158764 0.22450687 0.10903417 -0.070667922 0.14479902 0.19944073 -0.2718142 0.29787269 0.086506173 -0.082523614 -0.22563282 0.11738496 -0.25571847 0.18376909 -0.19031233 -0.081915587 0.080483042 0.09937378 0.110267 -0.002462138 0.11365761 -0.18661357 0.092215583 0.1296825 0.156358 -0.035737582 0.29709914 -0.05340869 -0.061663043 0.0026596684 -0.19820814 0.090542853 0.19197223 -0.052011151 0.17074788 0.14217629 -0.046463232 -0.36503735 0.12468901 0.17115481 -0.35515982 -0.10917397 0.086774848 0.0079272483 -0.28422657 0.095499739 -0.031462111 -0.19348215 -0.27340287 0.12388537 -0.11980827 0.27782485 -0.067185916 0.2036386 -0.059046019 0.062078137 0.058736496 -0.30605742 0.14108512 0.03836846 -0.21853873 0.28117964 0.03063843 -0.055142228 -0.21341696 -0.60035127 0.12262315 0.11091549 -0.10975738 0.14455436 0.20788197 0.026402593 0.046567909 -0.36326817 -0.039882097 -0.11253518 -0.0144082 -0.21155731 -0.030869419 -0.065988533 -0.34156212 0.53104627 -0.19795424 -0.084508918 0.12281466 0.059089419 -0.038515959 -0.017161518 0.10217022 0.11937613 -0.060574632 0.15258573 0.26367694 -0.088063106 -0.18055476 -0.02705081 0.20433073 -0.22101897 0.0012269879 0.21049637 -0.10551022 0.024706455 0.15315542 0.093447663 0.12241805 -0.019800173 -0.05824123 -0.10774743 0.15964031 -0.067793071 0.32419378 -0.038617827 0.087458067 0.019048171 0.04039824 -0.27272949 -0.018072251 -0.023738373 -0.2144542 -0.14315955 0.20510781 -0.0076792445 -0.13874397 -0.22881371
org.apache.catalina.security 0.026297465 -0.19006391 0.22103049 0.15469146 0.053706177 0.13838615 0.027049946 0.033714134 0.0089899786 0.015259607 -0.15665746 0.15084928 -0.1939155 -0.25501168 -0.22543375 0.16831018 -0.057917356 0.48578429 0.102786 -0.32883385 0.076894537 0.17414008 0.032691255 0.23063962 -0.059831873 -0.15847182 0.22489507 0.20892677 -0.12103556 -0.29134855 0.26004562 0.028354321 -0.41065443 -0.45313263 0.068683721 0.32248762 -0.13384862 -0.18600339 0.035317581 -0.061489098 0.10277373 0.015714891 0.086702012 -0.20918265 0.079527445 0.14497851 0.034005925 0.084547505 0.23853722 -0.18697308 -0.11491573 -0.12434203 -0.53760767 0.097609974 0.055150539 -0.13939011 0.18617804 0.1429936 -0.25343832 0.13267638 0.018618084 -0.085203528 -0.13476077 0.23693572 -0.087641075 -0.052200522 -0.10747366 -0.054207537 -0.12764771 -0.054670412 0.10611315 -0.34525049 0.16734804 0.048523199 0.01202949 0.37487102 0.0027344613 0.068275422 0.022814408 -0.32320845 0.16979785 -0.17380589 0.0044133342 0.11274212 0.24294196 0.11469101 0.18146926 0.27641115 0.042636126 -0.38416418 -0.17233837 0.018271368 -0.095044702 -0.12654436 -0.089800365 0.34732395 0.097359069 0.11243352 0.11564089 0.025170676 0.12816066 -0.15131924 0.17446931 -0.19843972 0.43445471 0.015474664 0.18401951 -0.084871545 -0.18602514 0.24557585 0.002715861 -0.22669686 -0.40806332 -0.16303487 0.10401546 -0.018097697 0.35457212 0.063004211 -0.092934832 -0.041133109 0.26778966 -0.35165969 0.16312279 -0.09349259 -0.34658006 -0.084164247 0.4000977 -0.20596303
java.nio.channels 0.12909149 -0.066284999 0.036626235 -0.0051666102 0.2426983 0.45089236 -0.25191739 -0.29503107 0.069628969 0.33460659 -0.19938123 0.32973784 0.2600266 0.31044707 0.040482081 -0.20989266 -0.0036601664 0.13081944 0.022748983 -0.095524304 0.052814364 -0.011680088 0.1743322 -0.13789406 0.080239289 0.051645629 0.22517157 -0.11421804 0.0010111156 0.11804724 0.025919041 0.157323 -0.076031655 -0.22945639 0.049002755 -0.095525339 -0.23516011 -0.2317481 0.082181484 0.13731952 -0.041446622 -0.064520486 0.06756638 0.11770978 0.098646782 0.077913396 0.1063403 0.08864183 0.2030673 -0.0092219971 -0.047284689 0.076324135 -0.30320951 0.11360046 0.097447552 -0.18804708 0.21587218 -0.023908071 0.14435048 -0.094461471 -0.052748829 0.14724085 -0.24973178 -0.0097352797 -0.27939871 -0.058638588 0.00018002234 -0.031916115 -0.37243634 -0.37649918 -0.075261571 -0.067534462 -0.10490818 0.010494545 -0.037792698 0.095125534 0.019619975 0.058312867 0.15320183 -0.29093105 0.11115538 -0.095429406 0.36783901 -0.038461387 -0.14927669 0.19121462 0.00058414391 0.16865978 -0.233179 0.11184739 0.11445829 -0.023934396 -0.21789232 -0.25020212 -0.17937313 0.26152796 0.30032185 -0.29430357 -0.11580366 0.12197436 0.045243688 -0.10012892 0.12741284 -0.10788078 -0.28875259 0.069103934 0.13511305 0.060038108 0.0055703516 0.15655772 -0.064549819 0.21419406 0.068882242 -0.021033365 0.22408658 -0.0058594965 0.17123862 0.062737636 -0.21336164 -0.095054299 -0.22209835 0.092281461 -0.079228118 -0.10370871 0.075792357 0.038546182 -0.26391473 0.017807903
org.apache.catalina.tribes.group -0.29286173 0.12752771 0.18257436 -0.28270927 -0.14772202 0.3887926 0.03242889 -0.067134574 -0.18721493 0.034948345 -0.022850644 -0.066754207 -0.051469017 -0.15206423 0.10204607 -0.05781544 -0.52375734 0.025639387 -0.06950102 -0.43832245 0.15840672 0.39535773 0.016811898 0.40455732 0.1192297 -0.15131529 0.060042262 0.0046745553 0.13462339 0.019517941 0.1860244 -0.066790514 0.022373395 -0.19454001 0.06478481 -0.067781389 -0.12318665 -0.37829465 0.022690875 0.13986309 0.21519333 -0.019118935 0.040408839 -0.0057462757 -0.048702102 -0.0037032051 0.10907909 0.041100506 -0.20415014 0.16475411 -0.3332828 0.17045945 -0.13961942 0.23696931 -0.046835169 0.23167582 -0.37221971 -0.0085800029 -0.017804611 -0.038910195 -0.011577375 -0.17312978 0.19177452 0.28768092 -0.11217725 0.11391419 0.015541521 -0.059957799 0.10993907 0.075074017 0.056357779 -0.10253503 -0.34789926 -0.095174842 0.15191671 0.22799177 0.16246763 -0.15900008 -0.23869337 -0.24601673 -0.036571689 0.18333158 -0.059914779 -0.092217341 0.083487079 0.039650951 -0.20138279 -0.0149883 -0.084618106 -0.23460732 0.042197011 0.015161164 -0.13968922 -0.28321868 -0.051140126 0.25662163 -0.053271979 0.072810858 -0.23130696 -0.027260916 -0.0024598886 -0.22471003 -0.099214375 -0.14165188 0.47915715 0.1003335 0.27138633 -0.19303897 -0.29194337 0.27949005 0.080610134 -0.29703501 -0.33262473 0.028315451 0.10094792 -0.13241918 0.5077033 0.25788403 -0.11940145 0.10616546 0.00062890811 -0.21699277 -0.36856639 -0.11212759 0.023535009 -0.011781487 -0.18214095 -0.084569722
. 0.15224747 -0.21615151 0.10003932 0.030836275 0.12954913 0.02049735 -0.093465932 -0.024342889 0.091217101 0.39489138 -0.6896022 0.27485496 0.61689454 -0.06036137 -0.2526378 -0.11931996 -0.0059603611 0.25889322 -0.29759896 -0.084275872 -0.14741841 0.18707317 0.31407565 0.049834151 0.094113335 -0.072263449 0.036273561 0.0046447008 0.23773149 0.00092897791 0.29631415 -0.030625369 -0.011146845 -0.077168874 -0.14310674 -0.067311086 0.3069723 0.2138094 0.31812656 0.10794425 0.44811231 -0.32973808 -0.15570313 -0.16209015 -0.13523197 0.15220243 0.1230157 0.16761838 -0.039372899 0.28426275 0.23451267 0.1834906 -0.24215305 0.031885166 -0.27146763 0.20154803 -0.012257318 0.075308412 -0.20613983 0.086493827 -0.074010327 -0.077392019 0.038539521 -0.13928469 -0.036903363 0.26202148 0.12060581 -0.014975377 -0.065742746 -0.31342316 0.31167817 0.15080579 -0.3169564 -0.0880941 0.21218152 0.019216178 0.1288221 -0.036151104 -0.077829592 -0.11475535 -0.18807025 -0.15284276 -0.16276993 0.09278848 0.11673926 0.35494006 -0.19546589 -0.15851861 0.29807448 -0.23475139 -0.081083767 0.12252384 -0.041462757 0.30671635 -0.22346684 0.16765654 -0.18510693 0.072405688 -0.028835988 -0.34931222 0.15789144 0.15545338 -0.34031618 -0.10264209 0.17869911 0.19384119 0.031395741 0.037317354 0.0027692157 0.11947075 0.070133023 -0.1128917 -0.0063404073 -0.10001055 0.18684672 0.06280724 0.1400031 -0.02750268 -0.26861668 0.029537639 0.12344284 -0.32075033 -0.04339217 -0.048299514 0.22460359 -0.071277834 -0.011991854 -0.28871894
org.apache.tomcat.util.modeler -0.049435508 -0.23461238 0.14786507 0.0018976564 -0.34711161 -0.0054471381 -0.32527015 -0.11430366 -0.011300338 -0.078718252 -0.13683575 0.056240316 -0.085199244 -0.18863559 0.084784806 -0.056983478 -0.032871407 0.25197363 0.14899723 -0.016812705 0.062369902 0.12017092 -0.058626186 0.061319489 -0.10524321 -0.026588036 -0.034135047 -0.03659508 -0.19304676 -0.24542439 0.10577979 -0.031285033 -0.019001894 -0.2061104 0.034439594 0.14149252 -0.139513 -0.10704564 0.010087212 -0.057374429 -0.17738314 0.32931563 0.053436629 -0.067798898 0.10663495 0.048204515 -0.051852625 0.15968806 0.094429389 -0.098959573 -0.36479148 0.12448807 -0.23044704 0.11875291 0.21089816 -0.24096067 0.010365567 0.14043969 -0.28991893 -0.036774151 0.15104659 -0.15106367 0.36329922 -0.027025891 -0.049757786 0.3429153 -0.1256388 0.047751699 0.032269746 -0.036192048 0.11221565 -0.22769855 -0.15140624 -0.053795673 0.084578916 0.29830328 0.1177099 -0.029576406 -0.10952896 -0.16694687 -0.093032643 -0.1430279 -0.036585346 0.029185824 -0.023244789 0.1750859 -0.20735441 -0.12171441 0.17855443 -0.33768812 0.099238895 -0.078949332 -0.19064181 -0.23891151 -0.33236715 0.20048678 0.16036691 -0.066721462 0.01935423 0.13203016 0.10327861 -0.057328526 -0.038678944 -0.096761718 0.23361455 0.28506717 0.14540137 -0.0030675828 -0.17879966 0.3876088 -0.20330501 -0.29605237 -0.18430197 -0.26900324 0.10441121 -0.34512332 0.1278441 0.28089622 -0.069699742 -0.045857653 0.098457411 -0.27312493 -0.13079737 -0.17866011 -0.041919168 0.0271072 0.090602957 -0.23518994
org.apache.jasper.servlet 0.38869548 0.30150968 -0.046911247 0.011843801 0.14450555 0.25367892 -0.027388746 -0.35960492 0.2263796 0.22255361 0.041798294 0.053819031 0.10308211 -0.34123924 -0.06738013 0.01544809 -0.5175637 0.067238659 0.095719382 -0.078864038 0.12438293 0.07951583 0.15829627 0.25689524 0.03360039 -0.11258863 -0.17615065 0.051405631 -0.09776777 0.052205738 -0.072257407 -0.07670445 0.048619412 -0.1454494 0.1029362 0.19094585 -0.41400281 -0.08029864 0.11410162 0.091550216 0.21876562 -0.19374992 -0.043866713 -0.29194415 0.0084120082 -0.17126334 -0.11313076 0.054540932 -0.098787382 0.0069719814 -0.45528004 -0.097191833 0.087123729 0.10698489 -0.052602634 0.56523746 0.021265905 0.035638638 -0.28973508 0.20248525 0.12810908 -0.14403658 0.24432118 0.27889109 0.1780626 0.2931729 -0.23048721 0.13044795 0.041426111 -0.15985897 0.05852437 -0.025171762 0.12800017 -0.12393908 0.022364607 0.38800791 0.45837384 0.15880428 -0.16595176 -0.1498919 -0.14027128 -0.2954967 -0.1774393 -0.016673293 -0.061808441 0.19278681 -0.26770884 -0.14392023 -0.14323168 -0.28183407 0.028377473 0.16428941 -0.0068767541 -0.36422402 -0.21756895 0.10034097 -0.21765243 -0.21885894 0.12060541 0.20635822 0.0035017468 -0.33548811 -0.20277739 -0.2212308 0.34445223 0.32092875 -0.013044788 0.10708319 -0.23280358 0.30746573 -0.035689998 -0.30203372 -0.13414381 -0.31063038 0.023768961 -0.17874992 0.20421466 0.2345403 0.031323299 -0.08940468 0.23414558 -0.20526452 -0.28987637 -0.1826341 0.013897422 -0.19903466 0.12288859 -0.32737914
org.apache.catalina.tribes.transport.bio.util 0.15308452 -0.03591489 -0.23017704 -0.20797072 -0.16116181 0.46455407 -0.15895106 0.0021524685 0.29935858 0.21467026 -0.2242893 0.053026043 0.14055745 -0.18653224 -0.12549028 -0.29233742 -0.24929264 -0.042553157 0.22403336 -0.2620469 -0.078595698 0.17195302 -0.023849882 -0.12115075 0.21328333 -0.18436475 0.092670903 0.15790863 0.16696845 0.0092114024 0.066869557 0.055929374 -0.007667487 -0.088708259 -0.015959179 -0.0041374532 -0.071279675 -0.039688628 0.071408972 -0.032750852 -0.1001161 -0.20576383 -0.08049868 0.10419489 -0.33243388 -0.13437557 0.092670329 -0.13606542 -0.32323474 0.25806782 -0.17504679 -0.19145755 -0.24753278 -0.13564438 -0.26777437 0.18440031 -0.34191483 0.30068386 0.16991907 0.14089106 0.071315043 -0.058846269 -0.016472043 0.1406056 -0.025937306 0.16036506 0.10381641 0.14247595 0.16036002 -0.11596671 0.26536155 0.15360236 -0.041528273 -0.06091306 -0.10409762 0.034951881 0.14681838 -0.22386374 -0.10570761 -0.1028972 0.095730796 0.0013311916 -0.34729409 -0.034658059 -0.19822134 0.31670758 -0.04897448 0.055029377 0.050970934 -0.22184597 -0.08078339 -0.014732284 0.069209188 0.076937005 -0.0508155 0.38466525 -0.027419938 -0.10319842 -0.011000229 0.0026627663 0.17269008 -0.047857519 -0.049862709 0.024940908 0.0621778 -0.18339673 0.051729847 -0.16916156 -0.11172511 -0.03311358 0.095070072 0.02511733 -0.067468129 0.03277684 0.26674727 -0.091946907 0.48192972 -0.01560754 -0.22512852 0.037090715 0.140606 -0.17653055 -0.12306309 -0.01430783 0.12122435 0.03439888 -0.12588577 -0.13267905
org.apache.catalina.ha.context 0.10203306 -0.026055176 0.14929925 -0.039327379 0.08722806 0.022501053 -0.039474849 -0.041918769 -0.070974417 -0.094802476 -0.17796379 -0.068298005 -0.033969115 -0.063875139 0.0088100079 -0.0092603602 -0.19359034 0.075759441 -0.05709824 -0.27370989 0.11275633 0.015034608 0.11386725 0.15432486 -0.2212225 -0.13559622 0.12882569 -0.068954833 -0.15258655 -0.030702397 0.063824587 0.052037556 -0.12101892 -0.35112181 -0.042970754 0.158775 -0.12396942 -0.043041356 0.021140326 -0.2101841 -0.0074490206 -0.03849839 -0.057581894 -0.076050229 0.089821175 0.1173539 -0.074872598 0.26917177 0.026138304 -0.048384186 -0.20897907 -0.050059378 -0.3593297 0.081630252 0.076403275 -0.17757542 -0.045666248 0.14789003 -0.25631067 0.013542203 0.21870407 0.01955794 0.242108 0.20044693 0.028672397 0.14605112 0.035611164 0.12261622 -0.056979731 -0.24715795 0.053610668 -0.058245156 -0.11404964 -0.011901057 0.048896518 0.29198006 0.18728916 0.037960041 0.014187923 -0.12806578 0.29069874 -0.14146622 -0.081522122 -0.087970987 0.095317297 0.0093605388 0.16723901 0.18966238 -0.03956376 -0.16246125 0.026478419 0.10846521 0.097680539 -0.15499543 -0.14018266 0.49332777 0.053952731 -0.055972759 -0.035773672 0.12823065 0.11020954 -0.089776449 0.16039005 -0.19232996 0.19549538 0.18254696 0.045032691 0.08778441 -0.098632507 0.17362753 0.048464902 -0.075448513 -0.1996378 -0.09902826 -0.0046894103 -0.18083212 0.24712096 0.30272892 -0.24234608 0.090880796 0.033125877 -0.1469547 0.0797133 -0.012185536 -0.099057615 -0.025807992 0.176745 -0.09670347
org.apache.catalina.ant.jmx 0.22501747 0.028805451 -0.018550167 -0.12713529 0.031432386 0.27068231 -0.07430996 -0.059927717 0.031174051 0.25828257 -0.39624113 0.27210283 0.23237756 0.0079839481 -0.28677708 -0.039066009 -0.076956816 0.16032708 -0.31542563 -0.14240739 0.11180337 0.12098105 0.16653188 -0.091544531 0.00072565116 -0.0060254391 0.11511207 0.075185701 0.10211668 0.058378626 0.21178149 0.011180242 0.051861119 -0.034090564 -0.17835146 0.1474902 0.18977179 0.06224728 0.1924897 0.057459828 0.066497006 -0.14564444 0.13203084 0.14655662 -0.28371361 -0.065924965 0.23970544 0.051944282 -0.1546118 0.21798134 -0.0048215971 -0.1701735 -0.21805981 0.16001602 -0.069047473 0.15185781 -0.1162828 0.28615069 -0.084693052 0.10029534 0.0094722575 -0.20770462 0.067528121 0.22173022 -0.1227541 0.24071763 -0.064222038 -0.08250384 -0.30808353 -0.43700868 0.14444964 0.12737767 -0.11801373 0.10444711 0.30571204 0.033234444 0.041504748 -0.2528463 -0.093146205 -0.075838268 0.019682249 -0.051909175 -0.013283572 -0.048909016 -0.17019753 0.43224233 -0.1151296 -0.10499795 0.2803672 -0.11174772 0.052756436 -0.042352658 -0.046256315 0.1501009 -0.068080269 0.14977223 0.15115686 0.026464216 -0.13308898 -0.080105469 0.11696507 -0.080185063 -0.045088787 0.16527797 0.043225419 0.10374244 0.1187232 0.1007161 0.064967945 0.034120504 0.05946251 -0.14795613 0.069109723 0.16546321 0.085374892 -0.0085009206 -0.0081490437 0.00045295543 0.059180532 -0.083450042 -0.052489396 -0.12305845 -0.11180589 -0.11867507 0.13893914 -0.086568326 -0.066080861 -0.051694229
org.apache.jasper.security 0.056999031 -0.11342233 0.030799791 -0.16889033 0.077015705 0.51482612 -0.18499887 0.01027935 0.2430363 0.37431121 -0.22865702 0.063270897 0.26812598 -0.24563555 -0.10460658 -0.26061586 -0.26366103 -0.016586307 0.17426418 -0.21636857 0.015038975 0.11885635 -0.01395469 -0.13698597 0.11034189 -0.12202501 -0.10124823 0.11242475 0.15554921 0.035656419 0.13179117 -0.0017922025 0.058605503 0.0015325415 0.010209202 -0.0563148 -0.16373001 -0.093942516 0.11505265 -0.056889959 -0.013595825 -0.16862069 -0.093695827 0.028370276 -0.12358626 -0.10258408 -0.023935059 -0.028896343 -0.16177931 0.28921726 -0.06409137 -0.046282206 -0.23091443 0.1086093 -0.16994369 0.17585313 -0.21884687 0.33145308 -0.014544268 0.20535854 -0.024380295 -0.050350424 0.038388617 0.2951211 -0.10510389 0.13013044 -0.052868985 0.14081071 0.032916404 -0.15624583 0.1625585 0.03099676 -0.10361576 -0.07206057 -0.13961594 0.10832616 0.082596615 -0.074025683 0.14736648 -0.0049784514 0.033825021 0.075056434 -0.20950304 0.056407541 -0.15992406 0.23821111 0.030018143 0.04443844 0.04427797 -0.018654002 -0.10423782 -0.071705014 0.040618207 0.16886453 0.097153358 0.27163655 0.023555774 -0.24980071 0.015581491 0.035543714 0.037999861 -0.088040881 -0.20583478 -0.088054992 0.0078887707 -0.12946571 0.094814777 -0.17802173 -0.06659621 -0.076810494 0.09535335 0.033479705 -0.13930008 -0.075574853 0.20537731 -0.17631195 0.34783137 -0.094802953 -0.26232111 0.10740978 0.18803233 -0.26615718 -0.15521388 0.12049864 0.015588541 0.059417762 -0.050319403 -0.20875062
chat 0.33439979 -0.23439512 0.00092965516 -0.0021897221 0.12986249 0.15141986 -0.14365917 -0.02529631 0.13152473 0.41256639 -0.82775468 0.31489399 0.64570779 0.11637393 -0.1906141 -0.034175593 0.14503773 0.2507745 -0.34556955 -0.096451312 -0.063674152 0.12429304 0.40767568 0.072544441 0.039985996 0.084082909 0.18683098 0.017131615 0.29070055 0.018263608 0.33656034 0.1127694 0.012927131 -0.051340263 -0.087363653 -0.063427053 0.33325288 0.1389282 0.27715591 0.16994293 0.33286825 -0.19549464 -0.15506357 -0.21043131 -0.11799075 0.10572641 0.19492832 0.098508216 -0.0049032983 0.19992347 0.18577814 0.12020777 -0.16054207 0.089774542 -0.15602839 0.28023261 0.068994589 -0.0023666762 -0.24439657 0.10960839 -0.101997 -0.2430813 0.1491527 0.014784121 -0.038665749 0.31449935 0.081165038 0.0045233229 -0.071349628 -0.29418239 0.29721019 0.16445377 -0.25817659 -0.1071023 0.25626072 0.15419331 0.19189504 -0.13563283 -0.16885251 -0.062460508 -0.21752839 -0.15638314 -0.11014107 0.13869943 0.11416778 0.26883423 -0.24977291 -0.12886398 0.26135927 -0.25825119 0.0066216663 0.1029047 -0.10688033 0.21658938 -0.15747178 0.22856931 -0.27271512 0.083642654 0.0073765912 -0.27396619 0.19301073 0.0601414 -0.37803644 -0.12867239 0.27226469 0.11386341 0.0066701416 0.045714833 -0.012386913 0.13665244 0.18273887 -0.17498168 -0.08039736 -0.10208514 -0.042058811 -0.037724677 0.051631138 -0.0047540073 -0.1792735 -0.032986399 0.037362389 -0.3436577 -0.021783756 0.061354794 0.24378361 -0.065427013 -0.047382914 -0.19404598
org.apache.catalina.tribes.io -0.12376095 0.086981729 0.14065757 -0.18754809 -0.056926914 0.2557286 0.012303097 0.02325253 -0.13163559 0.14982644 -0.085478693 -0.049259126 -0.030960325 -0.24391606 0.02108172 0.061367705 -0.45319465 0.087007195 0.026273014 -0.31796432 0.099801503 0.30762061 -0.053011317 0.39202461 -0.022161279 -0.051473577 -0.076401919 0.097975321 0.11036168 0.048222173 0.057044905 -0.074985877 0.0056497655 -0.1665425 0.023133971 -0.10851225 -0.15636337 -0.37398458 0.074507758 0.062555999 0.28950074 0.0059216241 -0.044124484 -0.14026606 0.047843166 -0.0087541835 -0.0028416479 0.22721305 -0.16092806 0.10845309 -0.24560162 0.038521662 -0.19996813 0.20287199 -0.04912601 0.20896812 -0.42898607 0.12688367 -0.057435621 0.054483999 0.030886145 -0.18337943 0.29276115 0.31794858 -0.13643396 0.29005295 -0.073254563 -0.04230994 0.19251293 0.0097354166 0.00014092568 -0.079781093 -0.30043662 -0.16980189 0.085832603 0.40057299 0.20707239 -0.0088258851 -0.0495358 -0.21566533 0.019194929 0.027014479 -0.046558131 -0.016146122 0.080373719 0.14387287 -0.074792251 0.058880739 -0.019145804 -0.16737197 -0.0034444607 0.026814528 -0.07904239 -0.2577199 -0.040558495 0.17596103 -0.016203202 -0.072424635 -0.24138631 0.11126651 -0.1088784 -0.14157845 -0.011226398 -0.080420807 0.36722067 0.14917974 0.12416497 -0.22462475 -0.23704347 0.26997384 0.15363172 -0.084282957 -0.36633745 -0.02754188 0.11938456 -0.21400093 0.44653034 0.29455042 -0.18223263 0.16175497 0.13909762 -0.22529586 -0.15421319 -0.007811531 0.082219534 -0.020066479 -0.14378628 -0.064038239
org.apache.catalina.ha.backend 0.052341547 -0.086110428 -0.20765223 -0.0015941981 -0.0095410114 0.41496602 -0.057212573 0.01952192 0.154853 0.1399598 -0.4978919 -0.01210779 0.15228328 -0.06769871 0.035377275 -0.13464203 -0.23803663 0.18846475 0.4453423 -0.49323469 -0.0080886818 0.2145422 0.15930538 0.058017775 -0.012841657 -0.22363968 0.22063771 0.10189085 0.023935348 0.03720244 0.2014237 -0.11211583 0.22684456 0.10522015 0.17912479 -0.079625882 -0.18371208 0.17112619 0.2431529 -0.023608256 -0.14621127 -0.16394313 -0.030006113 -0.14132947 0.028623194 0.074337259 -0.083022378 0.24313775 0.040095881 -0.062780283 -0.067372657 0.2554172 -0.40186882 0.0052894568 -0.10636811 0.15640604 -0.077559292 0.19010082 -0.093536682 0.20594721 -0.028380934 -0.058373414 -0.046266165 0.31743318 -0.091144972 0.15877433 -0.1276703 -0.014775122 0.16031711 -0.099221542 0.30647543 0.060632341 0.0087085273 -0.23771918 -0.16324815 0.12132368 0.26983368 -0.14010565 0.066500321 -0.079121873 -0.090560935 -0.29435003 -0.11422382 0.086588256 0.10791432 0.12530763 0.099757329 0.063507542 0.14477718 -0.12924796 -0.10648473 0.011275209 0.054984301 -0.051153775 -0.096393354 0.2783671 0.069242626 -0.033362653 0.084172793 -0.20061038 0.077563472 -0.064085111 -0.2623235 -0.15528508 -0.026292155 -0.083388485 0.2161195 0.017863076 -0.072621174 -0.12530908 0.056704033 -0.051810898 -0.045248847 -0.13025011 0.082789384 -0.27298135 0.21335018 -0.064009987 -0.29019281 -0.088613555 0.21765622 -0.39819852 0.032375868 0.026950752 -0.25138637 -0.057641294 0.054134991 -0.21933144
org.apache.catalina.manager.host 0.25795719 -0.14927503 0.15145405 0.1755227 0.052880164 0.12773089 0.0066939583 -0.10470811 0.010115128 0.14377528 -0.083361886 0.10848584 -0.24161993 -0.15399227 -0.0074697742 0.28742543 0.095710672 0.47779113 0.06156126 -0.25870356 0.061194863 0.19642261 0.026649009 0.34353638 -0.024251167 -0.06508211 0.26333016 0.18853347 -0.031476397 -0.21459465 0.17047381 0.13081257 -0.46563879 -0.43618321 0.18293475 0.29264221 -0.068559907 -0.28883031 -0.01852531 -0.079185195 0.040620111 -0.029667515 0.073121816 -0.22949438 0.0675283 0.11046188 0.065096237 0.13732399 0.26522106 -0.17026146 -0.32216263 0.0065435576 -0.42584011 0.089451827 0.044524636 -0.11053329 0.15474737 -0.0024086449 -0.085666806 -0.024906084 0.065545298 -0.070129849 -0.091373205 0.12980135 -0.16944696 0.086327285 -0.12254252 0.11827417 -0.1967034 -0.22754586 0.052874263 -0.32970601 0.15362407 -0.15099131 -0.042788826 0.36116943 0.21436585 0.12051579 0.12375028 -0.29749581 0.19036566 -0.054843046 -0.053188819 0.14194071 0.30885088 0.098669812 0.2378422 0.12502185 0.056428406 -0.34860477 -0.21140271 0.10455935 -0.12492708 -0.10551237 -0.14617167 0.36965987 0.091172203 0.0022356138 0.044033583 0.0083247488 0.15981647 -0.064967126 0.053063888 -0.1764075 0.46541467 0.12951449 0.033962343 -0.17504078 -0.19723219 0.33393589 0.058646422 -0.28688255 -0.39498761 -0.21940522 -0.014067957 -0.077144518 0.22411415 0.14365326 0.036315039 -0.062665068 0.060443059 -0.2601085 0.023049667 0.06309817 -0.32254526 -0.046868119 0.20780881 0.061431099
org.apache.jasper 0.26250941 0.10312381 0.15589727 0.059027545 0.11214085 0.38109851 -0.078710034 -0.23824471 0.14702974 0.2798208 -0.068770312 0.033707529 0.17187691 -0.27963504 -0.03264682 0.10220109 -0.39382753 0.018111644 -0.091047384 -0.16910912 0.17561761 0.061439671 -0.070681512 0.1284866 -0.0011817929 0.016801164 -0.17124419 -0.09008275 0.021730002 0.054901313 -0.020216748 0.041973248 -0.055986155 -0.24803884 0.0085343299 0.13570783 -0.23539717 -0.079730317 0.106975 -0.012530125 0.12966067 -0.15528968 -0.13705671 -0.2428036 0.016354544 -0.062622353 -0.057294402 0.013397958 -0.1720082 -0.041008655 -0.27315801 0.012971519 -0.013820622 0.12357455 -0.055431027 0.39089504 -0.20718768 0.02991567 -0.13811181 0.20977178 -0.0072665596 -0.15404837 0.18880689 0.30671331 0.0081743887 0.27666944 -0.16153137 0.088382311 0.057513837 -0.13326044 0.17269103 -0.012831886 0.035442647 -0.0016855209 0.0062033911 0.31035316 0.46910223 0.13714424 -0.16934839 -0.054740425 -0.083483353 -0.20182343 -0.16960284 -0.11638954 -0.05065551 0.17130095 -0.11032934 -0.11337346 -0.17248774 -0.19464324 -0.11242219 0.2063719 0.089923225 -0.32108679 -0.14700176 0.14106461 -0.21214889 -0.29412785 0.067790553 0.074101143 0.037147507 -0.27716112 -0.22917117 -0.19947177 0.35552534 0.11716714 0.044163041 -0.14556222 -0.16704558 0.23200151 0.03198364 -0.24989998 -0.19943836 -0.14985761 0.050426926 -0.184269 0.28233913 0.017759064 -0.037934408 0.0070266174 0.2241637 -0.25876319 -0.30787036 -0.067299515 0.12287445 0.053059213 -0.02909172 -0.26087883
org.apache.tomcat.util.net 0.10215554 -0.22076137 0.15676898 -0.098588541 -0.1675373 -0.050400458 -0.21545675 -0.056641806 0.07973671 -0.11393607 -0.10231767 -0.040585794 0.035260856 -0.14745578 0.18230693 0.060508795 -0.12688111 0.11286563 0.16200183 -0.0055903541 0.080578424 0.033547148 0.16509789 0.1078945 -0.15420449 -0.046760272 0.040987696 0.16576679 -0.07501626 -0.02251612 0.14822465 0.019490959 -0.083674021 -0.2267637 -0.022446552 -0.020751311 0.10312222 -0.12954067 -0.12380984 -0.025664527 -0.0137936 0.2572659 -0.062537365 -0.18908332 0.15369497 0.035998181 -0.16008762 0.05588261 0.014981318 0.018917633 -0.59941065 0.21369556 -0.24827288 0.15443331 0.0088996235 -0.028802859 -0.021721683 0.12910588 -0.26243275 -0.06029756 0.16285378 -0.31029174 0.43379083 0.14231361 0.028772242 0.4035275 -0.10715727 -0.096708156 0.06032997 -0.17039394 -0.088971987 -0.22354071 -0.11887056 -0.011566534 0.0031641307 0.21447581 -0.00041234726 -0.066485681 0.11991463 -0.015022341 -0.0010203224 -0.031198323 -0.067381389 0.046516664 -0.088211134 0.18727115 -0.18721046 -0.092150621 0.053107951 -0.27815652 0.071002305 -0.15707719 -0.24039392 -0.22078557 -0.13017312 0.34707278 0.06157323 0.051880568 0.07985086 0.25334501 0.078893237 -0.20466863 -0.096042551 -0.27244678 0.17711692 0.19782275 0.16425882 -0.10170901 -0.16886379 0.47001815 -0.050051291 -0.13147379 -0.18456942 -0.31859872 -0.04065194 -0.23285025 0.28444955 0.20608494 -0.21522447 -0.16403389 0.0029966547 -0.36536288 -0.092033267 -0.23733641 -0.11751269 0.20192538 0.059054807 -0.24273299
org.apache.catalina.servlets 0.10311924 -0.17066114 0.22184037 0.16498274 -0.076214977 0.092026159 -0.044693537 0.059058469 -0.010168608 0.037915945 -0.2610372 0.015593567 -0.12140704 -0.23929487 -0.017196426 0.16998814 -0.011160387 0.2885685 -0.041387197 -0.29731247 -0.010529058 0.19241852 -0.1029307 0.2830534 -0.0030109999 -0.26565972 0.11539956 0.19056475 -0.083849393 -0.16947307 0.1414348 0.12462189 -0.3525005 -0.29741651 0.089992583 0.22068925 -0.13273644 -0.19683297 -0.13145065 -0.091459662 0.087159418 0.066884652 0.090235725 -0.27519488 0.13896762 0.12776633 -0.044294279 0.11096809 0.15271747 -0.15544808 -0.26646066 0.048825685 -0.46772066 0.087630764 0.11801777 -0.053924575 0.018724436 0.14218549 -0.074220419 0.18418378 0.14951387 -0.17535052 0.081173189 0.18367088 -0.14740138 0.10560012 -0.11770773 0.10204356 -0.13289692 -0.25662541 0.042769462 -0.23457168 0.073199458 -0.033503167 0.040210128 0.24132785 0.075380586 0.044333361 -0.065936074 -0.17618208 0.08896824 0.027936138 -0.15290469 0.092656739 0.21721701 0.1429341 0.16963986 0.034115341 0.056478288 -0.32368892 -0.18339941 0.10927903 -0.062601589 -0.33301318 -0.13504937 0.36239707 0.078376129 -0.076122224 0.016228329 0.16421095 0.12585464 -0.16821499 -0.027786359 -0.12719001 0.30581081 0.089712374 0.04698148 -0.077370785 -0.1760166 0.23672019 0.1063 -0.11182383 -0.37056005 -0.17293182 0.033294301 -0.09138184 0.2456194 0.13005929 -0.13582207 -0.0053086053 0.08014176 -0.30335191 0.095452078 -0.0091149788 -0.16328125 -0.015123382 0.1661118 -0.056605596
org.apache.tomcat 0.11717762 -0.13708334 0.02462999 -0.0066553061 0.36016637 0.40455267 -0.29600546 -0.014080054 0.011733491 0.11561314 -0.2124922 0.19317621 0.17962413 0.47081158 -0.092171423 -0.20426568 -0.10994698 -0.082516901 0.17347637 -0.077213109 0.28016594 -0.13423494 0.13358535 -0.12346609 -0.009572668 0.017147418 0.059482031 -0.14130387 -0.31290448 0.043759022 0.041982085 0.21982625 -0.20508684 -0.27287528 -0.061054509 0.017480064 -0.19284351 -0.15265952 0.018458199 -0.0079209441 0.051533218 -0.035240989 0.038371384 0.089153029 0.011575993 -0.057226285 -0.034433253 0.1119466 0.26991037 -0.13313054 -0.21039683 -0.015354345 -0.1412048 0.038634241 0.1252391 -0.22411603 0.088382095 0.0067493981 0.010274622 -0.088476688 -0.046653859 -0.0075201308 0.012458627 0.12049774 -0.19221634 -0.19177374 -0.17805919 -0.074714951 -0.64376891 -0.25526062 0.051384084 -0.056718189 -0.1425544 -0.12891555 -0.00029836898 0.14123964 -0.16217996 0.13842195 0.23110837 -0.31189698 0.14451392 -0.22943218 0.34633693 0.028955288 -0.22605507 0.2328099 0.078767776 0.29750562 -0.19963181 0.052085504 0.16018555 0.018663999 -0.14625198 -0.29021582 -0.15431741 0.32787654 0.22435765 -0.35399118 -0.061394375 0.30732563 -0.10390752 0.010353822 0.20874408 -0.20480531 -0.14263016 0.11949363 0.24402294 0.2757946 -0.10379372 0.14048584 0.011689539 0.18981379 0.073417135 -0.078400441 0.15712158 0.1898822 0.25451297 0.11007114 -0.38131702 0.23729999 -0.037434783 0.025861572 0.047909021 0.058612924 -0.0077833128 -0.031379636 -0.23077586 0.012314384
org.apache.tomcat.util.buf -0.14805071 -0.32697186 0.1652772 -0.2178289 -0.1541274 -0.17667216 -0.23626062 -0.070245348 0.018888459 -0.035135001 -0.2701422 0.039378796 0.068882965 -0.12008057 0.15457296 0.092900358 -0.003646658 0.0037088671 0.11878949 0.078917749 0.11435755 0.0057246755 0.067738146 0.035494961 -0.12758687 -0.034426294 -0.065061063 -0.014554524 -0.093265474 -0.23592268 0.04699605 -0.16249113 -0.1619449 -0.19519421 -0.081805609 0.261866 -0.078578331 0.056553181 0.097269513 -0.1959631 -0.50054544 0.20091365 0.031434625 0.0062246257 0.060143482 0.047759339 -0.1270147 -0.035510421 -0.055726912 -0.12478892 -0.45812193 0.31896845 -0.065205552 -0.050012387 0.193068 -0.38757208 0.011550608 0.25930572 -0.44424182 0.019428169 0.079339944 -0.11476868 0.48175317 0.045610823 0.03669434 0.22730711 -0.15004402 -0.0097476989 0.038601741 -0.11695993 0.1555334 -0.114998 -0.18184586 -0.086782552 0.099066161 0.39525852 0.16476628 0.022989582 0.0082060378 -0.2954298 0.0045199161 -0.36502925 -0.045356032 -0.071556941 -0.15989591 0.17489594 -0.17843403 -0.013603781 0.03024276 -0.27708223 0.096888967 -0.10125127 -0.15381935 -0.046285801 -0.38154712 0.16169718 0.076955311 -0.067326792 -0.026459372 0.14541444 0.10630981 -0.088487044 -0.041148946 -0.22053041 0.13483718 0.24163967 0.065765694 -0.0031662951 -0.29710898 0.45792398 -0.19110471 -0.16387579 -0.18802655 -0.29590362 0.016705025 -0.25416058 0.36332545 0.24310341 -0.16074392 -0.14534709 0.030794898 -0.1951406 -0.099994995 -0.092757948 -0.21576367 0.30153209 0.073440768 -0.018775597
org.apache.catalina.tribes.tipis -0.17760704 0.090167567 0.25275317 -0.11403389 -0.046159156 0.29498422 -0.092528187 -0.07532724 -0.23377044 -0.030814981 -0.083727576 0.0018990387 -0.018862264 -0.19638593 0.0035012702 -0.11394468 -0.41684803 0.040728409 -0.056305926 -0.2315855 0.17618191 0.36283195 -0.046641499 0.34917682 -0.0099384086 -0.14006321 0.093977518 0.012430318 -0.021001518 0.16650656 0.12049191 0.12924594 0.0012155118 -0.14447793 0.054250028 -0.087274738 -0.19942467 -0.26783898 -0.0021934409 0.13737521 0.28236118 0.18051212 -0.0017367712 -0.045229789 0.029493446 -0.029257184 0.039090849 0.18811546 -0.25996366 0.15564029 -0.1867778 0.046573073 -0.16991861 0.21562988 -0.020033853 0.26100358 -0.32553035 0.053338073 0.077384323 -0.0071835755 0.073369317 -0.20238385 0.25272435 0.17274052 -0.21302991 0.23434751 0.026089709 -0.03388584 0.25129092 -0.0034278485 0.076871365 -0.031326 -0.29911774 -0.16304411 0.087687597 0.2049489 0.25748742 -0.050907135 -0.24895288 -0.10123789 0.056652408 0.095559679 -0.0058155758 0.0027059575 0.012155679 0.13968579 -0.1326694 0.022343524 -0.0010025237 -0.030190628 -0.016006531 0.04628383 -0.10368136 -0.23552029 -0.10856056 0.177154 -0.020492179 -0.067650795 -0.21888602 0.18793267 -0.034913257 -0.18227525 -0.077156499 -0.09301687 0.44267094 0.11483125 0.24434251 -0.18291338 -0.27359244 0.23596427 0.078090042 -0.13244633 -0.32078466 0.031949084 0.11511287 -0.068766966 0.33007842 0.36853218 -0.13529593 0.14239721 0.099607155 -0.22761625 -0.38252896 -0.069670297 0.03530971 0.089345291 -0.14779343 -0.01890618
org.apache.catalina.manager 0.0131544 -0.17937243 0.27732942 0.19098559 0.017853627 -0.032590508 -0.090601236 -0.01553144 0.043781225 -0.1474884 -0.18404511 -0.017930977 -0.0054116938 -0.11120969 0.1139199 0.17323555 0.057848472 0.12812914 0.10951359 -0.12785207 0.015746191 0.09319374 0.021573711 0.10651524 -0.017208485 -0.11932356 0.18772948 0.12328972 -0.1450123 -0.14760545 0.17442714 0.15014423 -0.2178091 -0.24059628 0.082405962 0.19535461 -0.013280175 -0.17488983 -0.14062005 -0.04233868 -0.19746959 0.34700304 0.027564086 -0.1145865 0.13701135 0.059606448 -0.010272197 -0.041147456 0.062135283 -0.18948677 -0.45939857 0.038476549 -0.25375432 0.054345485 0.06236463 -0.23531467 -0.023842456 0.098098762 -0.21377923 0.066744551 0.20353135 -0.14527969 0.23412833 0.10738565 -0.15615192 0.28099713 0.044939701 0.11674877 -0.017035617 -0.27002969 0.089154907 -0.095732681 -0.025279686 0.15733913 -0.035959516 0.3114453 0.031537537 0.094453335 -0.031193513 -0.18282299 0.063377298 0.0021997262 -0.063247986 0.023254717 0.1583373 0.13034497 -0.029542416 0.066072248 0.067233011 -0.33672518 -0.10683198 0.0095092049 -0.19630465 -0.14416121 -0.1488307 0.36522189 -0.0071725869 -0.025936957 -0.054953326 0.066931151 0.1541799 -0.15729439 0.22163782 -0.25167754 0.22002135 0.22277492 0.12509255 -0.014958462 -0.34106937 0.35613987 -0.15764508 -0.20546061 -0.28915027 -0.17442903 -0.14169267 -0.23530599 0.23537143 0.3423135 0.027147792 -0.041371819 -0.017941898 -0.29154682 -0.050715338 -0.0015412754 -0.0097049195 0.093048207 0.21039908 -0.15713234
org.apache.el.parser 0.67470694 0.13948704 0.057525568 -0.20045768 0.099391676 0.13788909 -0.080828682 -0.13640825 -0.023800384 0.24585943 -0.34514773 0.24302226 0.20097072 0.12770939 -0.026989881 0.34422094 -0.24253836 -0.02482448 -0.37976021 -0.254711 0.16297479 -0.16991283 0.15644349 0.2750738 -0.36819604 0.13735834 0.10547411 -0.14319636 0.067765683 0.10453732 0.20210518 -0.025919912 -0.14989489 -0.1655027 -0.20923877 0.075040579 0.15293001 0.051143978 0.15318775 0.16385968 0.038138214 -0.22613797 -0.21956426 -0.11352085 -0.20538259 -0.29015222 0.079623193 0.31177014 -0.35917613 0.1236176 -0.049869288 -0.053289175 -0.15441287 -0.1619325 0.094325326 0.02309143 -0.27707806 0.2099025 0.23964983 0.025431806 0.15185994 -0.25240308 0.064191326 -0.0018204749 0.10874692 -0.013813053 -0.027179439 -0.12430176 -0.16835628 -0.33039171 -0.090250961 0.25207669 -0.26178616 -0.17336716 0.21776117 0.22454762 0.023203075 -0.31847292 0.02002639 -0.32094082 -0.090314247 -0.0024673003 -0.040896364 0.19753776 -0.24356265 0.14993374 -0.11542895 -0.075412452 0.31746438 0.057535738 -0.12533717 0.097596437 -0.047108136 0.023601748 -0.063677758 0.037763156 0.20802659 0.073799543 0.030265694 -0.16081974 0.26199368 -0.066386372 -0.31081602 0.10193154 0.16298836 0.031738084 0.096269391 -0.008170709 0.28396311 0.039143439 0.018620927 -0.14278346 0.18268332 0.021136921 0.3926855 0.11204293 -0.059176225 0.20597611 -0.22464618 -0.13503309 0.16524409 -0.38491926 -0.51177585 -0.25863093 -0.07588359 -0.047505334 -0.080171846 -0.21886344
java.util.concurrent 0.17073199 0.11801415 -0.006465964 0.16458474 0.32713923 0.28825867 -0.3560102 0.061111201 0.096235566 0.079316489 -0.022162747 0.1702403 0.16239686 0.3182787 0.11606346 -0.045383137 0.079157427 0.0042119529 0.25028786 0.070692644 0.19491695 0.098009981 0.077750184 0.14790964 0.095362246 0.12305223 -0.0064517334 0.049919248 -0.16425823 -0.031381592 -0.050667752 0.27877456 -0.047137354 -0.011866628 0.095956862 0.073047683 -0.22370367 -0.08020404 0.061127361 -0.19841297 -0.17251696 -0.0096229939 0.12352703 0.20013081 0.050855752 -0.11863539 -0.043513242 0.21851142 0.34694126 -0.17842177 -0.13703024 0.026144756 -0.10621024 0.12803294 0.19425534 -0.2861484 0.20794424 -0.043079119 -0.02547938 -0.050640859 -0.0066867904 0.096704304 0.071849406 0.037833273 -0.34481385 -0.2182152 -0.071026385 0.046088975 -0.61708498 -0.39273939 -0.11862893 -0.047070794 -0.24427164 -0.079162873 0.085501216 0.13842611 -0.18152584 0.045567688 0.20828001 -0.38883868 0.10778705 -0.20710674 0.17393064 0.13940634 -0.11804035 0.45168307 0.077884406 0.1913193 -0.12819299 0.13847066 -0.068557583 0.19579476 -0.19240066 -0.38163102 -0.1800077 0.38859981 0.12126982 -0.33979952 -0.086313166 0.2048386 0.069088489 -0.0080977883 0.057855029 -0.2466125 -0.19208296 -0.027543001 0.038005978 0.044435877 -0.088652685 0.076304853 -0.16841182 0.21828067 0.13507155 -0.044543467 0.16093746 -0.013425641 0.2270038 0.10976896 -0.22550398 0.072920382 -0.082132109 -0.043122105 -0.057205178 0.17508657 0.037392449 0.073073968 -0.24055319 -0.0035414128
java.util.jar 0.13309306 -0.11449369 0.091274828 -0.15074958 0.21575037 0.38764575 -0.1763749 -0.35671148 0.04529852 0.25331342 -0.17494193 0.42309639 0.21847717 0.23996511 0.14881331 -0.30715454 0.015711624 0.014090746 0.031415913 0.05599511 0.05835557 0.025973391 0.071441472 -0.091875717 -0.030291785 0.15160187 0.23036584 -0.11853079 -0.014862593 0.089859858 0.010381381 0.1624095 -0.067638837 -0.32602206 0.022090606 -0.012033228 -0.14427496 -0.23005378 0.25216633 -0.060872003 0.099747188 -0.056134585 0.031313583 0.10244372 0.15201968 -0.0011430818 0.08649423 0.049715109 0.14457692 -0.13595225 -0.21050495 0.022501383 -0.26645374 0.12235794 0.08635743 -0.22018553 0.27618065 -0.1073268 0.1668026 -0.11868206 -0.19163585 0.11017367 -0.19269213 -0.076962791 -0.33009315 -0.10764474 0.069010645 -0.063124165 -0.36766228 -0.32443205 -0.059335947 -0.11987127 -0.083514743 -0.089459673 -0.065910585 0.093997046 -0.023822527 0.16022623 0.16066472 -0.41288003 0.17646948 -0.10975394 0.22323647 -0.13669102 -0.20254631 0.17564209 0.095879406 0.2229013 -0.28449699 0.18196812 0.016754264 0.01291564 -0.21511707 -0.17838815 -0.23352347 0.020053271 0.22027227 -0.29601794 -0.12246104 0.20757188 0.0082528675 0.00088144158 0.10452785 -0.15819408 -0.32433894 0.093314223 0.25378689 0.0042672642 -0.17297918 0.094879098 -0.051266737 0.33782762 0.0091515835 -0.036027774 0.062134422 0.0071765138 0.19433539 -0.040539477 -0.26548615 -0.036051933 -0.12411787 0.022118207 -0.093874902 -0.065813467 0.16153464 0.047457058 -0.32940248 -0.036647018
org.apache.tomcat.websocket.server -0.11206602 -0.10963455 0.26518735 -0.10029093 -0.12269909 -0.045360792 -0.17143354 -0.00095628749 -0.055951323 0.0063494048 -0.16179202 -0.075839132 -0.014587338 -0.30802625 0.20993926 0.0093467478 -0.081996568 0.055912975 0.11322381 -0.14048479 0.10592797 0.15818962 0.067409121 0.22603171 -0.1150899 -0.2116587 -0.12603778 0.027011884 -0.053139668 -0.19773005 0.065454818 -0.009767103 -0.11476012 -0.19580376 -0.0014076644 0.12582764 -0.074644908 -0.040402334 0.062940083 -0.16956328 -0.14419442 0.37184235 1.9361287e-06 -0.10180539 0.051169481 0.05370513 -0.14866969 0.080124468 0.063835442 -0.063357033 -0.38982826 0.22676541 -0.11722008 0.010000108 0.16427892 -0.21221347 -0.053692792 0.12942086 -0.42646569 -0.05369392 0.21331766 -0.12695248 0.41366243 -0.02436796 0.062103972 0.20336115 -0.12429229 0.05035276 -0.020828826 -0.11872117 0.076450087 -0.18542747 -0.30793181 0.049806058 0.13581137 0.29038468 0.075503811 -0.055479322 -0.094847083 -0.10014317 0.10691949 0.020191647 -0.0051692757 -0.020646408 -0.033979829 0.12642889 -0.1278591 -0.06714841 0.11348376 -0.26271564 0.084345296 0.029189659 -0.11111157 -0.096800551 -0.4053753 0.32024124 0.19093578 -0.031223388 -0.017843055 0.26431865 0.10367424 -0.14711869 -0.028429294 -0.20149595 0.21523201 0.23743257 0.11731736 -0.096703306 -0.21326189 0.38149002 -0.1621989 -0.19547339 -0.13168426 -0.21466987 -0.037055492 -0.28758261 0.23087977 0.2515268 -0.22484815 -0.055004999 -0.0038623961 -0.35341597 -0.24508552 -0.12055963 -0.074337371 0.22378449 -0.040948901 -0.14395629
org.apache.tomcat.jni 0.13635825 -0.1441265 0.1735826 -0.0083292853 0.15938228 0.43641689 -0.31163502 -0.25418049 0.081664182 0.28958532 -0.18935436 0.3317264 0.14964388 0.28014565 0.015802305 -0.22235321 -0.023148295 0.026963534 0.19596076 -0.049334582 0.16401516 0.046935137 0.0474189 -0.025180601 0.015515691 0.024521818 0.16837111 -0.0051605506 -0.062068854 0.058230426 0.071936622 0.20778117 -0.13107497 -0.30178791 0.082614854 -0.055146623 -0.20428447 -0.10479154 0.2374821 0.010356382 0.12191135 0.040439453 0.045811027 0.061546165 0.1529844 0.074758761 0.11823039 0.043515135 0.2559835 -0.22782438 -0.026332043 -0.045806598 -0.20869449 0.15840971 0.12795502 -0.20948216 0.19380271 -0.24538986 0.063597672 -0.17205159 -0.17579654 0.015901698 -0.13452844 0.061871052 -0.29664987 -0.18263444 -0.046452716 -0.090032265 -0.57345998 -0.26823756 0.020136697 -0.18081124 -0.10428883 -0.081516489 -0.11580811 0.18219697 0.032186981 0.15849228 0.25734609 -0.35666695 0.23145682 -0.11174814 0.3095496 -0.017737942 -0.23182377 0.25317311 0.10505707 0.2397785 -0.34750473 0.23190759 0.13587344 0.062766939 -0.33391625 -0.12216167 -0.32699713 0.17353912 0.17952229 -0.38636696 -0.054092731 0.24339555 -0.050985385 0.059959065 0.1851414 -0.24993016 -0.30345544 0.0078801885 0.22302406 -0.053738691 -0.02474107 0.24670196 -0.11628912 0.03375997 0.059587285 -0.02069254 0.16111678 0.076135471 0.17066953 -0.088745587 -0.19312923 -0.032209631 -0.1248129 -0.062671155 -0.051706892 0.0022944887 0.026072688 0.15169033 -0.30023661 -0.087987639
org.apache.tomcat.util.modeler.modules 0.0075905444 -0.13601893 0.10954621 -0.015888788 -0.049041744 0.1987122 0.15050191 0.17104889 0.10993685 0.14710642 -0.50782037 0.070998445 0.024475576 -0.14191179 0.018151104 -0.1023953 -0.10624695 0.19609517 0.17473525 -0.49413025 0.12268028 0.24918482 0.080703452 0.31136549 -0.10499034 -0.18246718 0.13805813 0.13355125 0.01177154 0.059484307 0.31596431 0.097153962 -0.10486321 -0.20498918 -0.028293822 0.1217442 -0.18577184 -0.055914633 0.143374 -0.096051037 0.023645438 -0.20807984 -0.032463629 -0.081702836 0.23322035 0.12736428 -0.068402596 0.1897673 0.018801719 -0.21819517 -0.018824397 0.065342642 -0.34871319 0.056024078 0.0069961073 0.017884312 -0.14592984 0.0020747783 -0.039635859 0.28452078 -0.041505326 -0.12939742 0.17575155 0.23210381 -0.12262637 0.20245035 -0.13298562 0.13346218 0.015107205 -0.062673874 0.24261251 -0.10915591 -0.07206437 -0.04206882 -0.0792595 0.10952002 0.2642571 -0.033197563 -0.17877454 -0.061092939 0.037686974 -0.050371714 -0.23135562 0.039641712 0.11285233 0.098158546 0.23616448 0.039309718 0.099499352 -0.20152546 -0.021409467 0.089828067 0.043034632 -0.25835806 -0.19918169 0.22217499 0.03801972 -0.12868936 0.10276169 0.052766997 -0.034336496 -0.037493549 -0.096536011 -0.023201384 0.21916074 0.12914641 0.15110672 -0.11929718 -0.063529916 0.14039619 0.075989626 -0.28508845 -0.14898573 -0.21958216 0.086987272 -0.15164587 0.10985363 0.093938209 -0.22168316 -0.022546489 0.18888925 -0.41499913 0.15571828 -0.13249137 -0.22311112 -0.12743795 0.14078018 -0.17455252
java.util.concurrent.locks 0.42854103 -0.35287261 -0.17811319 0.062933356 0.44755033 -0.22076294 0.20409219 0.23388684 0.1378254 -0.22941303 -0.76128715 -0.079131156 0.57650024 -0.081288457 -0.2787289 -0.74956828 0.35445884 0.1555405 0.13817608 -0.042091284 -0.25103387 0.26774481 0.21353658 0.10122287 -0.09605515 0.33247662 0.06708128 0.084591404 0.1948422 0.027550204 0.070273764 0.19424413 0.44633374 0.3576982 -0.1114357 0.5008207 0.069913939 0.75685734 0.37838578 -0.36732036 -0.88874972 -0.36607683 -0.044911157 0.16888985 -0.83594686 -0.30231696 0.49389476 -0.48079059 -0.31667143 0.042744715 -0.30889535 0.29430193 -0.27636918 0.23174259 -0.62531424 -0.28181362 0.16188546 -0.18156761 -0.24943277 -0.10007014 -0.28192073 -0.019000001 -0.4135893 -0.49319199 0.61152995 -0.74720377 -0.13657424 0.083099529 -0.27382132 0.52146143 -0.066136368 0.02475871 0.058982309 -0.26592308 -0.50538301 0.27761135 -0.34423873 0.10149648 0.52300107 0.076798744 -0.1339623 -0.14788726 -0.19044685 0.12644638 -0.52789927 0.40337095 -0.32544759 -0.10082269 -0.1860279 0.15735756 0.28694594 0.097663142 0.11886277 0.40616658 -0.43977901 0.057070617 0.34333792 -0.80660796 -0.38798827 0.37616664 0.060168806 -0.31769624 0.3140007 0.23362654 0.68595976 0.17586178 0.0058614272 -0.43711144 -0.19679056 0.59123588 0.065521792 0.61243469 -0.29079181 0.025722953 -0.060376704 0.073369905 -0.23401405 0.53540117 0.24446215 -0.1666586 -0.10349787 0.28008193 -0.59076852 -0.2316002 0.89164084 -1.2913121 -0.30206111 -0.43578884
org.apache.jasper.tagplugins.jstl 0.058802854 -0.03917956 0.13254179 -0.092120014 -0.054057453 0.32801923 -0.023561178 -0.22814737 0.097375959 0.26873115 -0.41314939 0.25582716 0.17053634 0.088998385 -0.19684823 -0.20717706 -0.13432039 0.18154342 -0.12487941 -0.14779212 0.038240902 0.018555555 0.027793115 -0.016034046 0.047116585 0.039521564 0.17257862 -0.1111611 0.051030193 0.081469335 0.30660206 -0.079144046 -0.011622787 -0.018313246 -0.17013459 0.10448734 0.13260789 -0.030170867 0.1454237 -0.11269246 0.12123743 -0.2227626 0.043345504 0.1897123 -0.18471648 -0.018172573 0.16075973 0.07312277 -0.051707298 0.18243703 0.12641875 -0.14524268 -0.1536589 0.16101292 -0.11649663 0.035920929 -0.0618448 0.22815399 -0.19491412 0.078185767 -0.033015374 -0.079166196 0.09442506 0.13488282 -0.19376011 0.27373651 -0.032880839 0.029136846 -0.30051333 -0.42776492 0.19943967 0.15693013 -0.22606696 0.19056331 0.27953449 0.0065587657 0.073140189 -0.22702846 -0.070147343 -0.01201938 0.02222237 -0.16776423 -0.02635381 -0.055654209 -0.27935684 0.51010203 -0.060083866 -0.076655857 0.19240053 -0.18262881 0.027430531 0.035589088 0.06340155 0.15531722 -0.13672185 0.25210473 0.10456933 -0.025752833 -0.033109229 -0.077113308 0.087397233 0.026074126 -0.015191672 0.068640821 0.037806753 0.12298492 0.18837765 0.078433879 0.097585998 0.0092572691 0.050910167 -0.24989492 0.046206262 -0.017520385 0.23153672 0.023036581 0.017800424 -0.09862157 0.060362574 -0.089441516 -0.0075141368 -0.041603606 -0.067634754 -0.1982739 0.1623176 -0.032384221 -0.15493619 -0.051948477
org.apache.tomcat.util.scan 0.026640719 -0.12032853 0.25038779 0.067652293 0.0091072256 -0.081343658 -0.070848994 0.09182974 -0.075625241 -0.055342343 -0.19099739 -0.12385228 -0.00064121344 -0.2342162 0.02928861 0.020261891 -0.20848161 -0.032646522 0.10558254 -0.38136339 0.21146241 0.092327148 -0.018881766 0.18212649 -0.18512748 -0.2486801 0.096878424 0.027537256 -0.054630637 -0.00076050049 0.16584687 0.046140194 -0.063906685 -0.26104394 0.016377397 -0.034353491 -0.12755468 0.03680544 0.0067270873 -0.11421428 -0.0093918284 0.06302011 -0.16277991 -0.22590785 0.048829783 -0.0016491482 0.064285286 0.16881047 -0.13644978 -0.048349138 -0.28412896 0.15140957 -0.36658946 0.072653249 0.16261484 -0.15874353 0.038132738 0.13703334 -0.26757115 -0.0029959432 0.15708108 -0.16707578 0.20585711 0.17119205 -0.0089207888 0.24554516 -0.036198016 0.1765431 -0.057176072 -0.23919475 0.092614241 -0.12307813 -0.10759561 0.043075752 0.042810868 0.29865718 0.037921187 0.13799702 0.053331435 0.02936008 0.22508386 0.15113284 -0.1760114 0.076028287 -0.0087188343 0.1613166 0.11773904 0.021602968 0.082590632 -0.178882 0.022095297 0.10049523 -0.13633876 -0.0072346241 -0.33518785 0.43427715 0.018991763 -0.065779828 0.12041869 0.11843834 0.10575936 -0.14882019 0.0097434279 -0.24357912 0.26299846 0.23506609 -0.23709369 -0.13980052 -0.062276162 0.32491517 0.052190572 -0.23476504 -0.25873658 -0.12243458 -0.094754562 -0.29195675 0.12572947 0.28216216 -0.15369602 0.047075074 -0.090513892 -0.26584119 0.013535732 -0.036922112 -0.2564998 0.14438665 0.12719007 0.021040602
